solver_type L2R_L2LOSS_SVC_DUAL
nr_class 2
label 1 2
nr_feature 17920
bias -1
w
0.010841077428153 
0.0007012580383558469 
0.01151347121740946 
0.007352603946605181 
0.006520837041739125 
0 
0.01151347121740946 
-0.007352603946605181 
0.010841077428153 
-0.0007012580383558469 
0.01391527340821361 
0.007216206097048304 
0.01486047813485779 
0.01335334048699104 
0.01195222019627264 
0 
0.01486047813485779 
-0.01335334048699104 
0.01391527340821361 
-0.007216206097048304 
0.01065074722847523 
0.00517127780982053 
0.01263789931587378 
0.01157825365822372 
0.009406338297625133 
0 
0.01263789931587378 
-0.01157825365822372 
0.01065074722847523 
-0.00517127780982053 
0.006419566290105874 
-0.009341267393906104 
0.002512684348541256 
-0.0024482722486931 
-0.008124516168869467 
0 
0.002512684348541256 
0.0024482722486931 
0.006419566290105874 
0.009341267393906104 
0.008053614071815495 
-0.003269296466086065 
0.004503629457315538 
0.002947192546854222 
-0.004285139217131454 
0 
0.004503629457315538 
-0.002947192546854222 
0.008053614071815495 
0.003269296466086065 
0.001353019200848372 
-0.001179291697029841 
-0.002448333452290142 
0.003197544914283731 
-0.01138302643427838 
0 
-0.002448333452290142 
-0.003197544914283731 
0.001353019200848372 
0.001179291697029841 
-0.0003206404610072262 
-0.01413280180691694 
-0.006205420616876821 
-0.008321915502726793 
-0.01928262851427217 
0 
-0.006205420616876821 
0.008321915502726793 
-0.0003206404610072262 
0.01413280180691694 
0.004159388256540609 
-0.004053270283615873 
-8.412082108385953e-05 
0.001185297910091476 
-0.009416822405131661 
0 
-8.412082108385953e-05 
-0.001185297910091476 
0.004159388256540609 
0.004053270283615873 
-0.001638593064425309 
0.0001813699666273233 
-0.007334303961040455 
0.003308726785442244 
-0.01696712007612835 
0 
-0.007334303961040455 
-0.003308726785442244 
-0.001638593064425309 
-0.0001813699666273233 
-0.004724991265746998 
-0.01770719906133966 
-0.01222206075343765 
-0.01169728068091363 
-0.02735143371261634 
0 
-0.01222206075343765 
0.01169728068091363 
-0.004724991265746998 
0.01770719906133966 
0.003090153582657402 
-0.004968470408419177 
-0.002218057676808162 
0.0003463415366280452 
-0.01244919633449381 
0 
-0.002218057676808162 
-0.0003463415366280452 
0.003090153582657402 
0.004968470408419177 
-0.001386023170615914 
0.002284112953619628 
-0.008063857428579109 
0.004883444636336858 
-0.01763979794855578 
0 
-0.008063857428579109 
-0.004883444636336858 
-0.001386023170615914 
-0.002284112953619628 
-0.002255282159862534 
-0.01443561927110387 
-0.009727231392478105 
-0.008544056527355102 
-0.02397308462542272 
0 
-0.009727231392478105 
0.008544056527355102 
-0.002255282159862534 
0.01443561927110387 
0.0007921531343188779 
-0.004266721613973361 
-0.005401583472513169 
7.748363086857471e-05 
-0.01616071511928552 
0 
-0.005401583472513169 
-7.748363086857471e-05 
0.0007921531343188779 
0.004266721613973361 
-0.00822965504589448 
0.001848075526384312 
-0.01752792290482028 
0.002394926216635627 
-0.02880298757849332 
0 
-0.01752792290482028 
-0.002394926216635627 
-0.00822965504589448 
-0.001848075526384312 
0.006850202825582061 
-0.01037216165567331 
0.005307703058932767 
-0.002260018104254387 
-0.004310239387460059 
0 
0.005307703058932767 
0.002260018104254387 
0.006850202825582061 
0.01037216165567331 
0.01136828715438603 
-0.0010184655319344 
0.01148403029805619 
0.006208711507600493 
0.00543924898801668 
0 
0.01148403029805619 
-0.006208711507600493 
0.01136828715438603 
0.0010184655319344 
6.347608187422051e-05 
0.003371454722174979 
-0.004422480728388985 
0.006493635583142147 
-0.01246914400447046 
0 
-0.004422480728388985 
-0.006493635583142147 
6.347608187422051e-05 
-0.003371454722174979 
-0.003728239683436191 
-0.01831280158200628 
-0.009182452185344908 
-0.01179435599641736 
-0.0232102188463855 
0 
-0.009182452185344908 
0.01179435599641736 
-0.003728239683436191 
0.01831280158200628 
0.001381906648718429 
-0.007516864862633185 
-0.001451830738602423 
-0.00185012794972397 
-0.01096853246990673 
0 
-0.001451830738602423 
0.00185012794972397 
0.001381906648718429 
0.007516864862633185 
-0.007845013433809644 
-0.002465793455836058 
-0.01448169978664158 
-0.000508403363255219 
-0.02533870961031101 
0 
-0.01448169978664158 
0.000508403363255219 
-0.007845013433809644 
0.002465793455836058 
0.008987012590290239 
-0.01500824575932516 
0.008776131563263742 
-0.006192945831418352 
-0.0001898195771338132 
0 
0.008776131563263742 
0.006192945831418352 
0.008987012590290239 
0.01500824575932516 
0.01019898106978008 
-0.004305526041888815 
0.01156682444482728 
0.0024112685735253 
0.006400320002129126 
0 
0.01156682444482728 
-0.0024112685735253 
0.01019898106978008 
0.004305526041888815 
0.001078204959850257 
-0.0006605103053167967 
-0.0008573698199473614 
0.002763991311458595 
-0.007198091672283544 
0 
-0.0008573698199473614 
-0.002763991311458595 
0.001078204959850257 
0.0006605103053167967 
-0.002449613813967954 
-0.0005419165734039777 
-0.007605549880851958 
0.002903265577280611 
-0.01690950594500811 
0 
-0.007605549880851958 
-0.002903265577280611 
-0.002449613813967954 
0.0005419165734039777 
0.006933255033788073 
0.004741325555845274 
0.004557741289918964 
0.009669078634346601 
-0.00157399621448564 
0 
0.004557741289918964 
-0.009669078634346601 
0.006933255033788073 
-0.004741325555845274 
0.007476261673437479 
0.002860779417246634 
0.006903916356984127 
0.008572979026641329 
0.001326081662291414 
0 
0.006903916356984127 
-0.008572979026641329 
0.007476261673437479 
-0.002860779417246634 
0.0003422856847104478 
-0.008982266370163758 
-0.005850767340277046 
-0.003450275459808666 
-0.01757244017577711 
0 
-0.005850767340277046 
0.003450275459808666 
0.0003422856847104478 
0.008982266370163758 
0.01116892034264769 
-0.001985075112519102 
0.007735353143094165 
0.005158119906657971 
-0.0004215025909013306 
0 
0.007735353143094165 
-0.005158119906657971 
0.01116892034264769 
0.001985075112519102 
0.008697373045616632 
-0.003549523199335108 
0.004821896833086621 
0.003287329219077023 
-0.004048428300209051 
0 
0.004821896833086621 
-0.003287329219077023 
0.008697373045616632 
0.003549523199335108 
0.00280634369653778 
-0.008551208390022193 
-0.0006787569891078534 
-0.001811084890509396 
-0.01159274179249865 
0 
-0.0006787569891078534 
0.001811084890509396 
0.00280634369653778 
0.008551208390022193 
0.01365210863423829 
0.0007896529886758924 
0.01378817438775772 
0.008775743556916581 
0.007554385767606359 
0 
0.01378817438775772 
-0.008775743556916581 
0.01365210863423829 
-0.0007896529886758924 
0.01045458151458599 
0.004374675230502658 
0.009317647190124109 
0.01057550908154293 
0.003285382247788923 
0 
0.009317647190124109 
-0.01057550908154293 
0.01045458151458599 
-0.004374675230502658 
-0.005754477445277165 
-0.01137109147923733 
-0.0121838735432469 
-0.006312820091209438 
-0.02558923792683193 
0 
-0.0121838735432469 
0.006312820091209438 
-0.005754477445277165 
0.01137109147923733 
0.006084561959704055 
-0.001824156664560753 
0.003751783132303706 
0.004548750262071635 
-0.004682514806291915 
0 
0.003751783132303706 
-0.004548750262071635 
0.006084561959704055 
0.001824156664560753 
-0.0004417281652936829 
0.00230427332910362 
-0.006272873456402655 
0.005594781749579017 
-0.01565327919630191 
0 
-0.006272873456402655 
-0.005594781749579017 
-0.0004417281652936829 
-0.00230427332910362 
0.0002754559034172512 
-0.01114347777847485 
-0.003679218174802085 
-0.004743373959108979 
-0.01529714241686366 
0 
-0.003679218174802085 
0.004743373959108979 
0.0002754559034172512 
0.01114347777847485 
0.01532516457682649 
0.000464174914609463 
0.01733016871158084 
0.008865810371323689 
0.01223725955745505 
0 
0.01733016871158084 
-0.008865810371323689 
0.01532516457682649 
-0.000464174914609463 
0.005502597548469289 
0.007644671473449408 
0.00311494111587887 
0.01127103710837305 
-0.002599657036345059 
0 
0.00311494111587887 
-0.01127103710837305 
0.005502597548469289 
-0.007644671473449408 
0.005321444385224027 
-0.01278205397601374 
0.00289241518791916 
-0.004184357621857443 
-0.008486214849999783 
0 
0.00289241518791916 
0.004184357621857443 
0.005321444385224027 
0.01278205397601374 
0.01701881754589315 
-0.003994252399171828 
0.01917882411389729 
0.006037028969411476 
0.012906030787485 
0 
0.01917882411389729 
-0.006037028969411476 
0.01701881754589315 
0.003994252399171828 
0.006141435860865217 
0.001036600780771172 
0.003330052448710625 
0.006466541490280552 
-0.004603497851021676 
0 
0.003330052448710625 
-0.006466541490280552 
0.006141435860865217 
-0.001036600780771172 
-0.0005320051550212168 
-0.01062472465694819 
-0.006048076304973499 
-0.00423543786830184 
-0.01866554123490242 
0 
-0.006048076304973499 
0.00423543786830184 
-0.0005320051550212168 
0.01062472465694819 
0.009147335955464476 
0.00162608321141409 
0.008112151359999868 
0.007948707542182484 
0.001430690332705559 
0 
0.008112151359999868 
-0.007948707542182484 
0.009147335955464476 
-0.00162608321141409 
-0.0013224156802392 
0.004424421025115076 
-0.006814768292285352 
0.007034544661667115 
-0.01555806259664095 
0 
-0.006814768292285352 
-0.007034544661667115 
-0.0013224156802392 
-0.004424421025115076 
0.009277183681148368 
-0.01214358495933045 
0.009973481479484072 
-0.002266507515594061 
0.0006302843133515583 
0 
0.009973481479484072 
0.002266507515594061 
0.009277183681148368 
0.01214358495933045 
0.01585005859361101 
-0.001085373518526717 
0.01869193547708661 
0.007957446374858184 
0.01351781126515569 
0 
0.01869193547708661 
-0.007957446374858184 
0.01585005859361101 
0.001085373518526717 
0.005037156747278035 
0.0009908546874579187 
0.003297375531231638 
0.006185810884195563 
-0.00412748493247766 
0 
0.003297375531231638 
-0.006185810884195563 
0.005037156747278035 
-0.0009908546874579187 
0.0005133107815968861 
0.003358431721620605 
-0.002948455411558682 
0.006728165958774274 
-0.010036094319726 
0 
-0.002948455411558682 
-0.006728165958774274 
0.0005133107815968861 
-0.003358431721620605 
0.006482999730927872 
0.005930938695279648 
0.004813243005475898 
0.01050018144763094 
-0.0005306626564238609 
0 
0.004813243005475898 
-0.01050018144763094 
0.006482999730927872 
-0.005930938695279648 
0.004191923176882911 
0.001475104704005833 
0.00339179086172736 
0.006546415996115295 
-0.002596269326729586 
0 
0.00339179086172736 
-0.006546415996115295 
0.004191923176882911 
-0.001475104704005833 
-0.004786737463994356 
-0.01148732269485891 
-0.01357477135474153 
-0.006312620640930282 
-0.02832853262551874 
0 
-0.01357477135474153 
0.006312620640930282 
-0.004786737463994356 
0.01148732269485891 
0.002785946956469676 
-0.007580288882496435 
-0.003128088489242834 
-0.001000497896203345 
-0.01510052523233 
0 
-0.003128088489242834 
0.001000497896203345 
0.002785946956469676 
0.007580288882496435 
-0.004299682451382264 
-0.009322826833643457 
-0.01183923735969081 
-0.00432706526363751 
-0.02529287418399734 
0 
-0.01183923735969081 
0.00432706526363751 
-0.004299682451382264 
0.009322826833643457 
-0.0004620543272829461 
-0.006171200036280608 
-0.006811326460993307 
-0.0006975261432430271 
-0.01874018132811163 
0 
-0.006811326460993307 
0.0006975261432430271 
-0.0004620543272829461 
0.006171200036280608 
0.01078338339075341 
-0.001095292886733382 
0.009489277617757294 
0.006681442469658915 
0.001889876482341728 
0 
0.009489277617757294 
-0.006681442469658915 
0.01078338339075341 
0.001095292886733382 
0.00374539832298543 
-0.001502837268732825 
0.0004025488841657277 
0.00442222221412551 
-0.008545420777677365 
0 
0.0004025488841657277 
-0.00442222221412551 
0.00374539832298543 
0.001502837268732825 
-0.001559078787887724 
-0.004798749999821422 
-0.00773219221071843 
-0.0002284766647624103 
-0.0192045807467307 
0 
-0.00773219221071843 
0.0002284766647624103 
-0.001559078787887724 
0.004798749999821422 
0.01126256062308719 
-0.0003143660104209445 
0.01142306680522319 
0.007378045238766778 
0.004957090604033241 
0 
0.01142306680522319 
-0.007378045238766778 
0.01126256062308719 
0.0003143660104209445 
-0.002280600920489959 
-3.394771633232009e-05 
-0.008565451138436988 
0.00314060390924428 
-0.0187813836478974 
0 
-0.008565451138436988 
-0.00314060390924428 
-0.002280600920489959 
3.394771633232009e-05 
-0.002106713786698829 
-0.007301340905598728 
-0.007067897871038228 
-0.002848582897422066 
-0.01760423223007945 
0 
-0.007067897871038228 
0.002848582897422066 
-0.002106713786698829 
0.007301340905598728 
0.008153998117893635 
0.0003946655016032375 
0.007506724453948979 
0.006061941554892347 
0.001612096641835761 
0 
0.007506724453948979 
-0.006061941554892347 
0.008153998117893635 
-0.0003946655016032375 
-0.004319600555700417 
9.874145026998792e-05 
-0.0107349760751633 
0.002275442459904907 
-0.02016341664135499 
0 
-0.0107349760751633 
-0.002275442459904907 
-0.004319600555700417 
-9.874145026998792e-05 
-0.003043742658205843 
-0.01127048699665567 
-0.008816337449601096 
-0.005707261807224345 
-0.02180239949930215 
0 
-0.008816337449601096 
0.005707261807224345 
-0.003043742658205843 
0.01127048699665567 
0.004962264898887945 
-0.005158226183359406 
0.003046521666895023 
0.001454099030854841 
-0.005954308631622379 
0 
0.003046521666895023 
-0.001454099030854841 
0.004962264898887945 
0.005158226183359406 
-0.01135859163023688 
-0.005542875121683202 
-0.01998146735785208 
-0.003689587027742064 
-0.03324851585718842 
0 
-0.01998146735785208 
0.003689587027742064 
-0.01135859163023688 
0.005542875121683202 
-0.01029260398025399 
-0.01196156310891786 
-0.01812843139265128 
-0.008648672256831672 
-0.03239626614862798 
0 
-0.01812843139265128 
0.008648672256831672 
-0.01029260398025399 
0.01196156310891786 
0.0009046495475698861 
-0.005066068323074787 
-0.002920853850666514 
8.703037879417903e-05 
-0.01296151581035314 
0 
-0.002920853850666514 
-8.703037879417903e-05 
0.0009046495475698861 
0.005066068323074787 
-0.01149973521429827 
-0.007232148493355474 
-0.02007643449130954 
-0.005061692439398466 
-0.03372785306376538 
0 
-0.02007643449130954 
0.005061692439398466 
-0.01149973521429827 
0.007232148493355474 
0.00203459180331555 
-0.008539752551706834 
0.001037469871703144 
-0.002635202694036718 
-0.008180440543024619 
0 
0.001037469871703144 
0.002635202694036718 
0.00203459180331555 
0.008539752551706834 
0.009128843076607669 
-0.0009984780301480456 
0.01039534262482561 
0.005183846744402141 
0.00443887230070174 
0 
0.01039534262482561 
-0.005183846744402141 
0.009128843076607669 
0.0009984780301480456 
-0.003179590204242643 
-0.004429507650888172 
-0.006805139248423929 
-0.001080061485115363 
-0.01660188082246431 
0 
-0.006805139248423929 
0.001080061485115363 
-0.003179590204242643 
0.004429507650888172 
0.005377099956624176 
0.005608726096401701 
0.002791190312693113 
0.01034630382670582 
-0.003330128816650377 
0 
0.002791190312693113 
-0.01034630382670582 
0.005377099956624176 
-0.005608726096401701 
0.009675848817490505 
0.00699777923676228 
0.008421034909298429 
0.01259419210034587 
0.003474238216399949 
0 
0.008421034909298429 
-0.01259419210034587 
0.009675848817490505 
-0.00699777923676228 
0.00900495593745643 
0.001692550584357087 
0.009271714317679784 
0.00878163013106909 
0.003807337808454134 
0 
0.009271714317679784 
-0.00878163013106909 
0.00900495593745643 
-0.001692550584357087 
-0.001916572931364435 
-0.01335291263074363 
-0.01135766928794031 
-0.007499151361325593 
-0.02668231095328644 
0 
-0.01135766928794031 
0.007499151361325593 
-0.001916572931364435 
0.01335291263074363 
0.004827878594478402 
-0.007860459910700576 
-0.002614763901717096 
-0.00150467199075513 
-0.01526177062247111 
0 
-0.002614763901717096 
0.00150467199075513 
0.004827878594478402 
0.007860459910700576 
0.00157796577520611 
-0.008650062325005488 
-0.005110581648038554 
-0.002712103838181508 
-0.0176125188937136 
0 
-0.005110581648038554 
0.002712103838181508 
0.00157796577520611 
0.008650062325005488 
0.005563567563989676 
-0.006185578991133608 
-0.0001579481544381336 
0.0006099885778854631 
-0.01126030286333747 
0 
-0.0001579481544381336 
-0.0006099885778854631 
0.005563567563989676 
0.006185578991133608 
0.01986648172901546 
0.00183054511995779 
0.01876327456388098 
0.01137059685041348 
0.01216656099206956 
0 
0.01876327456388098 
-0.01137059685041348 
0.01986648172901546 
-0.00183054511995779 
0.01356310121694829 
-0.002260054453659848 
0.01287758254359821 
0.006731978840429694 
0.005456689527894137 
0 
0.01287758254359821 
-0.006731978840429694 
0.01356310121694829 
0.002260054453659848 
0.00818303026638156 
-0.01200133482375909 
0.006144585539873522 
-0.002292311872270691 
-0.004614396029845055 
0 
0.006144585539873522 
0.002292311872270691 
0.00818303026638156 
0.01200133482375909 
0.01477301778390478 
-0.009460793095866431 
0.01529536059945552 
0.001436075395827446 
0.006699848124990723 
0 
0.01529536059945552 
-0.001436075395827446 
0.01477301778390478 
0.009460793095866431 
0.005377907797695694 
-0.01027963687092372 
0.001333798215323994 
-0.002265918748828331 
-0.01017744618172721 
0 
0.001333798215323994 
0.002265918748828331 
0.005377907797695694 
0.01027963687092372 
0.003583091447236454 
-0.01099776374754994 
-0.0009721420263694723 
-0.003076024773434741 
-0.01304960323329326 
0 
-0.0009721420263694723 
0.003076024773434741 
0.003583091447236454 
0.01099776374754994 
0.008292097344723168 
-0.008802215148076839 
0.00585385021826304 
-9.115084679339577e-05 
-0.004422045043737253 
0 
0.00585385021826304 
9.115084679339577e-05 
0.008292097344723168 
0.008802215148076839 
-0.002331088164476654 
-0.007996059160731281 
-0.01272964282151153 
-0.002947184889747051 
-0.0274105344400043 
0 
-0.01272964282151153 
0.002947184889747051 
-0.002331088164476654 
0.007996059160731281 
0.003275303328274643 
-0.01102764314839664 
-0.002399261921249717 
-0.00375510659761325 
-0.01514956262072441 
0 
-0.002399261921249717 
0.00375510659761325 
0.003275303328274643 
0.01102764314839664 
0.007358683562987542 
-0.007586787174719611 
0.004296717674040437 
0.000281385356446886 
-0.006089574831140533 
0 
0.004296717674040437 
-0.000281385356446886 
0.007358683562987542 
0.007586787174719611 
-0.0007836649843531885 
-0.005095835666851307 
-0.00886062771184885 
-0.0007450929295572591 
-0.02148969325379476 
0 
-0.00886062771184885 
0.0007450929295572591 
-0.0007836649843531885 
0.005095835666851307 
-0.002440510678764921 
-0.008158066590405544 
-0.009898152112708317 
-0.003768385993256084 
-0.02222632857118862 
0 
-0.009898152112708317 
0.003768385993256084 
-0.002440510678764921 
0.008158066590405544 
0.007157802304238216 
-0.005806582854123036 
0.002973435624757229 
0.0008025939994361004 
-0.006792006831981751 
0 
0.002973435624757229 
-0.0008025939994361004 
0.007157802304238216 
0.005806582854123036 
0.003367419655313641 
-0.006854292333383732 
-0.003406428995418444 
-0.001233442202051116 
-0.01484685303091809 
0 
-0.003406428995418444 
0.001233442202051116 
0.003367419655313641 
0.006854292333383732 
0.01179384708850886 
-0.01026337123227105 
0.012085690057484 
-0.0009454287751265373 
0.003986810530402063 
0 
0.012085690057484 
0.0009454287751265373 
0.01179384708850886 
0.01026337123227105 
0.01555096951131422 
-0.006623277207187179 
0.01658684072926478 
0.002778179835409702 
0.009917859761884182 
0 
0.01658684072926478 
-0.002778179835409702 
0.01555096951131422 
0.006623277207187179 
0.003431567927779305 
-0.008628938150104144 
-0.001058650952347348 
-0.002549760182187063 
-0.01148869505393244 
0 
-0.001058650952347348 
0.002549760182187063 
0.003431567927779305 
0.008628938150104144 
0.004355727153919579 
0.004737929800948042 
0.0007407445616484469 
0.008502438948165427 
-0.005277820163993926 
0 
0.0007407445616484469 
-0.008502438948165427 
0.004355727153919579 
-0.004737929800948042 
0.01111984725644984 
0.004874963295858978 
0.009964010057239141 
0.01074139370494835 
0.005461054730574603 
0 
0.009964010057239141 
-0.01074139370494835 
0.01111984725644984 
-0.004874963295858978 
0.01045717675140995 
0.001674291888155745 
0.01192702485342634 
0.008638799308160682 
0.008026889347735192 
0 
0.01192702485342634 
-0.008638799308160682 
0.01045717675140995 
-0.001674291888155745 
0.009406163202587501 
-0.01290777641769434 
0.01060436718481753 
-0.002747746596373522 
0.001321334233740786 
0 
0.01060436718481753 
0.002747746596373522 
0.009406163202587501 
0.01290777641769434 
0.01122903558522953 
-0.01036253291057753 
0.009068773440022451 
-0.0003911644369357901 
-0.001353151565586007 
0 
0.009068773440022451 
0.0003911644369357901 
0.01122903558522953 
0.01036253291057753 
0.00891371843403543 
-0.008913452572403106 
0.005349841111577516 
-9.689374765124961e-05 
-0.005509283606312699 
0 
0.005349841111577516 
9.689374765124961e-05 
0.00891371843403543 
0.008913452572403106 
0.002028962252585012 
-0.006450001629113607 
-0.0007202193189428608 
-0.0009708636816319705 
-0.01027557697311036 
0 
-0.0007202193189428608 
0.0009708636816319705 
0.002028962252585012 
0.006450001629113607 
0.01318346533358742 
-0.003806092445966737 
0.0114597774681224 
0.004970382418292114 
0.00302059873039298 
0 
0.0114597774681224 
-0.004970382418292114 
0.01318346533358742 
0.003806092445966737 
0.01536297917097089 
-0.001511074244476999 
0.01335639279096939 
0.007142152273456907 
0.00559665935444284 
0 
0.01335639279096939 
-0.007142152273456907 
0.01536297917097089 
0.001511074244476999 
-0.0007262647748894566 
-0.01031425788770529 
-0.003120848108992224 
-0.00417709481055026 
-0.01386583234067649 
0 
-0.003120848108992224 
0.00417709481055026 
-0.0007262647748894566 
0.01031425788770529 
0.008250047817188928 
-0.006997405428120673 
0.00682462961981939 
0.001285993372743372 
-0.002336777718584915 
0 
0.00682462961981939 
-0.001285993372743372 
0.008250047817188928 
0.006997405428120673 
0.01056884467609334 
0.001257868239905381 
0.007581472641160937 
0.007672392840304059 
-0.0001525560372676172 
0 
0.007581472641160937 
-0.007672392840304059 
0.01056884467609334 
-0.001257868239905381 
-0.006736523785652717 
-0.009661558362419977 
-0.01359140550546584 
-0.00555761168591941 
-0.0259466585438053 
0 
-0.01359140550546584 
0.00555761168591941 
-0.006736523785652717 
0.009661558362419977 
-0.0008913876892301369 
-0.005274782064742792 
-0.01023575157169471 
0.0002575232512250168 
-0.02307500971540487 
0 
-0.01023575157169471 
-0.0002575232512250168 
-0.0008913876892301369 
0.005274782064742792 
0.00275539087757272 
0.008501467547213312 
-0.01406410622242836 
0.01068174238049737 
-0.02719145268111343 
0 
-0.01406410622242836 
-0.01068174238049737 
0.00275539087757272 
-0.008501467547213312 
0.01187703437310451 
-0.01943813353993724 
0.01530200376993018 
-0.006631394926832256 
0.005998402852519687 
0 
0.01530200376993018 
0.006631394926832256 
0.01187703437310451 
0.01943813353993724 
0.01779737040092393 
-0.007226005491792556 
0.01712833907446632 
0.003643927790067798 
0.008464892913162648 
0 
0.01712833907446632 
-0.003643927790067798 
0.01779737040092393 
0.007226005491792556 
0.0208677359967863 
0.00350087931585328 
0.0166036943006179 
0.01260810964399564 
0.008796418811522206 
0 
0.0166036943006179 
-0.01260810964399564 
0.0208677359967863 
-0.00350087931585328 
0.007774351092041542 
-0.01966967972657362 
0.005720879294444478 
-0.008777380563856135 
-0.006418295306234088 
0 
0.005720879294444478 
0.008777380563856135 
0.007774351092041542 
0.01966967972657362 
0.0118805905166766 
-0.01891394408387894 
0.01083109788918521 
-0.007106025955152664 
-0.0004951936085189402 
0 
0.01083109788918521 
0.007106025955152664 
0.0118805905166766 
0.01891394408387894 
0.01231522353676924 
-0.01302044354364751 
0.01069637309780526 
-0.002572506907859195 
0.0006074734023392533 
0 
0.01069637309780526 
0.002572506907859195 
0.01231522353676924 
0.01302044354364751 
0.003376971626436747 
-0.01096560149463182 
0.003467482754928597 
-0.00254509050074265 
-0.005954304315799227 
0 
0.003467482754928597 
0.00254509050074265 
0.003376971626436747 
0.01096560149463182 
0.01253129630698955 
-0.008453368838027541 
0.01632234078450061 
0.001965869138304274 
0.009748981592324473 
0 
0.01632234078450061 
-0.001965869138304274 
0.01253129630698955 
0.008453368838027541 
0.003907429188508759 
-0.007255266388767664 
0.002438010689221308 
-8.159476070198673e-05 
-0.006894315386439689 
0 
0.002438010689221308 
8.159476070198673e-05 
0.003907429188508759 
0.007255266388767664 
0.01483509040023694 
-0.003555761123778181 
0.01437645674673277 
0.006210375406822685 
0.006800851945913323 
0 
0.01437645674673277 
-0.006210375406822685 
0.01483509040023694 
0.003555761123778181 
0.01818903317821922 
-0.002835505473255234 
0.02000617121200794 
0.007943534383112455 
0.01391866460693872 
0 
0.02000617121200794 
-0.007943534383112455 
0.01818903317821922 
0.002835505473255234 
0.015459590357942 
-0.006210985942135765 
0.02137422301015086 
0.005337733225425251 
0.01661288778162597 
0 
0.02137422301015086 
-0.005337733225425251 
0.015459590357942 
0.006210985942135765 
0.009548028200349376 
-0.01777053269058198 
0.009359769216157093 
-0.006121732450082216 
-0.001983307703274134 
0 
0.009359769216157093 
0.006121732450082216 
0.009548028200349376 
0.01777053269058198 
0.01616241694449955 
-0.009693965429861277 
0.0156469710555246 
0.001702186907158731 
0.006366933233122576 
0 
0.0156469710555246 
-0.001702186907158731 
0.01616241694449955 
0.009693965429861277 
0.007392882425466255 
-0.004745793998307417 
0.003464857727970602 
0.002594400727417991 
-0.006563705017166677 
0 
0.003464857727970602 
-0.002594400727417991 
0.007392882425466255 
0.004745793998307417 
-0.01203782447083295 
-0.01527516571727638 
-0.02343682846527326 
-0.01174062007631808 
-0.04063906120303873 
0 
-0.02343682846527326 
0.01174062007631808 
-0.01203782447083295 
0.01527516571727638 
-0.002611883001778598 
-0.008592752899541943 
-0.01092071115508164 
-0.003931148498313718 
-0.02451499815140304 
0 
-0.01092071115508164 
0.003931148498313718 
-0.002611883001778598 
0.008592752899541943 
-0.004262374040455575 
-0.01011855624643299 
-0.01144913819279747 
-0.005533990166784052 
-0.02483095672093401 
0 
-0.01144913819279747 
0.005533990166784052 
-0.004262374040455575 
0.01011855624643299 
-0.01435304428202226 
-0.0267279680604672 
-0.01839379563497717 
-0.02139903357775846 
-0.03374320962110935 
0 
-0.01839379563497717 
0.02139903357775846 
-0.01435304428202226 
0.0267279680604672 
-0.001813038967840401 
-0.01973049374579835 
-0.005540569365211873 
-0.01223957237629535 
-0.01864609354956093 
0 
-0.005540569365211873 
0.01223957237629535 
-0.001813038967840401 
0.01973049374579835 
-0.002701967607781492 
-0.01479772972071728 
-0.006951652668070083 
-0.009221484289010439 
-0.01896479355785447 
0 
-0.006951652668070083 
0.009221484289010439 
-0.002701967607781492 
0.01479772972071728 
-0.01125587912657976 
-0.02158499396871108 
-0.01264346460019426 
-0.01626355808643676 
-0.02606434933123499 
0 
-0.01264346460019426 
0.01626355808643676 
-0.01125587912657976 
0.02158499396871108 
-0.001160903520069437 
-0.02003033510794662 
-0.002694826749295138 
-0.01175841230636622 
-0.0155971949284219 
0 
-0.002694826749295138 
0.01175841230636622 
-0.001160903520069437 
0.02003033510794662 
-0.00028518369713963 
-0.01178709035690288 
-0.005008624136629614 
-0.006352519040648759 
-0.0173563551918379 
0 
-0.005008624136629614 
0.006352519040648759 
-0.00028518369713963 
0.01178709035690288 
-0.001931502318489111 
-0.01897059338414334 
-0.005730800401636833 
-0.01155222623319423 
-0.01959457524142011 
0 
-0.005730800401636833 
0.01155222623319423 
-0.001931502318489111 
0.01897059338414334 
0.005110484409504097 
-0.02032648200441728 
0.004466700778940125 
-0.01006808840448327 
-0.007897341014443811 
0 
0.004466700778940125 
0.01006808840448327 
0.005110484409504097 
0.02032648200441728 
0.001342106182535054 
-0.01665271594814132 
-0.00154438818205557 
-0.009106448584711957 
-0.01414193324290939 
0 
-0.00154438818205557 
0.009106448584711957 
0.001342106182535054 
0.01665271594814132 
0.003205438395595141 
-0.01794819913121576 
0.004442153738299368 
-0.008805255479654061 
-0.005274522874194398 
0 
0.004442153738299368 
0.008805255479654061 
0.003205438395595141 
0.01794819913121576 
0.01842832549254487 
-0.01856493478519231 
0.02593855350034589 
-0.004322399310047766 
0.01975006542304269 
0 
0.02593855350034589 
0.004322399310047766 
0.01842832549254487 
0.01856493478519231 
0.00627319562479486 
-0.01329176173401637 
0.007216728191390755 
-0.005105090002196792 
-0.001348234018830897 
0 
0.007216728191390755 
0.005105090002196792 
0.00627319562479486 
0.01329176173401637 
0.00554133096926128 
-0.009762978649809143 
0.002654871943171402 
-0.0009341693218836019 
-0.008276779097716618 
0 
0.002654871943171402 
0.0009341693218836019 
0.00554133096926128 
0.009762978649809143 
0.01149930655034157 
-0.01065925362089482 
0.01461840478282378 
-0.0006266270359518792 
0.007041791646119606 
0 
0.01461840478282378 
0.0006266270359518792 
0.01149930655034157 
0.01065925362089482 
-0.003347288146085325 
-0.009816677212553514 
-0.004478545472612645 
-0.005164581309883838 
-0.01431492522530142 
0 
-0.004478545472612645 
0.005164581309883838 
-0.003347288146085325 
0.009816677212553514 
0.01464590944675596 
-0.01535457668206708 
0.01666247119876288 
-0.002619089545470538 
0.007298045873807728 
0 
0.01666247119876288 
0.002619089545470538 
0.01464590944675596 
0.01535457668206708 
0.01419497853876538 
-0.01425029372325165 
0.01737413349844481 
-0.001441037450282585 
0.008974700517846622 
0 
0.01737413349844481 
0.001441037450282585 
0.01419497853876538 
0.01425029372325165 
0.006589655089439278 
-0.01682950934199088 
0.0109033621567225 
-0.00515205123925863 
0.002314042851654553 
0 
0.0109033621567225 
0.00515205123925863 
0.006589655089439278 
0.01682950934199088 
0.0004870353097499985 
-0.01679927062005071 
-0.003648393321064895 
-0.008238383129720571 
-0.01714326864794286 
0 
-0.003648393321064895 
0.008238383129720571 
0.0004870353097499985 
0.01679927062005071 
0.002526499249742355 
-0.01737540622287332 
8.196350083698467e-05 
-0.008003217899126374 
-0.01247234392909024 
0 
8.196350083698467e-05 
0.008003217899126374 
0.002526499249742355 
0.01737540622287332 
-0.01024925787571238 
-0.01959274509689109 
-0.01766053566396799 
-0.01330581680391405 
-0.03381933608662065 
0 
-0.01766053566396799 
0.01330581680391405 
-0.01024925787571238 
0.01959274509689109 
0.01154762941263924 
-0.01129398997952907 
0.01325556221125654 
-0.0004354332407064616 
0.004776712936693231 
0 
0.01325556221125654 
0.0004354332407064616 
0.01154762941263924 
0.01129398997952907 
0.01350700892808121 
-0.01032006084737336 
0.01599078211003534 
0.0008823079198751267 
0.008279207235441649 
0 
0.01599078211003534 
-0.0008823079198751267 
0.01350700892808121 
0.01032006084737336 
-0.003775395542147533 
-0.01627119026247432 
-0.005670882431118886 
-0.008483319523447653 
-0.01771805773834121 
0 
-0.005670882431118886 
0.008483319523447653 
-0.003775395542147533 
0.01627119026247432 
0.004476180830731671 
-0.01262541556918046 
0.002107004271881829 
-0.004698071179663965 
-0.008274938786098762 
0 
0.002107004271881829 
0.004698071179663965 
0.004476180830731671 
0.01262541556918046 
0.01278950038785159 
-0.01000293141621502 
0.01295720878590828 
-5.147290959549372e-05 
0.00482448310806499 
0 
0.01295720878590828 
5.147290959549372e-05 
0.01278950038785159 
0.01000293141621502 
1.32903277470401e-05 
-0.01094346498772499 
-0.002311809105402745 
-0.004345666128744836 
-0.01232409677834378 
0 
-0.002311809105402745 
0.004345666128744836 
1.32903277470401e-05 
0.01094346498772499 
-0.001999818528219158 
-0.01529661284550765 
-0.007846307783757701 
-0.007824727095413726 
-0.02191120484423353 
0 
-0.007846307783757701 
0.007824727095413726 
-0.001999818528219158 
0.01529661284550765 
0.00774404404536959 
-0.01194208316895399 
0.005216214463517815 
-0.002234361588108013 
-0.005963393723529031 
0 
0.005216214463517815 
0.002234361588108013 
0.00774404404536959 
0.01194208316895399 
-0.001984455060108955 
-0.01203103293611474 
-0.006644099058836935 
-0.005019125658794464 
-0.01921911082794748 
0 
-0.006644099058836935 
0.005019125658794464 
-0.001984455060108955 
0.01203103293611474 
-0.00523083759260128 
-0.01711580265335512 
-0.011788329661341 
-0.0106109746827516 
-0.02673290249385542 
0 
-0.011788329661341 
0.0106109746827516 
-0.00523083759260128 
0.01711580265335512 
0.007226579826119942 
-0.01494982478015886 
0.004602690952788541 
-0.005012528842889346 
-0.007334286768062513 
0 
0.004602690952788541 
0.005012528842889346 
0.007226579826119942 
0.01494982478015886 
-0.003002688789867067 
-0.01679632023264275 
-0.007871459257010613 
-0.009123918642617444 
-0.02165787664623871 
0 
-0.007871459257010613 
0.009123918642617444 
-0.003002688789867067 
0.01679632023264275 
-0.002897170815281653 
-0.01112243744882945 
-0.01153626897532195 
-0.005750465650158008 
-0.02508712528680078 
0 
-0.01153626897532195 
0.005750465650158008 
-0.002897170815281653 
0.01112243744882945 
0.003387077047138635 
-0.01198481177359306 
0.001436804897382244 
-0.004144079987306572 
-0.008497609828870349 
0 
0.001436804897382244 
0.004144079987306572 
0.003387077047138635 
0.01198481177359306 
-0.00745009093318798 
-0.01716685264016302 
-0.01125484120459488 
-0.01080649706740978 
-0.02376890505294901 
0 
-0.01125484120459488 
0.01080649706740978 
-0.00745009093318798 
0.01716685264016302 
0.002521060340219203 
-0.009303733605378835 
-0.004403394921659596 
0.0006315993605711278 
-0.0187915100396062 
0 
-0.004403394921659596 
-0.0006315993605711278 
0.002521060340219203 
0.009303733605378835 
0.002539770323360914 
-0.009708680704248972 
0.0009850681342311982 
-0.001851041950944388 
-0.00908667160227538 
0 
0.0009850681342311982 
0.001851041950944388 
0.002539770323360914 
0.009708680704248972 
-0.002218838830351365 
-0.01655660853729923 
0.0005519406476031297 
-0.008670744810997466 
-0.008810960069372258 
0 
0.0005519406476031297 
0.008670744810997466 
-0.002218838830351365 
0.01655660853729923 
0.018407404140329 
-0.01285997940596582 
0.020542623674637 
0.0003783629115608242 
0.01194112777847981 
0 
0.020542623674637 
-0.0003783629115608242 
0.018407404140329 
0.01285997940596582 
0.01571631780160036 
-0.008927256574450173 
0.01731505350569263 
0.002753558581830426 
0.009420180770100596 
0 
0.01731505350569263 
-0.002753558581830426 
0.01571631780160036 
0.008927256574450173 
0.004095186681808769 
-0.01635332819467416 
0.007935908505959986 
-0.006007713285210896 
-0.0008744604495992171 
0 
0.007935908505959986 
0.006007713285210896 
0.004095186681808769 
0.01635332819467416 
0.008471431930365736 
-0.02067281367680011 
0.004712843333169788 
-0.009146563408903028 
-0.00950117064288475 
0 
0.004712843333169788 
0.009146563408903028 
0.008471431930365736 
0.02067281367680011 
0.007071894273837412 
-0.01733714118942046 
0.002193059281661586 
-0.007178967406849666 
-0.01177955650159564 
0 
0.002193059281661586 
0.007178967406849666 
0.007071894273837412 
0.01733714118942046 
-0.01126734535841764 
-0.02468424879643132 
-0.01860136470299062 
-0.01828303193304174 
-0.03609847763953004 
0 
-0.01860136470299062 
0.01828303193304174 
-0.01126734535841764 
0.02468424879643132 
0.01547590402833255 
-0.01665973179437852 
0.01543965630138702 
-0.00382650738958336 
0.004411228627965038 
0 
0.01543965630138702 
0.00382650738958336 
0.01547590402833255 
0.01665973179437852 
0.0123045897852463 
-0.01469037216516658 
0.009839216553364645 
-0.003494130045285688 
-0.00204301913570066 
0 
0.009839216553364645 
0.003494130045285688 
0.0123045897852463 
0.01469037216516658 
-0.006921952993845899 
-0.02236846209031906 
-0.01258873948074562 
-0.0153596784501138 
-0.02851645389069897 
0 
-0.01258873948074562 
0.0153596784501138 
-0.006921952993845899 
0.02236846209031906 
0.01682611211114094 
-0.01652349500056701 
0.01844429197699934 
-0.00320839495062881 
0.008396209518639976 
0 
0.01844429197699934 
0.00320839495062881 
0.01682611211114094 
0.01652349500056701 
0.01488094956391654 
-0.01655047087981729 
0.01486989812865424 
-0.00402502349600683 
0.003863547540827012 
0 
0.01486989812865424 
0.00402502349600683 
0.01488094956391654 
0.01655047087981729 
-0.003610825358363144 
-0.02280824147015015 
-0.007314880665292948 
-0.01471115635916322 
-0.0222372030920236 
0 
-0.007314880665292948 
0.01471115635916322 
-0.003610825358363144 
0.02280824147015015 
0.0167002322487349 
-0.01045920220076014 
0.01827367111091078 
0.0007281170234085775 
0.01074717293343121 
0 
0.01827367111091078 
-0.0007281170234085775 
0.0167002322487349 
0.01045920220076014 
0.01600905224125205 
-0.01142514213733255 
0.01600990621823109 
-0.0003893899606900228 
0.007335692525504763 
0 
0.01600990621823109 
0.0003893899606900228 
0.01600905224125205 
0.01142514213733255 
-6.969168950227995e-05 
-0.01631801197955366 
-0.005055545291880741 
-0.009171506915775245 
-0.01799523698782492 
0 
-0.005055545291880741 
0.009171506915775245 
-6.969168950227995e-05 
0.01631801197955366 
-0.003322188987570881 
-0.01158701237939339 
-0.01269094136924807 
-0.006976643904151305 
-0.0268895758991655 
0 
-0.01269094136924807 
0.006976643904151305 
-0.003322188987570881 
0.01158701237939339 
-0.00057622555090075 
-0.01378283675129812 
-0.007571389746485573 
-0.007563696589362804 
-0.02101964397517617 
0 
-0.007571389746485573 
0.007563696589362804 
-0.00057622555090075 
0.01378283675129812 
-0.01142229274811832 
-0.01753229040553623 
-0.02297996428100364 
-0.01363744254180094 
-0.04006207161312162 
0 
-0.02297996428100364 
0.01363744254180094 
-0.01142229274811832 
0.01753229040553623 
-0.002568109451826318 
-0.01623747879496719 
-0.01608791586907118 
-0.007332848700972438 
-0.03529850383419757 
0 
-0.01608791586907118 
0.007332848700972438 
-0.002568109451826318 
0.01623747879496719 
-0.007605851500073151 
-0.0155802708503497 
-0.01881587175566744 
-0.01103267316034779 
-0.03513615250083323 
0 
-0.01881587175566744 
0.01103267316034779 
-0.007605851500073151 
0.0155802708503497 
-0.01812995369143295 
-0.02079093714204663 
-0.03103732144587399 
-0.01807456080107556 
-0.04982370817115751 
0 
-0.03103732144587399 
0.01807456080107556 
-0.01812995369143295 
0.02079093714204663 
-0.002248935387607865 
-0.0196204008771676 
-0.01054878935460488 
-0.01275260526596874 
-0.02250425211755014 
0 
-0.01054878935460488 
0.01275260526596874 
-0.002248935387607865 
0.0196204008771676 
-0.004925158177666255 
-0.01848436847796214 
-0.01101507543361735 
-0.01575484952760984 
-0.01928105636673786 
0 
-0.01101507543361735 
0.01575484952760984 
-0.004925158177666255 
0.01848436847796214 
-0.009920963563066633 
-0.0238000727708506 
-0.01231865845440973 
-0.02124995924761137 
-0.02229245340585855 
0 
-0.01231865845440973 
0.02124995924761137 
-0.009920963563066633 
0.0238000727708506 
0.007407799405614144 
0.0001135844166179404 
-0.004271717304007088 
0.01373665790184989 
-0.01357308881350309 
0 
-0.004271717304007088 
-0.01373665790184989 
0.007407799405614144 
-0.0001135844166179404 
0.007730133115659682 
-0.002780576819675367 
-0.002245571318630181 
0.01478219195031254 
-0.01521137203445732 
0 
-0.002245571318630181 
-0.01478219195031254 
0.007730133115659682 
0.002780576819675367 
0.003562346791753862 
-0.00204164799963876 
0.0009330559375892334 
0.008996065090042025 
-0.01205914724194858 
0 
0.0009330559375892334 
-0.008996065090042025 
0.003562346791753862 
0.00204164799963876 
-0.00244579347269297 
-0.003474487792882752 
0.003587166503101752 
-0.001787439476034763 
0.004900990201435521 
0 
0.003587166503101752 
0.001787439476034763 
-0.00244579347269297 
0.003474487792882752 
0.001065964529222852 
0.003914443155857921 
-0.006805632565888063 
0.005030263722151812 
-0.004617398801576238 
0 
-0.006805632565888063 
-0.005030263722151812 
0.001065964529222852 
-0.003914443155857921 
0.006949640829750896 
-0.0004837164920202784 
-0.006571146037400279 
0.008544908040491005 
-0.0001638134771690768 
0 
-0.006571146037400279 
-0.008544908040491005 
0.006949640829750896 
0.0004837164920202784 
0.005801984175513013 
-0.001076130851562487 
-0.006744910139263947 
0.01043932696978221 
-0.001862016747577302 
0 
-0.006744910139263947 
-0.01043932696978221 
0.005801984175513013 
0.001076130851562487 
-0.004361298250798956 
0.00284115649718475 
-0.008052493451775323 
-0.01023492699757632 
0.02143689498991655 
0 
-0.008052493451775323 
0.01023492699757632 
-0.004361298250798956 
-0.00284115649718475 
-0.006412207030246312 
0.00327856668153905 
-0.006455169809724486 
-0.01577843589584038 
0.02873064012080392 
0 
-0.006455169809724486 
0.01577843589584038 
-0.006412207030246312 
-0.00327856668153905 
0.006629655426824315 
0.003914232000300675 
-0.008697780868303475 
0.01168641296728272 
-0.01093314916322257 
0 
-0.008697780868303475 
-0.01168641296728272 
0.006629655426824315 
-0.003914232000300675 
0.00448800590416764 
-0.0004030894906416595 
-0.001392890691472206 
0.009411932782094222 
-0.01195456038993229 
0 
-0.001392890691472206 
-0.009411932782094222 
0.00448800590416764 
0.0004030894906416595 
-0.004804471520849165 
-0.0007214110205567122 
0.0001649648226997516 
-0.007150751605265837 
0.01100189752359758 
0 
0.0001649648226997516 
0.007150751605265837 
-0.004804471520849165 
0.0007214110205567122 
-0.0009199796394548887 
-0.004355029322194995 
0.003263095505662986 
0.0002955541192708642 
0.003193021515464078 
0 
0.003263095505662986 
-0.0002955541192708642 
-0.0009199796394548887 
0.004355029322194995 
-0.001620620047317082 
2.646027505826409e-05 
-0.0009804274745750987 
-0.003148471201887233 
0.007125724724105349 
0 
-0.0009804274745750987 
0.003148471201887233 
-0.001620620047317082 
-2.646027505826409e-05 
0.005107051510629458 
-0.00127338462059333 
-0.00294143574529105 
0.01087994869729115 
-0.008965920239959258 
0 
-0.00294143574529105 
-0.01087994869729115 
0.005107051510629458 
0.00127338462059333 
-0.00314340949640545 
0.003234995985295873 
-0.006246432812975594 
0.003624826340639281 
-0.006608703164377819 
0 
-0.006246432812975594 
-0.003624826340639281 
-0.00314340949640545 
-0.003234995985295873 
0.007099897437825639 
0.001237881950523274 
-0.008766456184346016 
0.006750037707388055 
0.002100565990138075 
0 
-0.008766456184346016 
-0.006750037707388055 
0.007099897437825639 
-0.001237881950523274 
0.005206062475397589 
-0.001919091261562492 
-0.003967273714986183 
0.008748897371886971 
-0.001311937724332861 
0 
-0.003967273714986183 
-0.008748897371886971 
0.005206062475397589 
0.001919091261562492 
0.005982255052689434 
-0.002888206633065124 
-0.005899585136590607 
0.009726639727719151 
-0.0003239022437043336 
0 
-0.005899585136590607 
-0.009726639727719151 
0.005982255052689434 
0.002888206633065124 
0.001374714845336788 
-1.307379065590218e-05 
-0.003363618548957751 
0.006253241217454335 
-0.003950917104253442 
0 
-0.003363618548957751 
-0.006253241217454335 
0.001374714845336788 
1.307379065590218e-05 
0.005150799707159879 
-0.002045002691587449 
-0.003189018925110034 
0.00554104108442722 
0.003358062740452044 
0 
-0.003189018925110034 
-0.00554104108442722 
0.005150799707159879 
0.002045002691587449 
0.004163457649141018 
0.001204636093341186 
-0.007006533006251528 
0.00345364125595988 
0.00624982090850519 
0 
-0.007006533006251528 
-0.00345364125595988 
0.004163457649141018 
-0.001204636093341186 
0.003852198854449671 
-0.001977043537917914 
-0.004850451629372637 
0.007443689186848471 
0.001376878624745258 
0 
-0.004850451629372637 
-0.007443689186848471 
0.003852198854449671 
0.001977043537917914 
0.008289283920459549 
0.00343124846137882 
-0.01093153382264666 
0.01051321362111313 
-0.003161694516036694 
0 
-0.01093153382264666 
-0.01051321362111313 
0.008289283920459549 
-0.00343124846137882 
0.002576124105989705 
0.001123407590721137 
-0.00641672438491026 
0.006660179999358466 
-0.0005802437525557726 
0 
-0.00641672438491026 
-0.006660179999358466 
0.002576124105989705 
-0.001123407590721137 
0.002392559716930918 
0.002554708342981624 
-0.008516849879435934 
0.0004952796017364156 
0.01123842694615007 
0 
-0.008516849879435934 
-0.0004952796017364156 
0.002392559716930918 
-0.002554708342981624 
-0.001668670543529524 
-0.0008778540835214794 
-0.001989001958170155 
-0.002908957210216044 
0.01145592312228515 
0 
-0.001989001958170155 
0.002908957210216044 
-0.001668670543529524 
0.0008778540835214794 
-0.002090659190461009 
0.004268831183895419 
-0.01020061040121921 
-0.005880506859962819 
0.01617038823976504 
0 
-0.01020061040121921 
0.005880506859962819 
-0.002090659190461009 
-0.004268831183895419 
0.006385133837386832 
-0.00472298382237018 
0.001226527630509985 
0.005098859045569901 
0.003350688437975488 
0 
0.001226527630509985 
-0.005098859045569901 
0.006385133837386832 
0.00472298382237018 
0.004441029855429575 
0.00240195883363453 
-0.006489128557604987 
0.009931028088191926 
-0.01030707525959382 
0 
-0.006489128557604987 
-0.009931028088191926 
0.004441029855429575 
-0.00240195883363453 
0.004676622877616063 
0.000792444343895788 
-0.003993480449897791 
0.008457152322118621 
-0.008822854938796885 
0 
-0.003993480449897791 
-0.008457152322118621 
0.004676622877616063 
-0.000792444343895788 
0.0008633377980267302 
0.003382653468508046 
-0.009389886699165389 
0.003587796536871232 
-0.001914398476793822 
0 
-0.009389886699165389 
-0.003587796536871232 
0.0008633377980267302 
-0.003382653468508046 
0.00199108332998941 
-0.00065042936202745 
-0.003599604432342078 
0.003171652639457458 
0.002099536782492931 
0 
-0.003599604432342078 
-0.003171652639457458 
0.00199108332998941 
0.00065042936202745 
0.0001450071740784817 
-0.002136549642379442 
-0.001261561097271282 
0.002968745663027954 
0.002282380063298905 
0 
-0.001261561097271282 
-0.002968745663027954 
0.0001450071740784817 
0.002136549642379442 
0.002575145224753169 
-0.004135341299653596 
-0.0005270489629354847 
0.004108214409241087 
0.001648321932888098 
0 
-0.0005270489629354847 
-0.004108214409241087 
0.002575145224753169 
0.004135341299653596 
0.0003956563805979289 
-0.002987979310178391 
0.001103291012254585 
0.002204140773057333 
0.001393602909115426 
0 
0.001103291012254585 
-0.002204140773057333 
0.0003956563805979289 
0.002987979310178391 
0.007925474932527127 
0.001330167639708703 
-0.006215491843302294 
0.01402152962354267 
-0.01359263272702543 
0 
-0.006215491843302294 
-0.01402152962354267 
0.007925474932527127 
-0.001330167639708703 
0.006253172245437611 
0.0007958970709932591 
-0.007292135620856577 
0.009526711238041965 
-0.002393099097393983 
0 
-0.007292135620856577 
-0.009526711238041965 
0.006253172245437611 
-0.0007958970709932591 
0.006238020292621356 
-0.001882481321203001 
-0.004319602617330553 
0.0111232291075189 
-0.004933624056307679 
0 
-0.004319602617330553 
-0.0111232291075189 
0.006238020292621356 
0.001882481321203001 
0.003012433744560677 
0.004702132018326127 
-0.009906137219720241 
0.00190712397358765 
0.006694740378831924 
0 
-0.009906137219720241 
-0.00190712397358765 
0.003012433744560677 
-0.004702132018326127 
0.004309712676021183 
0.003833693496011142 
-0.01085228900841136 
0.00132722842061775 
0.01166988531384801 
0 
-0.01085228900841136 
-0.00132722842061775 
0.004309712676021183 
-0.003833693496011142 
0.00844118061296182 
0.002392192473698187 
-0.01129756243799823 
0.008796381661840366 
0.0006963383502822761 
0 
-0.01129756243799823 
-0.008796381661840366 
0.00844118061296182 
-0.002392192473698187 
0.00403839624546379 
0.000632765597889358 
-0.006215981284911158 
0.00620352106785011 
0.0008914193184355874 
0 
-0.006215981284911158 
-0.00620352106785011 
0.00403839624546379 
-0.000632765597889358 
0.006613788781344034 
-0.002068925794051384 
-0.001300795716845718 
0.002195428203374803 
0.007774220774920686 
0 
-0.001300795716845718 
-0.002195428203374803 
0.006613788781344034 
0.002068925794051384 
0.004642221504014598 
0.005697725935413135 
-0.01392293269961676 
0.01182749046334354 
-0.01384703920535514 
0 
-0.01392293269961676 
-0.01182749046334354 
0.004642221504014598 
-0.005697725935413135 
0.00299344571455116 
-0.0006109026642050635 
-0.002599602567838839 
0.003040570623279451 
0.0004908518947681265 
0 
-0.002599602567838839 
-0.003040570623279451 
0.00299344571455116 
0.0006109026642050635 
0.002096845136307376 
-0.002060809251058452 
-0.003921594175512525 
0.004390741841761264 
0.002504624704740706 
0 
-0.003921594175512525 
-0.004390741841761264 
0.002096845136307376 
0.002060809251058452 
1.960840893769633e-05 
0.001328905024409201 
-0.003900456572712171 
-0.0009361140061687868 
0.005843629292724205 
0 
-0.003900456572712171 
0.0009361140061687868 
1.960840893769633e-05 
-0.001328905024409201 
0.003018567410941952 
0.002509057279404443 
-0.007603911537314897 
0.002048272101558246 
0.006639610133265151 
0 
-0.007603911537314897 
-0.002048272101558246 
0.003018567410941952 
-0.002509057279404443 
0.0075443785573236 
-0.001977055511339159 
-0.003677990287861684 
0.01329103016353804 
-0.009894168187221972 
0 
-0.003677990287861684 
-0.01329103016353804 
0.0075443785573236 
0.001977055511339159 
0.0002601906786818155 
0.0008116702350986537 
-0.005211010073360865 
-0.002635449040795303 
0.01323275814247663 
0 
-0.005211010073360865 
0.002635449040795303 
0.0002601906786818155 
-0.0008116702350986537 
0.005428543970031082 
-0.002416521237053461 
0.003863340531378572 
0.007620486699563571 
-0.006352934334937146 
0 
0.003863340531378572 
-0.007620486699563571 
0.005428543970031082 
0.002416521237053461 
0.01068822492155854 
0.006681905760468847 
-0.01409278967836621 
0.02328743792598111 
-0.0300395498405846 
0 
-0.01409278967836621 
-0.02328743792598111 
0.01068822492155854 
-0.006681905760468847 
0.001471071180884746 
0.001118859815178917 
-0.004629129954581596 
-0.0004827354048587378 
0.00765193888847071 
0 
-0.004629129954581596 
0.0004827354048587378 
0.001471071180884746 
-0.001118859815178917 
0.005634557196356134 
0.0005527392530783839 
-0.007707657420437845 
0.008638284497343553 
-0.001023556579071389 
0 
-0.007707657420437845 
-0.008638284497343553 
0.005634557196356134 
-0.0005527392530783839 
0.0008151787410441691 
0.004597760846341557 
-0.008430463053395627 
0.0009797808642970239 
0.004628149559863675 
0 
-0.008430463053395627 
-0.0009797808642970239 
0.0008151787410441691 
-0.004597760846341557 
0.004941258665033953 
0.005408627806961658 
-0.01326619660152457 
0.003095380055080046 
0.006822989370677783 
0 
-0.01326619660152457 
-0.003095380055080046 
0.004941258665033953 
-0.005408627806961658 
0.002907643829596586 
-0.001496801365749028 
-0.003716887783992235 
0.005190771564281969 
0.001700242824329563 
0 
-0.003716887783992235 
-0.005190771564281969 
0.002907643829596586 
0.001496801365749028 
0.003753692251841061 
0.001176736688956834 
-0.006960031700770608 
0.004867124689896376 
0.003237099182118702 
0 
-0.006960031700770608 
-0.004867124689896376 
0.003753692251841061 
-0.001176736688956834 
0.0131739231567296 
0.000780609265175581 
-0.009112717224477023 
0.01578837135033481 
-0.01296110088990717 
0 
-0.009112717224477023 
-0.01578837135033481 
0.0131739231567296 
-0.000780609265175581 
0.004691085868503237 
-0.0001605787878447122 
-0.004992268245254637 
0.01340880524451049 
-0.01507955128496708 
0 
-0.004992268245254637 
-0.01340880524451049 
0.004691085868503237 
0.0001605787878447122 
0.004242177910425746 
-0.003238603391341921 
-0.002797191250091869 
0.008358486273164706 
-0.002971112874597377 
0 
-0.002797191250091869 
-0.008358486273164706 
0.004242177910425746 
0.003238603391341921 
0.004557922587906053 
0.0004465092968838929 
-0.006065817631700752 
0.01340196887086 
-0.01523500065575698 
0 
-0.006065817631700752 
-0.01340196887086 
0.004557922587906053 
-0.0004465092968838929 
0.006212804422084384 
0.004285987459880789 
-0.00865819712246205 
0.01401241685761974 
-0.01367385383210891 
0 
-0.00865819712246205 
-0.01401241685761974 
0.006212804422084384 
-0.004285987459880789 
0.001333092844440467 
-0.0001265024086976612 
-0.003836985006481171 
0.001296993058074702 
0.006838587747622677 
0 
-0.003836985006481171 
-0.001296993058074702 
0.001333092844440467 
0.0001265024086976612 
0.003127561063328925 
-0.0002361849735767637 
-0.007445880488211024 
0.001429861185106719 
0.01151769753867467 
0 
-0.007445880488211024 
-0.001429861185106719 
0.003127561063328925 
0.0002361849735767637 
0.0005576945001961424 
0.00321176885949254 
-0.006331992738389951 
-0.004199396921037391 
0.01335956132917357 
0 
-0.006331992738389951 
0.004199396921037391 
0.0005576945001961424 
-0.00321176885949254 
0.002880873044974152 
-0.0006233866355113514 
-0.002057711646140205 
0.005531436203929944 
-0.001762086852014859 
0 
-0.002057711646140205 
-0.005531436203929944 
0.002880873044974152 
0.0006233866355113514 
0.00710259344740424 
0.001152688557402831 
-0.006289220879594652 
0.01037979709275632 
-0.009042303567883046 
0 
-0.006289220879594652 
-0.01037979709275632 
0.00710259344740424 
-0.001152688557402831 
0.004022939045532201 
-0.0002462709809467269 
-0.002574883662023628 
0.005426464913193056 
-0.002500549042312966 
0 
-0.002574883662023628 
-0.005426464913193056 
0.004022939045532201 
0.0002462709809467269 
0.00597441032827415 
0.004674141518710472 
-0.01091470276743321 
0.004205990212745114 
0.002182705830795599 
0 
-0.01091470276743321 
-0.004205990212745114 
0.00597441032827415 
-0.004674141518710472 
0.00525328376339964 
0.0027638363765525 
-0.009086076598124526 
0.008379818188445147 
-0.002153259893217463 
0 
-0.009086076598124526 
-0.008379818188445147 
0.00525328376339964 
-0.0027638363765525 
0.008385268308300161 
0.002747851411047336 
-0.01200909825054069 
0.01171612665317528 
-0.005326373293319541 
0 
-0.01200909825054069 
-0.01171612665317528 
0.008385268308300161 
-0.002747851411047336 
0.003166060793095706 
5.105759652672965e-05 
-0.006042743794933755 
0.00275263842583842 
0.00555845439431676 
0 
-0.006042743794933755 
-0.00275263842583842 
0.003166060793095706 
-5.105759652672965e-05 
0.004460107398211182 
-0.005589262863698512 
0.0008634789720235612 
0.01079806894446796 
-0.007804955883401465 
0 
0.0008634789720235612 
-0.01079806894446796 
0.004460107398211182 
0.005589262863698512 
0.006348193753314101 
-0.001639261822719642 
-0.005196058818015379 
0.007599772193504073 
-0.002690093163454378 
0 
-0.005196058818015379 
-0.007599772193504073 
0.006348193753314101 
0.001639261822719642 
0.003125097101883731 
0.004732602982115086 
-0.008889852047205129 
0.005616622665272483 
-0.00438088733003061 
0 
-0.008889852047205129 
-0.005616622665272483 
0.003125097101883731 
-0.004732602982115086 
0.002727680116785096 
-0.001504394794810328 
-0.002486324338854538 
0.00400254014792908 
-0.0001905122120535859 
0 
-0.002486324338854538 
-0.00400254014792908 
0.002727680116785096 
0.001504394794810328 
0.0005938804888233363 
-4.453156185567535e-06 
-0.001085830053761906 
0.003022793161696484 
-0.002046736392463706 
0 
-0.001085830053761906 
-0.003022793161696484 
0.0005938804888233363 
4.453156185567535e-06 
0.001691240119853334 
-0.00202195714688618 
-0.004344906093194996 
0.003854443857935862 
0.006690516862252562 
0 
-0.004344906093194996 
-0.003854443857935862 
0.001691240119853334 
0.00202195714688618 
0.005508844215599011 
0.0009194398415135639 
-0.008127821531928424 
0.009727421952395558 
-0.003065865295679187 
0 
-0.008127821531928424 
-0.009727421952395558 
0.005508844215599011 
-0.0009194398415135639 
0.005284291642897371 
-0.0004926815860887842 
-0.004681837398456102 
0.005985842557419254 
-0.0002693147505052372 
0 
-0.004681837398456102 
-0.005985842557419254 
0.005284291642897371 
0.0004926815860887842 
-0.001397764214538214 
0.002221639864440523 
-0.006935309510437961 
-0.006911715300859185 
0.02057117323162069 
0 
-0.006935309510437961 
0.006911715300859185 
-0.001397764214538214 
-0.002221639864440523 
0.01009208581484107 
0.003955049058610849 
-0.009503014273921893 
0.01503949769806139 
-0.01435452187930044 
0 
-0.009503014273921893 
-0.01503949769806139 
0.01009208581484107 
-0.003955049058610849 
0.00614994035453436 
0.001963454917302354 
-0.01152031014487127 
0.0137965545026296 
-0.01806671508083251 
0 
-0.01152031014487127 
-0.0137965545026296 
0.00614994035453436 
-0.001963454917302354 
0.005897756587423446 
-0.0003348798750420821 
-0.005153449607867441 
0.006995740289917608 
-0.001109856814603539 
0 
-0.005153449607867441 
-0.006995740289917608 
0.005897756587423446 
0.0003348798750420821 
0.006457175715495634 
0.004973146501597721 
-0.01528287512408634 
0.001669743174488496 
0.013175807923952 
0 
-0.01528287512408634 
-0.001669743174488496 
0.006457175715495634 
-0.004973146501597721 
0.003533038103781065 
-0.0003972238926946026 
-0.006539243516614866 
0.001938629638142953 
0.008660574593597613 
0 
-0.006539243516614866 
-0.001938629638142953 
0.003533038103781065 
0.0003972238926946026 
0.001910736096866344 
0.003744376804787475 
-0.009963104122103376 
0.003049373027618159 
0.007075024334761488 
0 
-0.009963104122103376 
-0.003049373027618159 
0.001910736096866344 
-0.003744376804787475 
0.003195168150573092 
0.002998836635808494 
-0.009323198503711799 
0.0005745694231032488 
0.009428022331567861 
0 
-0.009323198503711799 
-0.0005745694231032488 
0.003195168150573092 
-0.002998836635808494 
-0.001617018783951344 
0.001637997126965979 
-0.004240699173351702 
-0.006190337136745549 
0.01496675191773791 
0 
-0.004240699173351702 
0.006190337136745549 
-0.001617018783951344 
-0.001637997126965979 
-0.002965477588396965 
0.0002757877664666109 
-0.003900925253119204 
-0.004992604052441359 
0.008790244678492709 
0 
-0.003900925253119204 
0.004992604052441359 
-0.002965477588396965 
-0.0002757877664666109 
0.004358665264428359 
0.004435557922340761 
-0.01029359548849991 
0.01611797701536708 
-0.02571114409763645 
0 
-0.01029359548849991 
-0.01611797701536708 
0.004358665264428359 
-0.004435557922340761 
0.0007172135674703516 
0.0007485075720412946 
-0.004437360425919719 
0.00167309428020119 
0.003065740881504881 
0 
-0.004437360425919719 
-0.00167309428020119 
0.0007172135674703516 
-0.0007485075720412946 
0.00234898341748749 
0.0002805500426601548 
-0.004836247178941897 
0.003297606078547251 
0.00387735701938238 
0 
-0.004836247178941897 
-0.003297606078547251 
0.00234898341748749 
-0.0002805500426601548 
0.00529470282618655 
0.001400688309095748 
-0.009640875002991295 
0.005739691488919414 
0.005713922492121372 
0 
-0.009640875002991295 
-0.005739691488919414 
0.00529470282618655 
-0.001400688309095748 
0.005724080407365561 
0.00408357337128343 
-0.008661379313620224 
0.009923073146595348 
-0.007245757831193443 
0 
-0.008661379313620224 
-0.009923073146595348 
0.005724080407365561 
-0.00408357337128343 
-0.0007458957250058945 
0.002589657592799615 
-0.007914583022209994 
-0.004867248272017044 
0.0180359944059952 
0 
-0.007914583022209994 
0.004867248272017044 
-0.0007458957250058945 
-0.002589657592799615 
0.001373354352470808 
-0.004095828462046993 
0.0004747741043449039 
-9.706088041690156e-05 
0.009023152361646785 
0 
0.0004747741043449039 
9.706088041690156e-05 
0.001373354352470808 
0.004095828462046993 
-0.001506593032182582 
-0.008243411555194749 
0.009584179651493144 
-0.007419437386120281 
0.01783960923789627 
0 
0.009584179651493144 
0.007419437386120281 
-0.001506593032182582 
0.008243411555194749 
0.004110536270673928 
0.001687769509831526 
-0.005710189444938171 
0.005291173439484501 
-0.003102226914139098 
0 
-0.005710189444938171 
-0.005291173439484501 
0.004110536270673928 
-0.001687769509831526 
-0.0007142229561236252 
0.002207003432236117 
-0.004398675837255172 
-0.004302710585874926 
0.01177154963044096 
0 
-0.004398675837255172 
0.004302710585874926 
-0.0007142229561236252 
-0.002207003432236117 
0.005469891541116565 
0.0001383478731114511 
-0.006324793152295976 
0.004596364074689723 
0.002367561570435859 
0 
-0.006324793152295976 
-0.004596364074689723 
0.005469891541116565 
-0.0001383478731114511 
0.002546580651532253 
0.001042977236931627 
-0.008322087766638852 
-0.0006394970230422842 
0.01390519729527714 
0 
-0.008322087766638852 
0.0006394970230422842 
0.002546580651532253 
-0.001042977236931627 
0.002139077188938081 
0.005195537914429084 
-0.01242103593800116 
-0.005628438372859567 
0.02078321450795866 
0 
-0.01242103593800116 
0.005628438372859567 
0.002139077188938081 
-0.005195537914429084 
0.002030956575099918 
0.004585597752906095 
-0.01186106554251986 
-0.002262670280557006 
0.01360740167157947 
0 
-0.01186106554251986 
0.002262670280557006 
0.002030956575099918 
-0.004585597752906095 
0.004294226341401642 
0.001872888981631611 
-0.008075859965022492 
0.001279279524158343 
0.008861257808879464 
0 
-0.008075859965022492 
-0.001279279524158343 
0.004294226341401642 
-0.001872888981631611 
0.001575521199681083 
-0.006772252565714487 
0.003204424890953525 
-0.002728853906579672 
0.01098805652746636 
0 
0.003204424890953525 
0.002728853906579672 
0.001575521199681083 
0.006772252565714487 
0.005959197764820059 
0.009059871036321686 
-0.01367730980496106 
0.01535174029061018 
-0.02509750512306629 
0 
-0.01367730980496106 
-0.01535174029061018 
0.005959197764820059 
-0.009059871036321686 
0.004283064286348216 
0.0008082048345997301 
-0.004589667255359051 
0.006595161556744721 
-0.005112953660154356 
0 
-0.004589667255359051 
-0.006595161556744721 
0.004283064286348216 
-0.0008082048345997301 
0.00702201532571434 
0.0006142396021972475 
-0.007138123971119687 
0.008749701553566001 
-0.002258713050406012 
0 
-0.007138123971119687 
-0.008749701553566001 
0.00702201532571434 
-0.0006142396021972475 
0.004281358705014835 
0.001068365557375557 
-0.004197330112956547 
0.005349418820373091 
-0.002427497796169833 
0 
-0.004197330112956547 
-0.005349418820373091 
0.004281358705014835 
-0.001068365557375557 
-0.005773386921519263 
0.002006971898838295 
-0.004789157766451359 
-0.01697302047986525 
0.03431649183044293 
0 
-0.004789157766451359 
0.01697302047986525 
-0.005773386921519263 
-0.002006971898838295 
0.001782515134930572 
-0.000823682835261106 
-0.001063244498576809 
0.004748614638501755 
-0.002368469589768088 
0 
-0.001063244498576809 
-0.004748614638501755 
0.001782515134930572 
0.000823682835261106 
0.001230336155887967 
0.001018151003009226 
-0.003450134772925305 
-0.0005467031930628731 
0.005705015880825092 
0 
-0.003450134772925305 
0.0005467031930628731 
0.001230336155887967 
-0.001018151003009226 
-0.0009290309816230826 
-0.004598917655995273 
0.002719193946959486 
3.157470235205832e-05 
0.005933294207485438 
0 
0.002719193946959486 
-3.157470235205832e-05 
-0.0009290309816230826 
0.004598917655995273 
0.001983063807581734 
0.002306047793237185 
-0.006931857826888344 
0.009121885462483431 
-0.01001266167651505 
0 
-0.006931857826888344 
-0.009121885462483431 
0.001983063807581734 
-0.002306047793237185 
0.00102559808468629 
-0.0002057858217895411 
-0.003039276813649904 
0.001853679792834872 
0.003555390327185584 
0 
-0.003039276813649904 
-0.001853679792834872 
0.00102559808468629 
0.0002057858217895411 
0.003500795945167069 
0.000505929643685759 
-0.003766098585386578 
0.004037770119101086 
-0.0006080376274553077 
0 
-0.003766098585386578 
-0.004037770119101086 
0.003500795945167069 
-0.000505929643685759 
0.00535639644733499 
0.0001926455382854432 
-0.007835978457521287 
0.006135805240057528 
0.004714993824622848 
0 
-0.007835978457521287 
-0.006135805240057528 
0.00535639644733499 
-0.0001926455382854432 
0.01082823739071229 
0.005141720701086335 
-0.01684825580307271 
0.01086286383844776 
0.001334727942274486 
0 
-0.01684825580307271 
-0.01086286383844776 
0.01082823739071229 
-0.005141720701086335 
0.005727682750650644 
0.002447396221847564 
-0.007683285256495176 
0.007273538857863239 
-0.001978309838125472 
0 
-0.007683285256495176 
-0.007273538857863239 
0.005727682750650644 
-0.002447396221847564 
0.001216128133562698 
0.001863788289768225 
-0.004274321266692382 
-0.001872798836137569 
0.006178365717303899 
0 
-0.004274321266692382 
0.001872798836137569 
0.001216128133562698 
-0.001863788289768225 
-0.003385424511145218 
0.006444920438256633 
-0.01318883260714154 
0.001836254006366291 
-0.005325003739136395 
0 
-0.01318883260714154 
-0.001836254006366291 
-0.003385424511145218 
-0.006444920438256633 
0.004100687880848415 
0.003015656326050857 
-0.006697565885998013 
0.00492713871087136 
-0.004525037519449751 
0 
-0.006697565885998013 
-0.00492713871087136 
0.004100687880848415 
-0.003015656326050857 
0.001863650963725503 
0.004583394469761496 
-0.007362298491454955 
-0.003734553130465459 
0.0111447256282565 
0 
-0.007362298491454955 
0.003734553130465459 
0.001863650963725503 
-0.004583394469761496 
0.005484867204811121 
0.00249933995524722 
-0.007835282127200745 
0.004529418233869062 
0.00351196113064027 
0 
-0.007835282127200745 
-0.004529418233869062 
0.005484867204811121 
-0.00249933995524722 
-0.002497023640472183 
0.002173621521262556 
-0.005260307064340311 
-0.009566864392739729 
0.02160525785352495 
0 
-0.005260307064340311 
0.009566864392739729 
-0.002497023640472183 
-0.002173621521262556 
0.001323306192596724 
-0.0007957757601760892 
0.0002160420586876787 
0.007147317833556218 
-0.009758399807101976 
0 
0.0002160420586876787 
-0.007147317833556218 
0.001323306192596724 
0.0007957757601760892 
0.006801662642936929 
-0.005579274799871913 
-8.865372685302802e-05 
0.01385749720763601 
-0.01190806827035822 
0 
-8.865372685302802e-05 
-0.01385749720763601 
0.006801662642936929 
0.005579274799871913 
-0.001989425041210351 
-0.004096222183834569 
0.005228224393736104 
0.004011866932860705 
-0.006738388323168677 
0 
0.005228224393736104 
-0.004011866932860705 
-0.001989425041210351 
0.004096222183834569 
0.002912276384537082 
-0.001368584348453177 
0.001949628298341157 
0.01389446620059211 
-0.02244153598103212 
0 
0.001949628298341157 
-0.01389446620059211 
0.002912276384537082 
0.001368584348453177 
0.003667291684895658 
-0.001245858443731949 
-0.0003401176260805852 
0.00661067760373997 
-0.006662000684317828 
0 
-0.0003401176260805852 
-0.00661067760373997 
0.003667291684895658 
0.001245858443731949 
0.007667957459333151 
-0.003706289633042065 
0.001811488960052277 
0.0171624818379692 
-0.02424462114267429 
0 
0.001811488960052277 
-0.0171624818379692 
0.007667957459333151 
0.003706289633042065 
0.006157579254448089 
-0.0007599099437345567 
-0.003151741369470597 
0.01387695227585158 
-0.01542197257064343 
0 
-0.003151741369470597 
-0.01387695227585158 
0.006157579254448089 
0.0007599099437345567 
-0.003594301264504126 
0.005277759614104756 
-0.01313895546087087 
0.001464157703797381 
-0.004702694724658785 
0 
-0.01313895546087087 
-0.001464157703797381 
-0.003594301264504126 
-0.005277759614104756 
-0.001696908904925972 
-0.005476549712342497 
0.005727794787191156 
-0.01195301710104926 
0.02433921318155613 
0 
0.005727794787191156 
0.01195301710104926 
-0.001696908904925972 
0.005476549712342497 
0.006432531475957098 
0.0008379428771052294 
-0.005609182472291811 
0.01387285215727303 
-0.01605260269199044 
0 
-0.005609182472291811 
-0.01387285215727303 
0.006432531475957098 
-0.0008379428771052294 
-0.003534552076780325 
-0.0005817086968325213 
0.001383602183107848 
-0.001489702576807489 
0.001987831787622183 
0 
0.001383602183107848 
0.001489702576807489 
-0.003534552076780325 
0.0005817086968325213 
-0.003099294067901981 
-0.003569352465211031 
0.005255091625593929 
-0.004945805193986447 
0.007117904583298524 
0 
0.005255091625593929 
0.004945805193986447 
-0.003099294067901981 
0.003569352465211031 
-0.002960084492935537 
-0.0004085114511835599 
-0.003160146170152626 
-0.00189061963935657 
0.004658895960072995 
0 
-0.003160146170152626 
0.00189061963935657 
-0.002960084492935537 
0.0004085114511835599 
0.001028668285089811 
-0.001258875829939461 
-0.002380746503219951 
-0.0005800361344760143 
0.007498324756383489 
0 
-0.002380746503219951 
0.0005800361344760143 
0.001028668285089811 
0.001258875829939461 
-0.0007158982476459057 
-0.001182359255699685 
-0.0009008357577465386 
0.0004490508550626124 
0.003425906729457864 
0 
-0.0009008357577465386 
-0.0004490508550626124 
-0.0007158982476459057 
0.001182359255699685 
0.00496256835053718 
0.004161529874854204 
-0.01052005114209441 
0.01510954569602458 
-0.02108764317559231 
0 
-0.01052005114209441 
-0.01510954569602458 
0.00496256835053718 
-0.004161529874854204 
0.004136355945991646 
-0.001353759541368188 
-0.001556315960103909 
0.006530353771976914 
-0.005664025278965415 
0 
-0.001556315960103909 
-0.006530353771976914 
0.004136355945991646 
0.001353759541368188 
0.00246820882869069 
-0.003037389490472947 
-0.001011438824909747 
0.005173562252421768 
-0.0004554155600698488 
0 
-0.001011438824909747 
-0.005173562252421768 
0.00246820882869069 
0.003037389490472947 
0.001147632602763644 
0.0004752847904372216 
-0.003190227742478516 
0.001248693801795611 
0.00392573740675574 
0 
-0.003190227742478516 
-0.001248693801795611 
0.001147632602763644 
-0.0004752847904372216 
0.003944923207406153 
-0.0002918506885374477 
-0.003568130136251127 
0.009181829541542414 
-0.007855415211292859 
0 
-0.003568130136251127 
-0.009181829541542414 
0.003944923207406153 
0.0002918506885374477 
0.006231567876856857 
0.001528093027967789 
-0.006064701926002628 
0.01616911514506588 
-0.01960647249080059 
0 
-0.006064701926002628 
-0.01616911514506588 
0.006231567876856857 
-0.001528093027967789 
0.0001996592805694839 
-0.001221744082761293 
-0.003452110281608735 
-0.000813061515724124 
0.009846504718448473 
0 
-0.003452110281608735 
0.000813061515724124 
0.0001996592805694839 
0.001221744082761293 
0.002522999669222116 
0.001896662099465397 
-0.007242907083506664 
-4.093989970447097e-06 
0.00986897055634269 
0 
-0.007242907083506664 
4.093989970447097e-06 
0.002522999669222116 
-0.001896662099465397 
0.01058358768558321 
0.004875402589503116 
-0.01222876211369866 
0.01762826800716693 
-0.01582329481129751 
0 
-0.01222876211369866 
-0.01762826800716693 
0.01058358768558321 
-0.004875402589503116 
0.006388980716258256 
0.001909740479132436 
-0.007361965349249366 
0.007880619137578615 
-0.004367644884103863 
0 
-0.007361965349249366 
-0.007880619137578615 
0.006388980716258256 
-0.001909740479132436 
0.001204767419880599 
0.004624512295133352 
-0.008124880767514548 
-0.001900469881918542 
0.009119873176676787 
0 
-0.008124880767514548 
0.001900469881918542 
0.001204767419880599 
-0.004624512295133352 
0.00204701628252868 
-0.001158914089404778 
-0.001774400174137387 
0.001286425504181556 
0.002627829242191848 
0 
-0.001774400174137387 
-0.001286425504181556 
0.00204701628252868 
0.001158914089404778 
0.006083638471604667 
0.007911800416543935 
-0.01408816529427425 
0.0143054865515082 
-0.01912620542506456 
0 
-0.01408816529427425 
-0.0143054865515082 
0.006083638471604667 
-0.007911800416543935 
0.001910184365359527 
0.0007129728772358112 
-0.001098925454582789 
-0.0002733506164475704 
0.003503005133068435 
0 
-0.001098925454582789 
0.0002733506164475704 
0.001910184365359527 
-0.0007129728772358112 
0.00390942044005713 
-0.0004603028328687219 
-0.003174548900299034 
0.001184091265508723 
0.005434576901139844 
0 
-0.003174548900299034 
-0.001184091265508723 
0.00390942044005713 
0.0004603028328687219 
0.003365900740660536 
-0.001072835486395073 
-0.003927246823066782 
0.005690531199913414 
0.0004029796206420391 
0 
-0.003927246823066782 
-0.005690531199913414 
0.003365900740660536 
0.001072835486395073 
0.006902847062332125 
0.0005052898153153256 
-0.006588253304289348 
0.008400809317151604 
-0.004116751965611638 
0 
-0.006588253304289348 
-0.008400809317151604 
0.006902847062332125 
-0.0005052898153153256 
0.004440305277336846 
0.002594566910152341 
-0.006760154357439909 
0.007766735319616935 
-0.003636401722237091 
0 
-0.006760154357439909 
-0.007766735319616935 
0.004440305277336846 
-0.002594566910152341 
0.008080361138392094 
0.001121134800497026 
-0.004752702102785949 
0.01310367193291661 
-0.0153142063203796 
0 
-0.004752702102785949 
-0.01310367193291661 
0.008080361138392094 
-0.001121134800497026 
0.003671001283482235 
-0.001491869486233183 
-0.002839870039012789 
0.006117174098420208 
-0.002240999883892609 
0 
-0.002839870039012789 
-0.006117174098420208 
0.003671001283482235 
0.001491869486233183 
0.004595789589540662 
0.001438595769116599 
-0.005400392354866412 
0.01156516739051205 
-0.01276413543311419 
0 
-0.005400392354866412 
-0.01156516739051205 
0.004595789589540662 
-0.001438595769116599 
0.008677568061798042 
0.005633548384548974 
-0.01091839835609883 
0.01211415052369674 
-0.01168440459093225 
0 
-0.01091839835609883 
-0.01211415052369674 
0.008677568061798042 
-0.005633548384548974 
0.0004755814621526146 
-0.005730026201610863 
0.002402554684857804 
0.004431463512963903 
-0.0003346541510482714 
0 
0.002402554684857804 
-0.004431463512963903 
0.0004755814621526146 
0.005730026201610863 
0.001714335125631902 
-0.0009350209824263676 
-0.00556556793296635 
-0.001201834609852733 
0.01167654460063402 
0 
-0.00556556793296635 
0.001201834609852733 
0.001714335125631902 
0.0009350209824263676 
0.007393210727826336 
-0.002364898967261045 
-0.002675315245980015 
0.01518064345806486 
-0.01496457024450249 
0 
-0.002675315245980015 
-0.01518064345806486 
0.007393210727826336 
0.002364898967261045 
0.008257825945770441 
0.001938402728988539 
-0.009546946109860713 
0.01133494057347508 
-0.007073159976547554 
0 
-0.009546946109860713 
-0.01133494057347508 
0.008257825945770441 
-0.001938402728988539 
0.007714857928537326 
0.001717848442112471 
-0.007790515787694127 
0.01487722352107242 
-0.01333147466797469 
0 
-0.007790515787694127 
-0.01487722352107242 
0.007714857928537326 
-0.001717848442112471 
0.002241196865072153 
-0.001093076740426703 
-0.002157607709346127 
0.005978350693501987 
-0.003020563791740631 
0 
-0.002157607709346127 
-0.005978350693501987 
0.002241196865072153 
0.001093076740426703 
0.01178027296732849 
0.01160740010333042 
-0.02104595975108101 
0.03220378446005087 
-0.04825479724565548 
0 
-0.02104595975108101 
-0.03220378446005087 
0.01178027296732849 
-0.01160740010333042 
-0.0004948734633275693 
-0.002086805954460493 
0.0003619266916872003 
-0.0006423265439479013 
0.003877280456918003 
0 
0.0003619266916872003 
0.0006423265439479013 
-0.0004948734633275693 
0.002086805954460493 
0.00350207067244938 
-0.001625807019753259 
-0.0007072044007301485 
0.006327341841008765 
-0.007334918078976847 
0 
-0.0007072044007301485 
-0.006327341841008765 
0.00350207067244938 
0.001625807019753259 
0.003274102372011434 
0.004477315333046735 
-0.008342411913031507 
0.002791105212141951 
-0.0007505143270071793 
0 
-0.008342411913031507 
-0.002791105212141951 
0.003274102372011434 
-0.004477315333046735 
0.0003999395098746358 
0.0005709380661907519 
-0.004841602073120279 
-0.000360917046903738 
0.007173516590085804 
0 
-0.004841602073120279 
0.000360917046903738 
0.0003999395098746358 
-0.0005709380661907519 
0.007278602557493102 
-0.005783314688696871 
-0.0004451610630999031 
0.01886557637817441 
-0.01652077805101532 
0 
-0.0004451610630999031 
-0.01886557637817441 
0.007278602557493102 
0.005783314688696871 
0.006158265592088479 
-0.001649251904353229 
-0.003400200471342128 
0.01057579994454141 
-0.007737282578642838 
0 
-0.003400200471342128 
-0.01057579994454141 
0.006158265592088479 
0.001649251904353229 
0.002130868503799602 
0.002166176824081057 
-0.004820540095579345 
0.0009130370569573264 
0.003405754408291347 
0 
-0.004820540095579345 
-0.0009130370569573264 
0.002130868503799602 
-0.002166176824081057 
0.004832306186474584 
0.002421162317497788 
-0.005100914040383325 
0.01362477338488938 
-0.01917391595484763 
0 
-0.005100914040383325 
-0.01362477338488938 
0.004832306186474584 
-0.002421162317497788 
0.0137156895053797 
0.001769062434981273 
-0.006500899085526048 
0.02160902734627452 
-0.02510045534446786 
0 
-0.006500899085526048 
-0.02160902734627452 
0.0137156895053797 
-0.001769062434981273 
0.007712578987756522 
0.001441110915964066 
-0.004934051608377374 
0.01340579467238592 
-0.01290504187595763 
0 
-0.004934051608377374 
-0.01340579467238592 
0.007712578987756522 
-0.001441110915964066 
0.007054549439233085 
-0.001743927984027004 
-0.002779868269632761 
0.01161170619025099 
-0.009834345634447227 
0 
-0.002779868269632761 
-0.01161170619025099 
0.007054549439233085 
0.001743927984027004 
0.008615257651651421 
0.001683123861909357 
-0.007022342928706802 
0.01860710472777046 
-0.01880701910428302 
0 
-0.007022342928706802 
-0.01860710472777046 
0.008615257651651421 
-0.001683123861909357 
0.01070602010075219 
0.002376513629162171 
-0.01342554282800367 
0.01967641356194436 
-0.0201883583281458 
0 
-0.01342554282800367 
-0.01967641356194436 
0.01070602010075219 
-0.002376513629162171 
0.006384346367329837 
-0.0009792036486806 
-0.005686843427534613 
0.007272630861227396 
-0.0008951455253181948 
0 
-0.005686843427534613 
-0.007272630861227396 
0.006384346367329837 
0.0009792036486806 
0.002975783640996167 
-0.003326024361644044 
7.007206184662274e-05 
0.008588597192384789 
-0.007122686418005818 
0 
7.007206184662274e-05 
-0.008588597192384789 
0.002975783640996167 
0.003326024361644044 
0.00443307889689454 
0.002728108367696835 
-0.00735179287947569 
0.01200425136170072 
-0.01635476290216851 
0 
-0.00735179287947569 
-0.01200425136170072 
0.00443307889689454 
-0.002728108367696835 
-0.0002170224182156285 
0.0007413544513354219 
-0.002118534981098179 
0.004672504854127674 
-0.005826173161504283 
0 
-0.002118534981098179 
-0.004672504854127674 
-0.0002170224182156285 
-0.0007413544513354219 
0.007807662893347034 
-0.001917487816924341 
-0.003390693907716516 
0.01064017691972275 
-0.005234191073750468 
0 
-0.003390693907716516 
-0.01064017691972275 
0.007807662893347034 
0.001917487816924341 
0.00466107363491323 
-0.00220989911492762 
-0.001824580175601939 
0.01024268520371342 
-0.009037439234371929 
0 
-0.001824580175601939 
-0.01024268520371342 
0.00466107363491323 
0.00220989911492762 
0.006558755315049626 
-0.0004945758343678113 
-0.006122836066857057 
0.0148985629282898 
-0.01245191247720399 
0 
-0.006122836066857057 
-0.0148985629282898 
0.006558755315049626 
0.0004945758343678113 
0.003456115609341416 
-0.003033486539549477 
0.001050415004298871 
0.01415633146074292 
-0.01886191010930901 
0 
0.001050415004298871 
-0.01415633146074292 
0.003456115609341416 
0.003033486539549477 
0.001303006882376901 
-0.002834155122179522 
-0.000532443231016729 
0.006966663292443617 
-0.003658629468728982 
0 
-0.000532443231016729 
-0.006966663292443617 
0.001303006882376901 
0.002834155122179522 
-0.0007746389476532168 
-0.002523330919903353 
0.001492042282556632 
4.505814238111338e-05 
0.001013893745392934 
0 
0.001492042282556632 
-4.505814238111338e-05 
-0.0007746389476532168 
0.002523330919903353 
0.001261327989993898 
-0.01010518359712724 
0.01122043173551276 
-0.0101607538549931 
0.02385441106805852 
0 
0.01122043173551276 
0.0101607538549931 
0.001261327989993898 
0.01010518359712724 
0.007757032493873852 
-0.002841093192728027 
-0.0003889407791254293 
0.01137055593342863 
-0.0112193314902576 
0 
-0.0003889407791254293 
-0.01137055593342863 
0.007757032493873852 
0.002841093192728027 
0.007047971105478623 
0.002258042595915565 
-0.006151335561600928 
0.01072452455351816 
-0.01038508839766015 
0 
-0.006151335561600928 
-0.01072452455351816 
0.007047971105478623 
-0.002258042595915565 
0.00602714740751427 
-0.0006787160628257255 
-0.003466104591501931 
0.008731617645751732 
-0.006109296209445999 
0 
-0.003466104591501931 
-0.008731617645751732 
0.00602714740751427 
0.0006787160628257255 
0.00803637774563647 
0.001462425553486655 
-0.003838633852598672 
0.01669866371836087 
-0.02220513192418109 
0 
-0.003838633852598672 
-0.01669866371836087 
0.00803637774563647 
-0.001462425553486655 
0.002471167674116936 
0.00566982490401179 
-0.008216528620803286 
0.01186562469611132 
-0.01746006559426926 
0 
-0.008216528620803286 
-0.01186562469611132 
0.002471167674116936 
-0.00566982490401179 
0.003830934917102623 
0.00337541626788479 
-0.007172992990237779 
0.004755955883027892 
-0.0008048328577951544 
0 
-0.007172992990237779 
-0.004755955883027892 
0.003830934917102623 
-0.00337541626788479 
0.002075903862042595 
0.001864243636991924 
-0.004374323823360278 
0.001426670976527538 
0.001100233274043347 
0 
-0.004374323823360278 
-0.001426670976527538 
0.002075903862042595 
-0.001864243636991924 
-0.001100063899331761 
6.415352213778774e-05 
0.003219687026453652 
-0.006066618658668094 
0.0101657331671859 
0 
0.003219687026453652 
0.006066618658668094 
-0.001100063899331761 
-6.415352213778774e-05 
-0.005088687572814892 
0.009327575179123842 
-0.009599997961219632 
-0.003872124821099325 
0.00126529501984679 
0 
-0.009599997961219632 
0.003872124821099325 
-0.005088687572814892 
-0.009327575179123842 
0.003719177808398193 
-0.00219009230884005 
-0.0007526194601774734 
0.006163921946466139 
-0.006311030689146313 
0 
-0.0007526194601774734 
-0.006163921946466139 
0.003719177808398193 
0.00219009230884005 
0.0008690100693961344 
0.004070867099708518 
-0.007605029703890611 
0.01015610880150915 
-0.02091017723194185 
0 
-0.007605029703890611 
-0.01015610880150915 
0.0008690100693961344 
-0.004070867099708518 
0.007243605571665791 
0.0005280443069734373 
-0.002287016190467782 
0.01603160928523316 
-0.02298634855249827 
0 
-0.002287016190467782 
-0.01603160928523316 
0.007243605571665791 
-0.0005280443069734373 
-0.0002017976705401537 
-0.001918290646995462 
0.003379346208658908 
0.004579349459346694 
-0.008670020787764578 
0 
0.003379346208658908 
-0.004579349459346694 
-0.0002017976705401537 
0.001918290646995462 
-0.0005906562343385084 
-2.945290752383161e-05 
-0.0008738187042806226 
0.003090161532848943 
-0.003878247016895494 
0 
-0.0008738187042806226 
-0.003090161532848943 
-0.0005906562343385084 
2.945290752383161e-05 
-0.001966101625687043 
-0.004722336134237442 
0.003455275495059615 
-0.003764781765286696 
0.007544992089717747 
0 
0.003455275495059615 
0.003764781765286696 
-0.001966101625687043 
0.004722336134237442 
0.004995047428218428 
-0.005600805675935927 
0.005879038454299111 
0.002969516973501465 
0.001491430199360632 
0 
0.005879038454299111 
-0.002969516973501465 
0.004995047428218428 
0.005600805675935927 
0.002731128072060412 
-0.004672902830324814 
0.004965269027724466 
0.004745312544452739 
-0.00660981522074598 
0 
0.004965269027724466 
-0.004745312544452739 
0.002731128072060412 
0.004672902830324814 
0.002875786755352002 
0.001205640464617205 
-0.002378018838186619 
0.004287289786651916 
-0.00467570750969399 
0 
-0.002378018838186619 
-0.004287289786651916 
0.002875786755352002 
-0.001205640464617205 
0.007914533769263763 
0.001790601599361048 
-0.006147698186369294 
0.01213091627513509 
-0.01094697549449922 
0 
-0.006147698186369294 
-0.01213091627513509 
0.007914533769263763 
-0.001790601599361048 
0.004108859384899718 
-0.001513171915204057 
-0.004455524800866397 
0.006935250377074408 
-0.001844439571762991 
0 
-0.004455524800866397 
-0.006935250377074408 
0.004108859384899718 
0.001513171915204057 
0.004298686140088656 
0.001205426169047603 
-0.004975285499683514 
0.00707710168027029 
-0.006229696621819214 
0 
-0.004975285499683514 
-0.00707710168027029 
0.004298686140088656 
-0.001205426169047603 
0.002231230120294639 
-0.001944248994750824 
-0.0008495265635789624 
0.003774891548202477 
-0.0007219130191077007 
0 
-0.0008495265635789624 
-0.003774891548202477 
0.002231230120294639 
0.001944248994750824 
0.002503693883078847 
-0.0001553673337327663 
-0.003395389483681927 
0.003272870294557394 
0.0002369152702538066 
0 
-0.003395389483681927 
-0.003272870294557394 
0.002503693883078847 
0.0001553673337327663 
-0.0003430907972487905 
0.001210843705389268 
0.005568930219223313 
-0.01236635819765791 
0.0242193144400261 
0 
0.005568930219223313 
0.01236635819765791 
-0.0003430907972487905 
-0.001210843705389268 
0.0007252080532963491 
0.006245479647081294 
-0.005974135136213999 
-0.005918690339181022 
0.0128652479084805 
0 
-0.005974135136213999 
0.005918690339181022 
0.0007252080532963491 
-0.006245479647081294 
0.008248370227656126 
0.0001922358554141754 
-0.003673274159137695 
0.00964486718512878 
-0.009218160804819957 
0 
-0.003673274159137695 
-0.00964486718512878 
0.008248370227656126 
-0.0001922358554141754 
0.002313055191689881 
0.003786773246616333 
-0.007636149296567839 
0.005910583376359293 
-0.00319294073064655 
0 
-0.007636149296567839 
-0.005910583376359293 
0.002313055191689881 
-0.003786773246616333 
0.005489245504433805 
0.002725072673491182 
-0.005071265450844929 
0.01541468129399467 
-0.02113089711196893 
0 
-0.005071265450844929 
-0.01541468129399467 
0.005489245504433805 
-0.002725072673491182 
0.003094757834783171 
0.003441056115235773 
-0.007165993860064536 
0.007308536333576338 
-0.008294380532468474 
0 
-0.007165993860064536 
-0.007308536333576338 
0.003094757834783171 
-0.003441056115235773 
0.005048997388574937 
0.001553299206379942 
-0.004380797322637179 
0.007723477233338355 
-0.006840539065853973 
0 
-0.004380797322637179 
-0.007723477233338355 
0.005048997388574937 
-0.001553299206379942 
0.006505402548125989 
-2.585928240134436e-05 
-0.005131242291707951 
0.008256000142142427 
-0.005304935831766876 
0 
-0.005131242291707951 
-0.008256000142142427 
0.006505402548125989 
2.585928240134436e-05 
0.0001284338597302904 
0.002104553355484987 
-0.004242165033202686 
0.001551564618805526 
0.0003125653417634864 
0 
-0.004242165033202686 
-0.001551564618805526 
0.0001284338597302904 
-0.002104553355484987 
0.00279922896330941 
0.008131300367499084 
-0.009844800543237628 
0.005440191816455697 
-0.009367627149980651 
0 
-0.009844800543237628 
-0.005440191816455697 
0.00279922896330941 
-0.008131300367499084 
0.004114109000605913 
0.002209479266048473 
-0.00321356033890547 
0.002104173926016905 
-0.00184811952846422 
0 
-0.00321356033890547 
-0.002104173926016905 
0.004114109000605913 
-0.002209479266048473 
-0.00172895203750456 
0.01094679550007706 
-0.01198694540876446 
-0.0101203558771564 
0.01352248912313963 
0 
-0.01198694540876446 
0.0101203558771564 
-0.00172895203750456 
-0.01094679550007706 
0.004443415732466246 
0.003023456421007852 
-0.005682915350570534 
0.003143935575561011 
-0.0008062580584316284 
0 
-0.005682915350570534 
-0.003143935575561011 
0.004443415732466246 
-0.003023456421007852 
5.507498488620669e-05 
0.002125827297093175 
-0.007255191675275532 
-0.006667476797225073 
0.01941334991994972 
0 
-0.007255191675275532 
0.006667476797225073 
5.507498488620669e-05 
-0.002125827297093175 
0.005112058271906499 
0.002005915491253238 
-0.007603909672136653 
0.0002472222557742666 
0.007982890527082384 
0 
-0.007603909672136653 
-0.0002472222557742666 
0.005112058271906499 
-0.002005915491253238 
0.002354097377726992 
0.001181365577258008 
-0.005008712982953268 
-0.00122039240006528 
0.008933342545645455 
0 
-0.005008712982953268 
0.00122039240006528 
0.002354097377726992 
-0.001181365577258008 
-0.0006498082908728005 
0.003119211116215071 
-0.004870497107953934 
0.0006529208281539343 
-0.003269473140026473 
0 
-0.004870497107953934 
-0.0006529208281539343 
-0.0006498082908728005 
-0.003119211116215071 
-0.0003637671185812683 
0.002325909339608978 
-0.003506916923931229 
-0.001095577962784567 
0.001091057782846512 
0 
-0.003506916923931229 
0.001095577962784567 
-0.0003637671185812683 
-0.002325909339608978 
0.005229103192433459 
0.003815004530521249 
-0.008158892030303136 
0.00576035093991248 
-0.003692182446121698 
0 
-0.008158892030303136 
-0.00576035093991248 
0.005229103192433459 
-0.003815004530521249 
0.0005532718314813045 
-0.000297062259142893 
-0.002231208752407438 
0.005556381579206848 
-0.004107239051202588 
0 
-0.002231208752407438 
-0.005556381579206848 
0.0005532718314813045 
0.000297062259142893 
-0.001363622141534384 
-0.0003002253992051134 
-0.002637116031074385 
0.0003735159553963391 
0.004242027717181635 
0 
-0.002637116031074385 
-0.0003735159553963391 
-0.001363622141534384 
0.0003002253992051134 
0.002459110570884921 
0.002359799196184588 
-0.003799136203206133 
0.003512892393074074 
-0.0002984726076488484 
0 
-0.003799136203206133 
-0.003512892393074074 
0.002459110570884921 
-0.002359799196184588 
0.002130713513864366 
0.0001717275858208332 
-0.003886318980762394 
0.002160714773421292 
0.003808699678084918 
0 
-0.003886318980762394 
-0.002160714773421292 
0.002130713513864366 
-0.0001717275858208332 
0.000374299059642967 
-0.001472048148325809 
-0.00151285948799677 
0.00231791904939454 
0.002948797815184455 
0 
-0.00151285948799677 
-0.00231791904939454 
0.000374299059642967 
0.001472048148325809 
-0.007299438272001835 
-0.005452393506578603 
0.006788199131028228 
-0.006513146391423731 
0.007839692652694508 
0 
0.006788199131028228 
0.006513146391423731 
-0.007299438272001835 
0.005452393506578603 
0.004813449427214819 
-0.001452465781153046 
-0.0007547491100736332 
0.004909363120224136 
-0.00101919239607339 
0 
-0.0007547491100736332 
-0.004909363120224136 
0.004813449427214819 
0.001452465781153046 
0.004648674657203731 
0.0005841202402804707 
-0.004553967541220416 
0.006178236796796766 
-0.002071265526872704 
0 
-0.004553967541220416 
-0.006178236796796766 
0.004648674657203731 
-0.0005841202402804707 
0.0006681557522205404 
0.002217497989294349 
-0.002535620758854253 
0.0007704972830519319 
0.0009944968096293463 
0 
-0.002535620758854253 
-0.0007704972830519319 
0.0006681557522205404 
-0.002217497989294349 
0.0084000997184782 
-0.001011883818765083 
-0.004121545318173943 
0.01405158189431308 
-0.01285179925611675 
0 
-0.004121545318173943 
-0.01405158189431308 
0.0084000997184782 
0.001011883818765083 
0.004151388028552166 
0.0008504749406571544 
-0.004898624328477571 
0.008442485506134195 
-0.005953869333583109 
0 
-0.004898624328477571 
-0.008442485506134195 
0.004151388028552166 
-0.0008504749406571544 
0.005773897266258194 
-0.001185467085953355 
-0.003479571732367983 
0.01340755354131448 
-0.01494692751997523 
0 
-0.003479571732367983 
-0.01340755354131448 
0.005773897266258194 
0.001185467085953355 
0.00622540298448767 
0.000984828955288053 
-0.00644137552794517 
0.009767281384102992 
-0.005749680129393905 
0 
-0.00644137552794517 
-0.009767281384102992 
0.00622540298448767 
-0.000984828955288053 
-0.002003360115015847 
0.002629514811681301 
-0.003759601836027195 
-0.003201556280958766 
0.005664689138098073 
0 
-0.003759601836027195 
0.003201556280958766 
-0.002003360115015847 
-0.002629514811681301 
-0.00296556245738816 
-0.002443054762037072 
0.001332703280978523 
-0.008969075676177021 
0.01722397734916322 
0 
0.001332703280978523 
0.008969075676177021 
-0.00296556245738816 
0.002443054762037072 
0.003050462051457421 
-0.003684875772367383 
0.001606444521492048 
-0.001587001296819071 
0.01001176403914641 
0 
0.001606444521492048 
0.001587001296819071 
0.003050462051457421 
0.003684875772367383 
0.0002434058833882637 
0.001890145265100884 
-0.003156831895342623 
-0.002425917668809526 
0.007291030467983905 
0 
-0.003156831895342623 
0.002425917668809526 
0.0002434058833882637 
-0.001890145265100884 
0.0009745637711592318 
-0.004075399710406078 
0.002852666126644636 
-0.006423213239229931 
0.0212069034105353 
0 
0.002852666126644636 
0.006423213239229931 
0.0009745637711592318 
0.004075399710406078 
0.004665170339431948 
0.002542690878080896 
-0.005227496530858747 
0.006278196606825054 
-0.006367590582321807 
0 
-0.005227496530858747 
-0.006278196606825054 
0.004665170339431948 
-0.002542690878080896 
0.001999183679101615 
0.0003857905283028793 
-0.002986275947686776 
0.001825858828733508 
0.002622577565929507 
0 
-0.002986275947686776 
-0.001825858828733508 
0.001999183679101615 
-0.0003857905283028793 
0.002181634959937325 
0.0001511338785369746 
-0.0004438544437947714 
0.004409674286482225 
-0.005855161105207148 
0 
-0.0004438544437947714 
-0.004409674286482225 
0.002181634959937325 
-0.0001511338785369746 
-0.00409629391155553 
-0.006002367680006358 
0.007545854536003001 
-0.005572668722189468 
0.008304960319701548 
0 
0.007545854536003001 
0.005572668722189468 
-0.00409629391155553 
0.006002367680006358 
-0.005424380148412673 
-0.007968348371366753 
0.009221002007915655 
-0.01118679759901508 
0.01741150836093474 
0 
0.009221002007915655 
0.01118679759901508 
-0.005424380148412673 
0.007968348371366753 
0.001487446286590548 
0.0009363640891280925 
-0.001198279827947256 
0.001260782667334278 
-0.001800749534581451 
0 
-0.001198279827947256 
-0.001260782667334278 
0.001487446286590548 
-0.0009363640891280925 
0.002796198146682765 
0.002498318377004563 
-0.003104558168529642 
0.005285673930091397 
-0.00662875210512936 
0 
-0.003104558168529642 
-0.005285673930091397 
0.002796198146682765 
-0.002498318377004563 
-0.00982580150728269 
0.003350093268450724 
-0.006437490409102417 
-0.008788313006248459 
0.005478686530627766 
0 
-0.006437490409102417 
0.008788313006248459 
-0.00982580150728269 
-0.003350093268450724 
-0.005277191431060467 
-0.005820975005702753 
0.006353428649564433 
-0.01504483384308527 
0.02832531782482656 
0 
0.006353428649564433 
0.01504483384308527 
-0.005277191431060467 
0.005820975005702753 
0.003170776106952703 
-0.001177548756509436 
0.0003272057854181618 
0.009704681555289484 
-0.01357064892871384 
0 
0.0003272057854181618 
-0.009704681555289484 
0.003170776106952703 
0.001177548756509436 
-0.0009295132384640635 
-0.003396161454919547 
0.003976691023900381 
0.0005991182636579367 
-0.000717898018593944 
0 
0.003976691023900381 
-0.0005991182636579367 
-0.0009295132384640635 
0.003396161454919547 
0.0005236837397033038 
0.0005369804365672219 
-0.004297330999811093 
0.001130757855067454 
0.002172811336494251 
0 
-0.004297330999811093 
-0.001130757855067454 
0.0005236837397033038 
-0.0005369804365672219 
0.001590410392563035 
-0.002801136950190443 
0.0002267767891338236 
0.000760407372196759 
0.002488579733343174 
0 
0.0002267767891338236 
-0.000760407372196759 
0.001590410392563035 
0.002801136950190443 
0.004856188254168729 
0.001102658832467935 
-0.004410308250341471 
0.005453097636563091 
-0.003268318723980476 
0 
-0.004410308250341471 
-0.005453097636563091 
0.004856188254168729 
-0.001102658832467935 
0.004614933261264931 
-0.00361927998813228 
-0.002402079723396771 
0.006962598117195925 
-0.00108755912670291 
0 
-0.002402079723396771 
-0.006962598117195925 
0.004614933261264931 
0.00361927998813228 
0.00160098387319986 
0.002778172997515061 
-0.005365974087416766 
0.00868027721100797 
-0.01310445463298143 
0 
-0.005365974087416766 
-0.00868027721100797 
0.00160098387319986 
-0.002778172997515061 
0.003363109985522958 
0.0001586633670491177 
-0.002584238757690721 
0.003915866781748888 
0.0004363607450786328 
0 
-0.002584238757690721 
-0.003915866781748888 
0.003363109985522958 
-0.0001586633670491177 
0.01135561725482202 
-0.001034975751953143 
-0.004388511436224225 
0.0229792390185705 
-0.02977707309153075 
0 
-0.004388511436224225 
-0.0229792390185705 
0.01135561725482202 
0.001034975751953143 
0.007688798452892685 
-0.001145380080868076 
-0.001161854888944345 
0.01550861011649145 
-0.02009623113107243 
0 
-0.001161854888944345 
-0.01550861011649145 
0.007688798452892685 
0.001145380080868076 
0.003133483329011158 
-0.002084848851241054 
0.0003581337112398444 
0.007947536454519399 
-0.009931033758727401 
0 
0.0003581337112398444 
-0.007947536454519399 
0.003133483329011158 
0.002084848851241054 
0.002025585021735769 
-0.0002324935573944499 
-0.002497110639267852 
0.001156373804995775 
0.002241013370290798 
0 
-0.002497110639267852 
-0.001156373804995775 
0.002025585021735769 
0.0002324935573944499 
-0.001136017075826707 
0.004342429310892067 
-0.007071694821116671 
-0.006803450495762623 
0.01753644320041808 
0 
-0.007071694821116671 
0.006803450495762623 
-0.001136017075826707 
-0.004342429310892067 
-0.007235643658252882 
0.002156188265640935 
-0.004882248254892312 
-0.02293292131974478 
0.04316654326628123 
0 
-0.004882248254892312 
0.02293292131974478 
-0.007235643658252882 
-0.002156188265640935 
0.001354473876287434 
0.003007306176141881 
-0.007729522067827651 
-0.002967485933824995 
0.01169537974800915 
0 
-0.007729522067827651 
0.002967485933824995 
0.001354473876287434 
-0.003007306176141881 
0.001562200926260183 
0.002141574839775301 
-0.005811518889447745 
0.01073220111950299 
-0.01654925033645697 
0 
-0.005811518889447745 
-0.01073220111950299 
0.001562200926260183 
-0.002141574839775301 
0.007909039508862663 
-0.0002080031633548706 
-0.005712032132344857 
0.01191903792458634 
-0.008862314382200984 
0 
-0.005712032132344857 
-0.01191903792458634 
0.007909039508862663 
0.0002080031633548706 
0.0013279390932633 
0.0006419409295010986 
-0.003675042637145451 
0.00218565280627032 
0.001593385373236881 
0 
-0.003675042637145451 
-0.00218565280627032 
0.0013279390932633 
-0.0006419409295010986 
-0.002657291181491201 
-0.001694644795167704 
0.003236355608168816 
-0.004849593588305856 
0.006166583697555383 
0 
0.003236355608168816 
0.004849593588305856 
-0.002657291181491201 
0.001694644795167704 
0.002136677070827793 
0.003214008017119461 
-0.004263980655402696 
0.009440589247497033 
-0.0146864600057586 
0 
-0.004263980655402696 
-0.009440589247497033 
0.002136677070827793 
-0.003214008017119461 
-0.0007182224639649692 
-0.001895236824567756 
0.002791192685655967 
-0.009617939247017473 
0.01816371298565496 
0 
0.002791192685655967 
0.009617939247017473 
-0.0007182224639649692 
0.001895236824567756 
-0.01152794021396367 
0.0008262297549528545 
0.0003598034116345292 
-0.02778122166070781 
0.04184317667230073 
0 
0.0003598034116345292 
0.02778122166070781 
-0.01152794021396367 
-0.0008262297549528545 
0.001330345717148197 
-0.0002045117048298681 
0.0002182947490229133 
-0.002349897044798749 
0.005850513025581977 
0 
0.0002182947490229133 
0.002349897044798749 
0.001330345717148197 
0.0002045117048298681 
0.001383252367219107 
-0.002572036867454535 
-0.0006673068161542866 
0.002263691764665058 
0.001676880308205423 
0 
-0.0006673068161542866 
-0.002263691764665058 
0.001383252367219107 
0.002572036867454535 
0.001930718518555314 
-0.001782653528119401 
-0.000857811476748779 
0.006112776572700396 
-0.004443189980691425 
0 
-0.000857811476748779 
-0.006112776572700396 
0.001930718518555314 
0.001782653528119401 
0.003516768636063673 
-0.002502894095959396 
0.001006182011286846 
0.008966844985845216 
-0.01099581945225347 
0 
0.001006182011286846 
-0.008966844985845216 
0.003516768636063673 
0.002502894095959396 
0.006262241849687953 
-0.0004769972816065222 
-0.0007925331894443954 
0.01388036779570592 
-0.01674146528493865 
0 
-0.0007925331894443954 
-0.01388036779570592 
0.006262241849687953 
0.0004769972816065222 
0.001142633808542158 
-0.003556115796001181 
0.001868867292562165 
0.005340018978135824 
-0.005953491657878746 
0 
0.001868867292562165 
-0.005340018978135824 
0.001142633808542158 
0.003556115796001181 
0.008665846995082497 
0.001417544200767338 
-0.006767076026217995 
0.0138034432015364 
-0.01219491377963998 
0 
-0.006767076026217995 
-0.0138034432015364 
0.008665846995082497 
-0.001417544200767338 
0.00560420971134722 
-0.002437013393850887 
-0.005231577414176385 
0.00854399898883691 
2.097729521857623e-05 
0 
-0.005231577414176385 
-0.00854399898883691 
0.00560420971134722 
0.002437013393850887 
0.009414316580785273 
1.879243873444605e-05 
-0.01008589897872877 
0.00787838735507158 
0.00564819736986758 
0 
-0.01008589897872877 
-0.00787838735507158 
0.009414316580785273 
-1.879243873444605e-05 
0.007570617362555292 
-0.003887445301127309 
-0.005869144630884691 
0.009813881764263573 
0.0005263935447516572 
0 
-0.005869144630884691 
-0.009813881764263573 
0.007570617362555292 
0.003887445301127309 
0.003762803622290172 
-0.003786300978066649 
-9.563012063697936e-05 
0.007994322719279657 
-0.00419180021968905 
0 
-9.563012063697936e-05 
-0.007994322719279657 
0.003762803622290172 
0.003786300978066649 
0.007612221925271776 
0.0002443013426836554 
-0.00450496592185562 
0.01176530062107589 
-0.01183824193006944 
0 
-0.00450496592185562 
