solver_type L2R_L2LOSS_SVC_DUAL
nr_class 10
label 1 2 3 4 5 6 7 8 9 10
nr_feature 17920
bias -1
w
0.008363357060199271 0.01386380180632683 -0.01617888711094063 0.003939397474365928 0.02195415220847423 0.0003099376141651499 -0.005065177410994116 -0.006624734551414568 -0.01666282266710912 -0.005125630979446434 
-0.001145047153621985 0.0110351685172288 -0.00884224467294125 -0.003508349004253153 -0.003529530126559592 0.0002229012874048922 -0.00687067064193569 -0.00695705628925709 -0.0156559971904396 -0.0137386171686848 
0.01755420015250081 0.001750237419807681 -0.03096062534245202 0.007733075791374621 0.04380847236780489 -0.003272852771489631 -0.001879867842696331 -0.01041945966720131 -0.007972142043176226 0.00105106721471793 
-0.001450282873655793 0.02783198049415419 -0.01262763371232376 0.0002787270453732362 -0.0007712878229842337 -0.0002262949541958464 -0.007303435336038125 -0.007204278892661129 -0.01850969276837996 -0.01370760971663311 
0.0281415766620762 -0.02532634833180732 -0.04206360356191278 0.004726033430122602 0.05872368485698391 -0.003899375471337093 -0.003739663751885308 -0.01625268000518238 -0.009654334345077174 0.009974280038262857 
0 0 0 0 0 0 0 0 0 0 
0.01755420015250081 0.001750237419807681 -0.03096062534245202 0.007733075791374621 0.04380847236780489 -0.003272852771489631 -0.001879867842696331 -0.01041945966720131 -0.007972142043176226 0.00105106721471793 
0.001450282873655793 -0.02783198049415419 0.01262763371232376 -0.0002787270453732362 0.0007712878229842337 0.0002262949541958464 0.007303435336038125 0.007204278892661129 0.01850969276837996 0.01370760971663311 
0.008363357060199271 0.01386380180632683 -0.01617888711094063 0.003939397474365928 0.02195415220847423 0.0003099376141651499 -0.005065177410994116 -0.006624734551414568 -0.01666282266710912 -0.005125630979446434 
0.001145047153621985 -0.0110351685172288 0.00884224467294125 0.003508349004253153 0.003529530126559592 -0.0002229012874048922 0.00687067064193569 0.00695705628925709 0.0156559971904396 0.0137386171686848 
0.003047538307942204 0.0117416117726701 -0.007019569612960408 -0.0001669687749232091 0.01048432960483492 0.0003325310849077083 0.007766777971157783 0.008027591820769361 -0.01537922615641377 -0.01272967356731404 
0.0002823422634985456 0.01764459226075129 -0.005969123457119451 -0.002654214288247247 -0.009672536808274177 0.001360361407271989 0.005480111549536443 -0.00206857445239568 -0.02087735499873204 -0.01665067770758345 
0.003416728783053657 -0.0006602890260772585 -0.01515277028215942 -0.0005831927552881561 0.02250504150151538 -0.003556547427050676 0.006484615871591028 0.008343501326417072 0.003142787124081857 -0.01074440995020203 
-0.002125955540743495 0.03046014051603818 -0.007956554652546525 -0.0002038612564925114 -0.00828932799258403 0.001170059635077849 0.006260538120783764 0.003394824207340991 -0.02372099895834848 -0.02013450645679326 
0.009065440246761786 -0.02485332393648817 -0.02103279979494337 -0.005930338866396596 0.03161892218682545 -0.004266713764178306 0.006215866046726669 0.003191695860424898 0.006380544743483965 -0.003085839556993051 
0 0 0 0 0 0 0 0 0 0 
0.003416728783053657 -0.0006602890260772585 -0.01515277028215942 -0.0005831927552881561 0.02250504150151538 -0.003556547427050676 0.006484615871591028 0.008343501326417072 0.003142787124081857 -0.01074440995020203 
0.002125955540743495 -0.03046014051603818 0.007956554652546525 0.0002038612564925114 0.00828932799258403 -0.001170059635077849 -0.006260538120783764 -0.003394824207340991 0.02372099895834848 0.02013450645679326 
0.003047538307942204 0.0117416117726701 -0.007019569612960408 -0.0001669687749232091 0.01048432960483492 0.0003325310849077083 0.007766777971157783 0.008027591820769361 -0.01537922615641377 -0.01272967356731404 
-0.0002823422634985456 -0.01764459226075129 0.005969123457119451 0.002654214288247247 0.009672536808274177 -0.001360361407271989 -0.005480111549536443 0.00206857445239568 0.02087735499873204 0.01665067770758345 
0.005514014731860871 0.01397181087153858 -0.01711236860896858 -0.0002480538090054659 0.001683464624028463 0.00306628585136276 0.01113413575002781 0.01107832260027804 -0.01679450575657339 -0.004961902904492354 
-0.00780457961893756 0.01495263795543937 -0.009717666290350556 -0.005597920926500618 -0.01753811071055753 0.002665293258472111 -0.003843452677573463 -0.00042535298286397 -0.009360073645072079 -0.01502840423529994 
0.01155426468372904 0.002629336298968072 -0.03045227517744039 -0.0006086354996397749 0.008270640159439992 0.0001087961470393662 0.01604911643548186 0.01573854235132215 -0.00680435884761782 0.002205995476426518 
-0.00669843328594024 0.03118294970228659 -0.01495585565299142 -0.002475200215880359 -0.01605519670877784 0.003086460237389734 0.001678359426343549 0.003992228034562706 -0.01571156681464629 -0.0162565623371503 
0.0179250441622323 -0.02298652961760805 -0.03970070251850053 -0.006693855620571488 0.01015104287498578 7.94093545451359e-05 0.01529717665372687 0.01647618305384297 -0.005722990412898668 0.01176268037228448 
0 0 0 0 0 0 0 0 0 0 
0.01155426468372904 0.002629336298968072 -0.03045227517744039 -0.0006086354996397749 0.008270640159439992 0.0001087961470393662 0.01604911643548186 0.01573854235132215 -0.00680435884761782 0.002205995476426518 
0.00669843328594024 -0.03118294970228659 0.01495585565299142 0.002475200215880359 0.01605519670877784 -0.003086460237389734 -0.001678359426343549 -0.003992228034562706 0.01571156681464629 0.0162565623371503 
0.005514014731860871 0.01397181087153858 -0.01711236860896858 -0.0002480538090054659 0.001683464624028463 0.00306628585136276 0.01113413575002781 0.01107832260027804 -0.01679450575657339 -0.004961902904492354 
0.00780457961893756 -0.01495263795543937 0.009717666290350556 0.005597920926500618 0.01753811071055753 -0.002665293258472111 0.003843452677573463 0.00042535298286397 0.009360073645072079 0.01502840423529994 
0.007306684065906694 -0.006717161458127491 0.003901099816562217 0.005623106855421378 0.01870986772116665 0.002478397579027305 -0.0108837229941549 -0.004209969042480407 -0.01185896014925417 -0.006294844621336422 
0.005220218413503078 0.001369243275466839 -0.008498729947226173 0.0004573264301959673 0.0017891953664768 0.005338961265756986 -0.01236009721387762 -0.007046021027746351 -0.009108333622728691 -0.01360903717326793 
0.01218722657475036 -0.01004530636625295 -0.003692812090790474 0.005477007845074662 0.0271683197249413 2.506819548275323e-05 -0.01568463325571833 -0.005172392221933153 -0.01430283989420464 -0.003129389561880899 
0.004586372565287039 0.00520586225946263 -0.00659257898727009 0.005702257677970063 0.005223574391773267 0.005012313438883484 -0.01251363413416523 -0.005174158638362802 -0.008273827661436844 -0.01198417263169139 
0.01927450440316974 -0.02702268263306742 -0.004836040617108225 0.00051792646702966 0.03390441018587182 -0.001930357741926069 -0.02316214872462603 -0.01235316146779678 -0.02427482853784204 -0.003081330463914874 
0 0 0 0 0 0 0 0 0 0 
0.01218722657475036 -0.01004530636625295 -0.003692812090790474 0.005477007845074662 0.0271683197249413 2.506819548275323e-05 -0.01568463325571833 -0.005172392221933153 -0.01430283989420464 -0.003129389561880899 
-0.004586372565287039 -0.00520586225946263 0.00659257898727009 -0.005702257677970063 -0.005223574391773267 -0.005012313438883484 0.01251363413416523 0.005174158638362802 0.008273827661436844 0.01198417263169139 
0.007306684065906694 -0.006717161458127491 0.003901099816562217 0.005623106855421378 0.01870986772116665 0.002478397579027305 -0.0108837229941549 -0.004209969042480407 -0.01185896014925417 -0.006294844621336422 
-0.005220218413503078 -0.001369243275466839 0.008498729947226173 -0.0004573264301959673 -0.0017891953664768 -0.005338961265756986 0.01236009721387762 0.007046021027746351 0.009108333622728691 0.01360903717326793 
0.005654065213930258 -0.009004114480676732 0.005832099219483772 0.0001355651775566594 0.007918148031302247 0.00286238238622927 0.003236576077794632 0.00697097433584782 -0.01012433097824449 -0.01089112721532937 
0.005210867432545907 0.004487910412932372 -0.008267994248400223 -0.001253593331194262 -0.005864127893026914 0.006835341458945251 0.00286885902932784 -0.001075638628406987 -0.01573189968249879 -0.01299401748706996 
0.003265051216218548 -0.01220960646194622 0.006050406769124011 -0.001605420846772148 0.008704624858295295 -0.0002823009869786744 -0.003253051067020069 0.006855547473992942 -0.003028679465380108 -0.01105156490583411 
0.004419343019510321 0.00599704403413169 -0.006328144044821312 0.002616288563726473 -0.003376167874029384 0.006818234239171822 0.003334534673600314 0.003938814676154198 -0.01367737041124414 -0.01399789820887351 
0.005636551695849354 -0.02785153170103922 0.009787948467731228 -0.008010444236804621 0.009267316894869317 -0.002430014067019358 -0.008174237779260143 0.001387984945233945 -0.008998117123788271 -0.01294021790713698 
0 0 0 0 0 0 0 0 0 0 
0.003265051216218548 -0.01220960646194622 0.006050406769124011 -0.001605420846772148 0.008704624858295295 -0.0002823009869786744 -0.003253051067020069 0.006855547473992942 -0.003028679465380108 -0.01105156490583411 
-0.004419343019510321 -0.00599704403413169 0.006328144044821312 -0.002616288563726473 0.003376167874029384 -0.006818234239171822 -0.003334534673600314 -0.003938814676154198 0.01367737041124414 0.01399789820887351 
0.005654065213930258 -0.009004114480676732 0.005832099219483772 0.0001355651775566594 0.007918148031302247 0.00286238238622927 0.003236576077794632 0.00697097433584782 -0.01012433097824449 -0.01089112721532937 
-0.005210867432545907 -0.004487910412932372 0.008267994248400223 0.001253593331194262 0.005864127893026914 -0.006835341458945251 -0.00286885902932784 0.001075638628406987 0.01573189968249879 0.01299401748706996 
0.008809601726823104 -0.004940244780268973 -0.008832658913521542 0.002440384185023598 0.005832383878856173 0.006666312570741412 0.010869487693716 0.01095154531649732 -0.008369521409078207 -0.00798875947328513 
-0.001603049064228298 0.004525170177243992 -0.01155153008521214 -0.003633676414783582 -0.0156708750145751 0.006862873588603188 -0.01103299094976839 0.0001019049959062811 -0.0009160978241868673 -0.01498422053849957 
0.007250871069897284 -0.00684616921028162 -0.01328852536679963 0.0004608734534288735 0.004869964431266902 0.004815678023086471 0.01728275777245804 0.01342292197424199 -0.008547712148091484 -0.003767013448078277 
0.0005585800450373906 0.008570165215617138 -0.01430443816362457 0.001330304255217693 -0.01137104637375447 0.008676060608237904 -0.00437719569436845 0.006803438011537826 -0.002223774704058011 -0.01502466602329388 
0.008390778893611206 -0.02204184405783418 -0.01354060510266144 -0.006651299577349034 0.001964012210333227 0.003212623624227452 0.0158303473498235 0.009476947129896907 -0.01498011322495676 -0.003716548985450578 
0 0 0 0 0 0 0 0 0 0 
0.007250871069897284 -0.00684616921028162 -0.01328852536679963 0.0004608734534288735 0.004869964431266902 0.004815678023086471 0.01728275777245804 0.01342292197424199 -0.008547712148091484 -0.003767013448078277 
-0.0005585800450373906 -0.008570165215617138 0.01430443816362457 -0.001330304255217693 0.01137104637375447 -0.008676060608237904 0.00437719569436845 -0.006803438011537826 0.002223774704058011 0.01502466602329388 
0.008809601726823104 -0.004940244780268973 -0.008832658913521542 0.002440384185023598 0.005832383878856173 0.006666312570741412 0.010869487693716 0.01095154531649732 -0.008369521409078207 -0.00798875947328513 
0.001603049064228298 -0.004525170177243992 0.01155153008521214 0.003633676414783582 0.0156708750145751 -0.006862873588603188 0.01103299094976839 -0.0001019049959062811 0.0009160978241868673 0.01498422053849957 
-0.001980514007168695 0.005907340265875792 0.0002308510887982701 0.00352753090628011 0.01306070144160293 0.002248398445918474 -0.006583292840318007 -0.00430337036754949 -0.0109634292070511 -0.0003362614822075251 
0.004880509880876419 -0.003027412533419395 -0.002655565272716668 0.0003956813424225125 -0.006426163124060917 0.002612158167118109 -0.01046418816065144 -0.003326375485110394 -0.005769110274485226 0.003155100967604371 
0.0002867118763578324 -0.002304705118768552 -0.00392924053811522 0.001620829591693959 0.02690491163975695 0.0004248904413248299 -0.01333967308301248 -0.01098055584847358 -0.01532639883167553 0.00800739534501071 
0.002136688153024818 0.008631016360415002 -0.005186443367578148 0.004849144409423971 -0.001907988752037024 0.003735235255686737 -0.008189676692535649 -0.00129751724517615 -0.005127741608142122 0.00139885187937038 
0.005696329741325321 -0.0248557442323532 -0.002733614333145412 -0.00439254393560732 0.02921540935890049 -0.002663021276988978 -0.02718644480537846 -0.02076280309455246 -0.02658781773259475 0.01330623399922901 
0 0 0 0 0 0 0 0 0 0 
0.0002867118763578324 -0.002304705118768552 -0.00392924053811522 0.001620829591693959 0.02690491163975695 0.0004248904413248299 -0.01333967308301248 -0.01098055584847358 -0.01532639883167553 0.00800739534501071 
-0.002136688153024818 -0.008631016360415002 0.005186443367578148 -0.004849144409423971 0.001907988752037024 -0.003735235255686737 0.008189676692535649 0.00129751724517615 0.005127741608142122 -0.00139885187937038 
-0.001980514007168695 0.005907340265875792 0.0002308510887982701 0.00352753090628011 0.01306070144160293 0.002248398445918474 -0.006583292840318007 -0.00430337036754949 -0.0109634292070511 -0.0003362614822075251 
-0.004880509880876419 0.003027412533419395 0.002655565272716668 -0.0003956813424225125 0.006426163124060917 -0.002612158167118109 0.01046418816065144 0.003326375485110394 0.005769110274485226 -0.003155100967604371 
-0.005535931104021573 0.001973822411930874 -7.15468905776009e-05 -0.0005742195042161343 0.001009315628666559 0.002931529569374524 0.008157044268911407 0.004641893817503534 -0.004545366653862053 -0.003326912860021697 
0.005920296097361751 -0.0007745975639743079 -0.006351821314463742 -0.0003683943995814825 -0.01105675960286799 0.004156636442784236 0.002026964711152866 0.002602092915173315 -0.01065912218612339 0.004021641221617117 
-0.0115952137948272 -0.008520497496066695 0.007042095425854418 -0.004324207900140549 0.005930066788250598 0.0002412996525427437 0.00148950621520715 -0.001628325389299034 0.0003692671866359488 -0.0005376387731714961 
0.001697866197120792 0.008519587998765048 -0.009286671150675486 0.002839606270056465 -0.01080644837028167 0.005559138897148265 0.009020060439197666 0.008452302954174738 -0.007309248556149005 -0.0001019413266842454 
-0.01097348304686806 -0.03152151149825898 0.01479456536432252 -0.01164443730091953 0.004321279803831345 -0.00307127001145364 -0.0113840220188222 -0.01210095784216626 -0.006659478351415201 0.002251566079215544 
0 0 0 0 0 0 0 0 0 0 
-0.0115952137948272 -0.008520497496066695 0.007042095425854418 -0.004324207900140549 0.005930066788250598 0.0002412996525427437 0.00148950621520715 -0.001628325389299034 0.0003692671866359488 -0.0005376387731714961 
-0.001697866197120792 -0.008519587998765048 0.009286671150675486 -0.002839606270056465 0.01080644837028167 -0.005559138897148265 -0.009020060439197666 -0.008452302954174738 0.007309248556149005 0.0001019413266842454 
-0.005535931104021573 0.001973822411930874 -7.15468905776009e-05 -0.0005742195042161343 0.001009315628666559 0.002931529569374524 0.008157044268911407 0.004641893817503534 -0.004545366653862053 -0.003326912860021697 
-0.005920296097361751 0.0007745975639743079 0.006351821314463742 0.0003683943995814825 0.01105675960286799 -0.004156636442784236 -0.002026964711152866 -0.002602092915173315 0.01065912218612339 -0.004021641221617117 
-0.002100064802449687 0.005736089089791638 -0.01451803381936883 0.001936361112671427 0.003428993966629325 0.005342298530654831 0.015967677422119 0.006971261926123994 -0.004160510546280275 -2.709893491220317e-05 
-0.0007092236573540905 -0.004662568117483812 -0.005172814872580397 -0.002237083143578786 -0.0205999917346214 0.004447283079237248 -0.009501758853092443 0.002438687367638293 0.001344928623716738 -7.469899661115211e-05 
-0.007110284296247871 -0.002910424028425726 -0.01801050335270285 -0.002035793089287322 0.0084734410027941 0.00420762561709732 0.02500238669206835 0.005301232346609997 -0.005060357673496076 0.00157713496672171 
-0.001018761293272544 0.007232127911694251 -0.01377998439832324 0.002010347191138452 -0.01643051404220718 0.006403308430433138 0.005721449397633328 0.00772200653870034 0.001325530944104004 -0.0007061067149527657 
-0.008486973117383794 -0.02634415780188508 -0.01550489907878325 -0.009933578086629979 0.00471122602096482 0.001963000672718238 0.01421990291507958 -0.000697081146440351 -0.01223496534091 0.001392252024022223 
0 0 0 0 0 0 0 0 0 0 
-0.007110284296247871 -0.002910424028425726 -0.01801050335270285 -0.002035793089287322 0.0084734410027941 0.00420762561709732 0.02500238669206835 0.005301232346609997 -0.005060357673496076 0.00157713496672171 
0.001018761293272544 -0.007232127911694251 0.01377998439832324 -0.002010347191138452 0.01643051404220718 -0.006403308430433138 -0.005721449397633328 -0.00772200653870034 -0.001325530944104004 0.0007061067149527657 
-0.002100064802449687 0.005736089089791638 -0.01451803381936883 0.001936361112671427 0.003428993966629325 0.005342298530654831 0.015967677422119 0.006971261926123994 -0.004160510546280275 -2.709893491220317e-05 
0.0007092236573540905 0.004662568117483812 0.005172814872580397 0.002237083143578786 0.0205999917346214 -0.004447283079237248 0.009501758853092443 -0.002438687367638293 -0.001344928623716738 7.469899661115211e-05 
-0.001628994498646168 0.0116315234051523 0.003905673651414403 0.007284579652721027 0.01212244269066819 -0.0007532629844046988 -0.01311433918694126 -0.003505450716450981 -0.008194563024217257 0.0009142214026475474 
0.008726702967259027 0.003801643304119191 0.001677759432610649 0.003752204840012253 0.00160385654280311 0.001642576924720541 -0.007594761472192299 -0.004322826710427331 -0.0119501189560416 0.0002676542046143279 
-0.0009151969559627948 0.006761718978717986 -0.001479086282758074 0.006195306534869176 0.009835363965840224 -0.001264572938782659 -0.02331008436342892 -0.009418465724383642 -0.0091813175869455 0.01286279719447102 
0.006074615622860472 0.01699095766167171 0.001511627586035565 0.008451676936083806 0.008047291865678303 0.002417286383318983 -0.007395685098559311 -0.001732296700885851 -0.008338344827762639 -0.001197650872231177 
0.004037956035571979 -0.01427201252053026 -0.001928624771881028 0.00157961116196188 0.001957523829145342 -0.003772644284378665 -0.04023016999690055 -0.01923759307701169 -0.01966266421596165 0.02029611128107045 
0 0 0 0 0 0 0 0 0 0 
-0.0009151969559627948 0.006761718978717986 -0.001479086282758074 0.006195306534869176 0.009835363965840224 -0.001264572938782659 -0.02331008436342892 -0.009418465724383642 -0.0091813175869455 0.01286279719447102 
-0.006074615622860472 -0.01699095766167171 -0.001511627586035565 -0.008451676936083806 -0.008047291865678303 -0.002417286383318983 0.007395685098559311 0.001732296700885851 0.008338344827762639 0.001197650872231177 
-0.001628994498646168 0.0116315234051523 0.003905673651414403 0.007284579652721027 0.01212244269066819 -0.0007532629844046988 -0.01311433918694126 -0.003505450716450981 -0.008194563024217257 0.0009142214026475474 
-0.008726702967259027 -0.003801643304119191 -0.001677759432610649 -0.003752204840012253 -0.00160385654280311 -0.001642576924720541 0.007594761472192299 0.004322826710427331 0.0119501189560416 -0.0002676542046143279 
-0.008051895743699283 0.0059020332802469 0.008238615174074315 0.003209966945850413 0.001031950443032678 0.0008222403061316295 0.005305456144343257 0.004210805653344438 -0.005253311920777015 -0.001725132675189388 
0.008877559518077744 0.003861948784648367 0.004287758237417897 0.002404917266252265 -0.003142903110937866 0.002313012931300519 0.0005811457841442417 0.002848383890039133 -0.012458707958952 0.0008923142270679592 
-0.01468776289348605 -0.0006309737918146101 0.01041434543801709 0.000550044125064509 -0.01162944635892686 -0.0002970978393040117 -0.001760041189709559 -0.002864314207077211 -0.001255428397731436 0.003196954534671196 
0.003587273764296125 0.01488012331315754 0.00277052016583967 0.00608063227254235 -0.001912897541672701 0.004034267726156525 0.01008997496932205 0.008168685168464352 -0.008279456446827269 -0.00177283400235274 
-0.01398419185577051 -0.02218068249519267 0.01748575536839544 -0.005366059561209647 -0.02300799206040889 -0.00313710686673325 -0.01867659541238615 -0.0143493444707464 -0.009041180922717849 0.007270034014804241 
0 0 0 0 0 0 0 0 0 0 
-0.01468776289348605 -0.0006309737918146101 0.01041434543801709 0.000550044125064509 -0.01162944635892686 -0.0002970978393040117 -0.001760041189709559 -0.002864314207077211 -0.001255428397731436 0.003196954534671196 
-0.003587273764296125 -0.01488012331315754 -0.00277052016583967 -0.00608063227254235 0.001912897541672701 -0.004034267726156525 -0.01008997496932205 -0.008168685168464352 0.008279456446827269 0.00177283400235274 
-0.008051895743699283 0.0059020332802469 0.008238615174074315 0.003209966945850413 0.001031950443032678 0.0008222403061316295 0.005305456144343257 0.004210805653344438 -0.005253311920777015 -0.001725132675189388 
-0.008877559518077744 -0.003861948784648367 -0.004287758237417897 -0.002404917266252265 0.003142903110937866 -0.002313012931300519 -0.0005811457841442417 -0.002848383890039133 0.012458707958952 -0.0008923142270679592 
-0.003107357402255973 0.01246415489010095 -0.008589844973694808 0.006161765776786597 0.004352725435969531 0.00574688248910608 0.01794660127146802 0.008384449112108531 -0.009194573126995507 -0.00349858670927841 
-0.00246154693662505 -0.0006453393046737972 0.01248569001507845 0.0002114911261088771 -0.01463826170051483 0.003722921811647495 -0.007397073742816738 0.002798934236046908 -0.0009316741677836797 -0.00321836955152086 
-0.007008505158164247 0.009990686222857465 -0.01699937325955958 0.003967483016079512 -0.007925895530731471 0.006564603421554063 0.02035608273350394 0.006882741732315209 -0.01162969211411588 -0.002107020019155266 
-0.002975399712985422 0.01455696779097007 0.002666208637712516 0.005311592884697311 -0.007473090743724354 0.006737449401456865 0.008767534726027863 0.008484792903584167 -0.0009766660855186917 -0.004297098040582032 
-0.007685709604309539 -0.01157374599570821 -0.01534429412007199 -0.002201162454667755 -0.02465175460510473 0.00521910263369104 0.007337788110251673 0.00107124930898855 -0.02063163793929066 -0.002549038340355631 
0 0 0 0 0 0 0 0 0 0 
-0.007008505158164247 0.009990686222857465 -0.01699937325955958 0.003967483016079512 -0.007925895530731471 0.006564603421554063 0.02035608273350394 0.006882741732315209 -0.01162969211411588 -0.002107020019155266 
0.002975399712985422 -0.01455696779097007 -0.002666208637712516 -0.005311592884697311 0.007473090743724354 -0.006737449401456865 -0.008767534726027863 -0.008484792903584167 0.0009766660855186917 0.004297098040582032 
-0.003107357402255973 0.01246415489010095 -0.008589844973694808 0.006161765776786597 0.004352725435969531 0.00574688248910608 0.01794660127146802 0.008384449112108531 -0.009194573126995507 -0.00349858670927841 
0.00246154693662505 0.0006453393046737972 -0.01248569001507845 -0.0002114911261088771 0.01463826170051483 -0.003722921811647495 0.007397073742816738 -0.002798934236046908 0.0009316741677836797 0.00321836955152086 
0.001245073759889485 0.01760114693689393 -0.0004091783948271791 0.00554001319480154 0.01098190741161167 -0.0006302334215095862 -0.01294621944744066 -0.001221897904377509 -0.002923827654117391 -0.0002312541887785091 
0.007792676436663487 0.007498707567761736 0.01249320756294782 0.002251036904332193 -0.002734069273457667 0.0002592839492143023 -0.00709703617513466 0.001075159744033008 -0.0114151017206817 -0.000933467600582776 
0.002625447464716791 0.01179230516895481 -0.009092466041018026 0.003589972897368253 0.01276003584587066 0.0007625844992839271 -0.0232320368786842 -0.00677855641959467 -0.003875789217580874 0.01272168120114458 
0.007149253476391676 0.023943344367813 0.006944270042585424 0.006927864838087658 0.003855901847604631 0.0006094590662322816 -0.004655606599136611 0.003722485384435567 -0.004766710052352745 -0.001222524901702177 
0.006692801410177525 -0.009970005585846538 -0.009299999771216039 -0.00235709616166218 0.006401408317009818 -7.704472084065283e-06 -0.04228186847251593 -0.01538578809186593 -0.01579075131771883 0.02021303534623552 
0 0 0 0 0 0 0 0 0 0 
0.002625447464716791 0.01179230516895481 -0.009092466041018026 0.003589972897368253 0.01276003584587066 0.0007625844992839271 -0.0232320368786842 -0.00677855641959467 -0.003875789217580874 0.01272168120114458 
-0.007149253476391676 -0.023943344367813 -0.006944270042585424 -0.006927864838087658 -0.003855901847604631 -0.0006094590662322816 0.004655606599136611 -0.003722485384435567 0.004766710052352745 0.001222524901702177 
0.001245073759889485 0.01760114693689393 -0.0004091783948271791 0.00554001319480154 0.01098190741161167 -0.0006302334215095862 -0.01294621944744066 -0.001221897904377509 -0.002923827654117391 -0.0002312541887785091 
-0.007792676436663487 -0.007498707567761736 -0.01249320756294782 -0.002251036904332193 0.002734069273457667 -0.0002592839492143023 0.00709703617513466 -0.001075159744033008 0.0114151017206817 0.000933467600582776 
-0.004094781905717874 0.0103612802741606 0.00819900857951524 0.001642349672082662 -2.286006236305522e-05 -0.0008189654591227043 0.009215482001954191 0.006295672319795382 -0.002029430621793553 -0.004387380310431019 
0.0102911997247899 0.007999439354187119 0.01701305480679536 0.002214762091858601 -0.008301370783796469 0.001674393348345167 -0.000552719420735202 0.007477336981484023 -0.009525541680308901 -0.002087616682102841 
-0.009477591746229117 0.003457851744018815 0.00791221058832074 -0.002190780669785634 -0.004619548076192234 -0.001332525821001882 0.001119004304738624 -0.0008298949923949963 -0.0001565860085514174 0.002516228204801245 
0.006760575924021703 0.02146982889287964 0.0116145764345964 0.00548822643910695 -0.006157523574722356 0.002316918546350204 0.01157522408816704 0.01308309878974274 -0.004179167853485365 -0.00449846731474775 
-0.008608851074273713 -0.01900691060950719 0.0153967192217933 -0.009291029935028942 -0.01347173675318933 -0.002965281594907918 -0.01701371980281285 -0.01124620992153771 -0.01038860529453566 0.006770667634647916 
0 0 0 0 0 0 0 0 0 0 
-0.009477591746229117 0.003457851744018815 0.00791221058832074 -0.002190780669785634 -0.004619548076192234 -0.001332525821001882 0.001119004304738624 -0.0008298949923949963 -0.0001565860085514174 0.002516228204801245 
-0.006760575924021703 -0.02146982889287964 -0.0116145764345964 -0.00548822643910695 0.006157523574722356 -0.002316918546350204 -0.01157522408816704 -0.01308309878974274 0.004179167853485365 0.00449846731474775 
-0.004094781905717874 0.0103612802741606 0.00819900857951524 0.001642349672082662 -2.286006236305522e-05 -0.0008189654591227043 0.009215482001954191 0.006295672319795382 -0.002029430621793553 -0.004387380310431019 
-0.0102911997247899 -0.007999439354187119 -0.01701305480679536 -0.002214762091858601 0.008301370783796469 -0.001674393348345167 0.000552719420735202 -0.007477336981484023 0.009525541680308901 0.002087616682102841 
-0.00727780733800531 0.0193899971353692 -0.005711747536811572 0.004842765861363451 0.005192969302749605 0.003482798822703569 0.02610828327810541 0.01387946530851689 -0.008625072796620675 -0.005870271886608936 
-0.003951377327503315 0.00680742744240219 0.02261626189077726 0.0002232174444699424 -0.01734816446797987 0.00420765302513109 -0.006040170777268193 0.008076708578228758 -0.002603338211964569 -0.005083475381946099 
-0.01211486307656452 0.01522371597491982 -0.01602052875771744 0.001266284606685681 -0.001258993292877447 0.005008621845704047 0.03026093564177017 0.0136056745357991 -0.01123653155271816 -0.002119375676009005 
-0.006190980603832369 0.02344014001272464 0.01146230802898954 0.004940905093832932 -0.008933844638318495 0.00585618064286469 0.01392695035533197 0.01418111415855398 -0.0009234786976059057 -0.005851462358100109 
-0.01373305506657314 -0.005754373548611684 -0.01383929267570318 -0.006113913261719174 -0.01540536030855972 0.004982727806922968 0.01693144016899702 0.009956963931134865 -0.02226275517001541 -0.001899824542444706 
0 0 0 0 0 0 0 0 0 0 
-0.01211486307656452 0.01522371597491982 -0.01602052875771744 0.001266284606685681 -0.001258993292877447 0.005008621845704047 0.03026093564177017 0.0136056745357991 -0.01123653155271816 -0.002119375676009005 
0.006190980603832369 -0.02344014001272464 -0.01146230802898954 -0.004940905093832932 0.008933844638318495 -0.00585618064286469 -0.01392695035533197 -0.01418111415855398 0.0009234786976059057 0.005851462358100109 
-0.00727780733800531 0.0193899971353692 -0.005711747536811572 0.004842765861363451 0.005192969302749605 0.003482798822703569 0.02610828327810541 0.01387946530851689 -0.008625072796620675 -0.005870271886608936 
0.003951377327503315 -0.00680742744240219 -0.02261626189077726 -0.0002232174444699424 0.01734816446797987 -0.00420765302513109 0.006040170777268193 -0.008076708578228758 0.002603338211964569 0.005083475381946099 
0.006284286303095962 0.008258986811999934 -0.002472788958657583 0.006036514578978531 0.01197284652669136 0.004132975019914545 -0.01153565758521132 -0.004822582444006746 -0.00682971984296578 -0.005851040388133932 
0.008073984935824348 -0.00638178664169766 0.01515947099996618 0.002227367105977967 0.0008182801875237302 -0.005931029953271595 -0.01310267539648055 -0.001056223644722261 -0.01730978519955971 0.008233643553938094 
0.002619998686343843 0.01041935863617358 -0.02099786690577201 0.006714610466615828 0.006874559912643923 0.0128221740424277 -0.01567434441556148 -0.008013805972400636 -0.0005987519310936227 -0.008559295955870353 
0.009165595053186735 0.005732440388582937 0.01451167387406746 0.007539226520573507 0.009293089579360191 -0.003695789396501671 -0.01263742677926693 -0.0006934960052889201 -0.01225306055883822 0.004716630154875365 
0.003402618154590157 -0.00695951180704571 -0.03318709650268289 0.002067959783990734 -0.004360580612729017 0.01564073060926837 -0.02675623280203015 -0.01508957355786178 -0.008474116639494383 -0.007882677280417905 
0 0 0 0 0 0 0 0 0 0 
0.002619998686343843 0.01041935863617358 -0.02099786690577201 0.006714610466615828 0.006874559912643923 0.0128221740424277 -0.01567434441556148 -0.008013805972400636 -0.0005987519310936227 -0.008559295955870353 
-0.009165595053186735 -0.005732440388582937 -0.01451167387406746 -0.007539226520573507 -0.009293089579360191 0.003695789396501671 0.01263742677926693 0.0006934960052889201 0.01225306055883822 -0.004716630154875365 
0.006284286303095962 0.008258986811999934 -0.002472788958657583 0.006036514578978531 0.01197284652669136 0.004132975019914545 -0.01153565758521132 -0.004822582444006746 -0.00682971984296578 -0.005851040388133932 
-0.008073984935824348 0.00638178664169766 -0.01515947099996618 -0.002227367105977967 -0.0008182801875237302 0.005931029953271595 0.01310267539648055 0.001056223644722261 0.01730978519955971 -0.008233643553938094 
0.002561559579068875 0.00283933781809981 0.008245181802107388 0.004251661285914975 0.0005358382769371939 -0.0009802533928783164 0.005575709905027522 0.005506659367940936 -3.203143731178796e-05 -0.01528613115458733 
0.004590313968091704 -0.00477961845553724 0.01424800325183118 0.00358246969560077 -0.006797107800735701 -0.002782421243048322 -0.004148850084496445 0.007015337603234744 -0.01697829183716386 0.009781428112095984 
-0.004522399074810514 0.002841728532285656 0.003561945808387635 0.002079653124850474 -0.009969459627974745 0.003281736483887238 0.005585110236493663 0.0003283798947100938 0.009975041212252815 -0.02588704665699458 
0.005302368407854679 0.005286703341063253 0.01655215220963303 0.007893497865522988 -0.002095122980658331 -0.00234036353614379 0.002755030155555995 0.01023046249073619 -0.009678554010883028 0.0008626333837766376 
-0.006932524631904208 -0.01572941165626115 0.0005128250251417703 -0.003841018132087317 -0.0242288412252674 0.004138060105463748 -0.003639076023978427 -0.006467882945241503 0.004263924791426054 -0.02937635973418772 
0 0 0 0 0 0 0 0 0 0 
-0.004522399074810514 0.002841728532285656 0.003561945808387635 0.002079653124850474 -0.009969459627974745 0.003281736483887238 0.005585110236493663 0.0003283798947100938 0.009975041212252815 -0.02588704665699458 
-0.005302368407854679 -0.005286703341063253 -0.01655215220963303 -0.007893497865522988 0.002095122980658331 0.00234036353614379 -0.002755030155555995 -0.01023046249073619 0.009678554010883028 -0.0008626333837766376 
0.002561559579068875 0.00283933781809981 0.008245181802107388 0.004251661285914975 0.0005358382769371939 -0.0009802533928783164 0.005575709905027522 0.005506659367940936 -3.203143731178796e-05 -0.01528613115458733 
-0.004590313968091704 0.00477961845553724 -0.01424800325183118 -0.00358246969560077 0.006797107800735701 0.002782421243048322 0.004148850084496445 -0.007015337603234744 0.01697829183716386 -0.009781428112095984 
0.006285143650109632 0.01021033599190711 -0.00999877533781633 0.006829558569280502 0.004941128665004161 0.0005280207443692963 0.02089918390633739 0.01265007631929847 -0.008310400144867268 -0.01643516671600185 
-0.004020464551725308 -0.002961863168639059 0.008953252786362682 0.001759270407302737 -0.01525506991609746 0.002546902184561066 -0.007078998290760066 0.008169195425052319 -0.004837261801550534 0.003598409668520432 
0.002145429347003921 0.00923393638525684 -0.02306917959915504 0.004889375018411844 -0.006219427362294368 0.004167037245161655 0.03110155659219808 0.01164702647853942 -0.008770771318348931 -0.02280770581923403 
-7.930661847535173e-05 0.009950980145469947 0.005889373532749824 0.007301850640145151 -0.00674959407789148 0.002035290424557288 0.007415055743388153 0.01375133354071545 -0.003071643877668199 -0.005031697611444379 
-0.0005786167422707815 -0.01020859550997842 -0.03075414141076875 -0.001332861560294304 -0.02281954360206217 0.006000294740859677 0.02558467403267729 0.00757878501495261 -0.01794203809618129 -0.02565558335093654 
0 0 0 0 0 0 0 0 0 0 
0.002145429347003921 0.00923393638525684 -0.02306917959915504 0.004889375018411844 -0.006219427362294368 0.004167037245161655 0.03110155659219808 0.01164702647853942 -0.008770771318348931 -0.02280770581923403 
7.930661847535173e-05 -0.009950980145469947 -0.005889373532749824 -0.007301850640145151 0.00674959407789148 -0.002035290424557288 -0.007415055743388153 -0.01375133354071545 0.003071643877668199 0.005031697611444379 
0.006285143650109632 0.01021033599190711 -0.00999877533781633 0.006829558569280502 0.004941128665004161 0.0005280207443692963 0.02089918390633739 0.01265007631929847 -0.008310400144867268 -0.01643516671600185 
0.004020464551725308 0.002961863168639059 -0.008953252786362682 -0.001759270407302737 0.01525506991609746 -0.002546902184561066 0.007078998290760066 -0.008169195425052319 0.004837261801550534 -0.003598409668520432 
0.01039681694518864 0.0006227477976253488 0.006187405001863596 0.006949693902182451 0.008913033534364179 -0.00227119723023317 -0.02133642032765387 -2.570302073690679e-05 0.0001967603543981531 0.003472314429501636 
0.007674036127669286 -0.001582007341403414 0.004696830771727159 0.002696592019962638 -0.0009061312886901676 -0.004709547755182037 -0.00575038381649152 -0.004030341150200839 -0.01713124069854267 -0.003452799765937442 
0.01019690616983009 -0.001687740702051011 -0.01390653521453602 0.007197387100923242 0.01155736825883914 0.001414533126628965 -0.03275851615980402 -0.003244057014696715 0.007591807276166402 0.01314108847766223 
0.01019777424111009 0.005682146875167756 0.01060516617313859 0.008415422728803941 0.002264015721442044 -0.005901370647859743 -0.01407013430612516 -0.000604160191820152 -0.01018066140700549 -0.004885435066731419 
0.01309882519851076 -0.01640593751915369 -0.02977773381265587 0.002437741610395988 0.01192352103513249 0.002461820170401247 -0.03985266942517572 -0.01099724914988148 0.0013965000486703 0.02278388286302999 
0 0 0 0 0 0 0 0 0 0 
0.01019690616983009 -0.001687740702051011 -0.01390653521453602 0.007197387100923242 0.01155736825883914 0.001414533126628965 -0.03275851615980402 -0.003244057014696715 0.007591807276166402 0.01314108847766223 
-0.01019777424111009 -0.005682146875167756 -0.01060516617313859 -0.008415422728803941 -0.002264015721442044 0.005901370647859743 0.01407013430612516 0.000604160191820152 0.01018066140700549 0.004885435066731419 
0.01039681694518864 0.0006227477976253488 0.006187405001863596 0.006949693902182451 0.008913033534364179 -0.00227119723023317 -0.02133642032765387 -2.570302073690679e-05 0.0001967603543981531 0.003472314429501636 
-0.007674036127669286 0.001582007341403414 -0.004696830771727159 -0.002696592019962638 0.0009061312886901676 0.004709547755182037 0.00575038381649152 0.004030341150200839 0.01713124069854267 0.003452799765937442 
0.009485329364397707 0.001523290819390503 0.009427525626807955 0.002959334578065802 -0.002366214735605754 -0.004991160380486684 -0.0005007077012552688 0.01122726306171785 0.006745897786120216 -0.005595373998426562 
0.007168050694700276 0.003881117525389906 0.002182091077452073 0.002702928074683102 -0.006481027119101304 -0.001457486950261791 0.0001382222422512858 0.003680018002901303 -0.01730632437989839 0.0003323031358526101 
0.004198525020636476 -0.001686125057772078 -9.941545108512342e-05 0.001747278120364483 -0.008057182824817767 -0.004750610456640107 -0.002561063578554637 0.008103426458518874 0.01997627079215532 -0.005821911556543608 
0.009199901233378332 0.01072537108340773 0.009381106262740819 0.007065860806941234 -0.007653498849319678 -0.004099217498248691 -0.002185704849509406 0.01115671487745729 -0.008174953199853728 -0.007198171313876588 
0.003725155369003197 -0.01592647001408894 -0.009767770924707623 -0.003886332779095702 -0.01026455188162046 -0.004869359372235191 -0.002039153854629969 -0.0007678352150398974 0.01699146547944093 0.0003477683451677013 
0 0 0 0 0 0 0 0 0 0 
0.004198525020636476 -0.001686125057772078 -9.941545108512342e-05 0.001747278120364483 -0.008057182824817767 -0.004750610456640107 -0.002561063578554637 0.008103426458518874 0.01997627079215532 -0.005821911556543608 
-0.009199901233378332 -0.01072537108340773 -0.009381106262740819 -0.007065860806941234 0.007653498849319678 0.004099217498248691 0.002185704849509406 -0.01115671487745729 0.008174953199853728 0.007198171313876588 
0.009485329364397707 0.001523290819390503 0.009427525626807955 0.002959334578065802 -0.002366214735605754 -0.004991160380486684 -0.0005007077012552688 0.01122726306171785 0.006745897786120216 -0.005595373998426562 
-0.007168050694700276 -0.003881117525389906 -0.002182091077452073 -0.002702928074683102 0.006481027119101304 0.001457486950261791 -0.0001382222422512858 -0.003680018002901303 0.01730632437989839 -0.0003323031358526101 
0.01333185702452272 0.005601374393834221 -0.01791756543120725 0.004774097364495221 -0.0003696083312109533 -0.002816796770854901 0.0196907019354965 0.01816351582735317 0.0007114589790712972 -0.00471657960987042 
0.0002133045211700276 0.007948844586693062 -0.000982012442970475 0.001189868986825395 -0.0168102412649032 0.0006755243388207191 -0.00888676614713569 0.006825590635529804 -0.005997724231286407 -0.008356246575756303 
0.01069126122693038 -0.0009116439103981424 -0.03921087901903175 0.002806083043759565 -0.008979295658148456 -0.002003974302013703 0.03258682851202509 0.0211312120083996 0.004604844617867837 0.0007680828208881336 
0.005562143486137463 0.01569988129951736 -0.003865298015181992 0.006421993781766969 -0.01447767747603653 -0.001424522054117203 0.0004212319783511775 0.01451403461166004 -0.0009266697244269675 -0.01282594018347991 
0.01009671646255313 -0.01700121980485517 -0.05450687507247069 -0.00358511896522942 -0.01410651849419549 -0.001444790503588344 0.0333374326232953 0.01902616702474763 -0.001273284672898464 0.006682200222273239 
0 0 0 0 0 0 0 0 0 0 
0.01069126122693038 -0.0009116439103981424 -0.03921087901903175 0.002806083043759565 -0.008979295658148456 -0.002003974302013703 0.03258682851202509 0.0211312120083996 0.004604844617867837 0.0007680828208881336 
-0.005562143486137463 -0.01569988129951736 0.003865298015181992 -0.006421993781766969 0.01447767747603653 0.001424522054117203 -0.0004212319783511775 -0.01451403461166004 0.0009266697244269675 0.01282594018347991 
0.01333185702452272 0.005601374393834221 -0.01791756543120725 0.004774097364495221 -0.0003696083312109533 -0.002816796770854901 0.0196907019354965 0.01816351582735317 0.0007114589790712972 -0.00471657960987042 
-0.0002133045211700276 -0.007948844586693062 0.000982012442970475 -0.001189868986825395 0.0168102412649032 -0.0006755243388207191 0.00888676614713569 -0.006825590635529804 0.005997724231286407 0.008356246575756303 
0.00221113146092868 0.004562074170266235 -0.002930856799463111 0.002611137902506424 0.01127286842414612 0.006145208418550059 -0.0147665722900414 0.002415562508500545 -0.01526355426054242 0.01392626948738894 
0.000468782293999468 0.005468763033214918 -0.009120140883089456 -0.001361967079163877 -0.0001335784763455401 0.002491683617049262 -0.0090582182852923 -0.007209763791318676 -0.01733732738298498 -0.005415533400001261 
0.001658395258325287 0.001477623320279491 -0.01856840955507299 0.00653082252846064 0.01841720984627636 0.007013472327608131 -0.02194179803919259 0.002732255834693841 -0.009705564171584727 0.02685126765815822 
-0.002720881297005769 0.01611467743587896 0.001524414609632679 0.001111809911478452 0.001362964630567363 0.002537728676267539 -0.01296634160963894 -0.003191485346697771 -0.01817581263085412 -0.00717373995477521 
0.007674950529058046 -0.0158467704780738 -0.04786541383826293 0.00478218132435782 0.02414437803381005 0.009657028214357781 -0.02528781114988527 -0.002562131178809835 -0.01447624429194116 0.0452482567211961 
0 0 0 0 0 0 0 0 0 0 
0.001658395258325287 0.001477623320279491 -0.01856840955507299 0.00653082252846064 0.01841720984627636 0.007013472327608131 -0.02194179803919259 0.002732255834693841 -0.009705564171584727 0.02685126765815822 
0.002720881297005769 -0.01611467743587896 -0.001524414609632679 -0.001111809911478452 -0.001362964630567363 -0.002537728676267539 0.01296634160963894 0.003191485346697771 0.01817581263085412 0.00717373995477521 
0.00221113146092868 0.004562074170266235 -0.002930856799463111 0.002611137902506424 0.01127286842414612 0.006145208418550059 -0.0147665722900414 0.002415562508500545 -0.01526355426054242 0.01392626948738894 
-0.000468782293999468 -0.005468763033214918 0.009120140883089456 0.001361967079163877 0.0001335784763455401 -0.002491683617049262 0.0090582182852923 0.007209763791318676 0.01733732738298498 0.005415533400001261 
-0.002706234169587372 0.005220394080067048 0.005662104209860126 -0.003294956221869171 -0.0004544581477359739 0.006454504945446384 0.004718566347039751 0.01466993071792574 -0.01452372206545752 0.001030994240306455 
-0.001156026233682519 0.009407557405776274 -0.005008719246272842 -0.0003492654528409484 -0.006244091468435285 0.005118171563224404 -0.003486324270861114 0.0007469012817592277 -0.02089689663131535 -0.00261769791280262 
-0.009953080580029132 0.002918925156667236 -5.48283546179222e-05 -0.002257432577383399 -0.001752185913075705 0.004933172699628381 0.005219755986785994 0.01616802098878427 -0.001504421401395727 0.003766468927209866 
-0.005761524914127011 0.01974549862799199 0.006084404277932202 -2.945662548813513e-05 -0.009021502544991162 0.005728161733893034 -0.001301651698497989 0.008925417453784747 -0.0213395079123108 -0.01339310263676733 
-0.008205552691872234 -0.01179554177935195 -0.02173694861026918 -0.005460303218160924 0.0008859151811940287 0.006397986068100728 0.00761727312810313 0.01053447528021904 -0.002998343102951142 0.0197041908341095 
0 0 0 0 0 0 0 0 0 0 
-0.009953080580029132 0.002918925156667236 -5.48283546179222e-05 -0.002257432577383399 -0.001752185913075705 0.004933172699628381 0.005219755986785994 0.01616802098878427 -0.001504421401395727 0.003766468927209866 
0.005761524914127011 -0.01974549862799199 -0.006084404277932202 2.945662548813513e-05 0.009021502544991162 -0.005728161733893034 0.001301651698497989 -0.008925417453784747 0.0213395079123108 0.01339310263676733 
-0.002706234169587372 0.005220394080067048 0.005662104209860126 -0.003294956221869171 -0.0004544581477359739 0.006454504945446384 0.004718566347039751 0.01466993071792574 -0.01452372206545752 0.001030994240306455 
0.001156026233682519 -0.009407557405776274 0.005008719246272842 0.0003492654528409484 0.006244091468435285 -0.005118171563224404 0.003486324270861114 -0.0007469012817592277 0.02089689663131535 0.00261769791280262 
-0.007419120206024207 0.006182885230646375 -0.01618703279378437 -0.003334223372027549 0.001335679663892768 0.009147681112390997 0.01862494968593134 0.02271968227933156 -0.01906662439441999 -0.002758358101375737 
-0.008737974216153613 0.01073260805045907 -0.01668497165512787 -0.004199985500737208 -0.01804046806010367 0.006369202236665 -0.0136798109183125 0.0061925378085503 -0.006687410374968224 -0.01286738080361628 
-0.0125266426434304 0.00262234542522022 -0.03322659780845812 -0.001255866683145399 -0.001236592401318827 0.009641872517649813 0.02845050545845779 0.03040639979586353 -0.01884490244867376 0.004764552494465572 
-0.01201498440353529 0.02231737013531507 -0.009208062843115662 -0.002410156163712172 -0.01657065320371301 0.007192046529514499 -0.003908720376115186 0.01441902702684347 -0.01160027716509507 -0.0206871158007396 
-0.01261047638771509 -0.01526908685185126 -0.06400686612336756 -0.005587927969825518 -0.003957176751966134 0.0127636630950811 0.03238799787952977 0.03213235388089355 -0.02490291530131083 0.01841388929239781 
0 0 0 0 0 0 0 0 0 0 
-0.0125266426434304 0.00262234542522022 -0.03322659780845812 -0.001255866683145399 -0.001236592401318827 0.009641872517649813 0.02845050545845779 0.03040639979586353 -0.01884490244867376 0.004764552494465572 
0.01201498440353529 -0.02231737013531507 0.009208062843115662 0.002410156163712172 0.01657065320371301 -0.007192046529514499 0.003908720376115186 -0.01441902702684347 0.01160027716509507 0.0206871158007396 
-0.007419120206024207 0.006182885230646375 -0.01618703279378437 -0.003334223372027549 0.001335679663892768 0.009147681112390997 0.01862494968593134 0.02271968227933156 -0.01906662439441999 -0.002758358101375737 
0.008737974216153613 -0.01073260805045907 0.01668497165512787 0.004199985500737208 0.01804046806010367 -0.006369202236665 0.0136798109183125 -0.0061925378085503 0.006687410374968224 0.01286738080361628 
0.005262884577669906 0.000773892687941733 0.004298216817424112 0.003164966850554086 0.01443720984011263 -0.004013109123988264 -0.01209390988391021 -0.0007736280428159723 -0.002176318023321677 -0.004917039367753104 
0.006994204263185839 0.01237878578884384 -0.01658226526994034 -0.006760086902749711 -0.001245419943372473 -0.001656507306088298 -0.01014376162408082 -0.00535705778233764 -0.01902139274372681 -0.01035307518492278 
0.005232597139665002 -0.005064149663873732 0.008778460070435774 0.00540281838435444 0.02290421566687607 -0.0005426463797453294 -0.00951868626064613 0.000939609157734317 0.009012306080866696 -0.003945757557289075 
0.006148331947782293 0.02038942968719672 -0.01655908124756213 -0.001664242480878182 0.000257739910289899 -0.004853713674110744 -0.01015708040787388 -0.002413729386400262 -0.01356040621064236 -0.009070780581193058 
0.01008201325103006 -0.02623327860123088 0.01628987243861185 0.000108276137255203 0.02929944258507158 0.001924246895934092 -0.02168324534252018 -0.004055841264407899 0.005531973960906831 -0.005097247661258173 
0 0 0 0 0 0 0 0 0 0 
0.005232597139665002 -0.005064149663873732 0.008778460070435774 0.00540281838435444 0.02290421566687607 -0.0005426463797453294 -0.00951868626064613 0.000939609157734317 0.009012306080866696 -0.003945757557289075 
-0.006148331947782293 -0.02038942968719672 0.01655908124756213 0.001664242480878182 -0.000257739910289899 0.004853713674110744 0.01015708040787388 0.002413729386400262 0.01356040621064236 0.009070780581193058 
0.005262884577669906 0.000773892687941733 0.004298216817424112 0.003164966850554086 0.01443720984011263 -0.004013109123988264 -0.01209390988391021 -0.0007736280428159723 -0.002176318023321677 -0.004917039367753104 
-0.006994204263185839 -0.01237878578884384 0.01658226526994034 0.006760086902749711 0.001245419943372473 0.001656507306088298 0.01014376162408082 0.00535705778233764 0.01902139274372681 0.01035307518492278 
0.0007589752434310561 3.814653675438055e-05 0.003256954626392123 -0.001192130716141314 0.006180572242793657 -0.003533286971170139 -0.005398571777999877 0.006934568849834111 -0.003139823202533683 -0.007813666850073748 
0.006909504127300314 0.01733964167443542 -0.01379730035305921 -0.005250809015040431 -0.007992638032592142 0.0001584366910465104 0.002152249829076212 0.0003717498624845907 -0.02481862438485569 -0.01036342732423837 
-0.00853816658608421 -0.006324298867690919 0.01071050500317768 -0.003494124992071909 0.008209568872684292 -0.001157901534713069 -0.008566420504117942 0.00867903630859968 0.01755976758934043 -0.007509561032867649 
0.004814440962240165 0.02307494980156059 -0.01661387241030594 -0.001675753251365894 -0.007943878155010237 -0.001897020294598191 0.004389817914394845 0.006209696877024594 -0.01992549562601638 -0.01273826935360067 
-0.00921248457053497 -0.02711941123985959 0.02273666316796595 -0.0112525746492826 0.011064369811154 5.335307740610772e-05 -0.02288066636300798 0.002264624585321283 0.01850915701417877 -0.006007218237861338 
0 0 0 0 0 0 0 0 0 0 
-0.00853816658608421 -0.006324298867690919 0.01071050500317768 -0.003494124992071909 0.008209568872684292 -0.001157901534713069 -0.008566420504117942 0.00867903630859968 0.01755976758934043 -0.007509561032867649 
-0.004814440962240165 -0.02307494980156059 0.01661387241030594 0.001675753251365894 0.007943878155010237 0.001897020294598191 -0.004389817914394845 -0.006209696877024594 0.01992549562601638 0.01273826935360067 
0.0007589752434310561 3.814653675438055e-05 0.003256954626392123 -0.001192130716141314 0.006180572242793657 -0.003533286971170139 -0.005398571777999877 0.006934568849834111 -0.003139823202533683 -0.007813666850073748 
-0.006909504127300314 -0.01733964167443542 0.01379730035305921 0.005250809015040431 0.007992638032592142 -0.0001584366910465104 -0.002152249829076212 -0.0003717498624845907 0.02481862438485569 0.01036342732423837 
0.00533868542175998 0.002056015565236868 -0.002344992852730346 -0.0005566436939780057 -0.003518836612442791 0.0001940362235210573 0.003052127670315955 0.007569570513986047 -0.009632787267107753 0.001943338288197887 
-0.001280928322162273 0.01357385889985501 -0.01774887038463284 -0.009566307331163886 -0.01803207557568732 0.001487083105695692 -0.009983112218883745 -0.0005598114748387284 -0.01082115707397917 -0.006156344972730486 
0.0005857719116877188 -0.0003454111028310779 0.00436794889483692 -0.001865246099477527 -0.004841857750001691 0.003289698502974552 0.005968867178481611 0.01267987514593887 -0.0002514221430036187 0.003890406059949207 
0.0004996000333034663 0.02080671075762426 -0.02167088570146813 -0.004656499759362849 -0.01765372803009461 0.0004527054991331113 0.001525198373233176 0.004387689927791226 -0.01082975405320758 -0.004915682978599105 
0.0008674927098010711 -0.01949191089896001 0.0144602674301085 -0.01013760907211638 -0.007918316087317393 0.005140308625255333 -0.01105446908697555 0.01062782096265537 -0.003379182630314568 0.004962843087694862 
0 0 0 0 0 0 0 0 0 0 
0.0005857719116877188 -0.0003454111028310779 0.00436794889483692 -0.001865246099477527 -0.004841857750001691 0.003289698502974552 0.005968867178481611 0.01267987514593887 -0.0002514221430036187 0.003890406059949207 
-0.0004996000333034663 -0.02080671075762426 0.02167088570146813 0.004656499759362849 0.01765372803009461 -0.0004527054991331113 -0.001525198373233176 -0.004387689927791226 0.01082975405320758 0.004915682978599105 
0.00533868542175998 0.002056015565236868 -0.002344992852730346 -0.0005566436939780057 -0.003518836612442791 0.0001940362235210573 0.003052127670315955 0.007569570513986047 -0.009632787267107753 0.001943338288197887 
0.001280928322162273 -0.01357385889985501 0.01774887038463284 0.009566307331163886 0.01803207557568732 -0.001487083105695692 0.009983112218883745 0.0005598114748387284 0.01082115707397917 0.006156344972730486 
0.007062344081884164 0.01236798260760084 0.01665568942952588 0.002542343404072192 0.001034685137900958 0.00154386202077249 -0.01599703125003453 -0.0004296528851510826 -0.00166030812861419 -0.003509516865193633 
0.00817938584238199 0.001523128027008594 0.006302935049425604 -0.003594279848506688 -0.002884995320739032 -8.903206799938246e-05 -0.02134195491182636 -0.0005380188808559491 -0.01095179004620374 -0.004789262484143747 
0.006895137431962965 0.007960405311096591 0.02116112793043287 0.00278231531423236 -0.001127650898313877 0.00344148269327814 -0.02022174452978053 0.00238226450396848 -0.007373874358824701 -0.007422603321100959 
0.008589180869470414 0.01777072044562982 0.005283243106986527 0.001353697436542523 -0.001980844408109619 0.001373871198447227 -0.01570100936402223 0.001590212850507322 -0.002918563247542794 -0.003755170926000434 
0.01165198991910131 -0.01460415222992701 0.02974843352198163 -0.003096583311643379 -0.008245298432391728 0.001913458810683634 -0.03899623402322793 -0.001038261159706421 -0.02349218139930149 -0.01190412525374324 
0 0 0 0 0 0 0 0 0 0 
0.006895137431962965 0.007960405311096591 0.02116112793043287 0.00278231531423236 -0.001127650898313877 0.00344148269327814 -0.02022174452978053 0.00238226450396848 -0.007373874358824701 -0.007422603321100959 
-0.008589180869470414 -0.01777072044562982 -0.005283243106986527 -0.001353697436542523 0.001980844408109619 -0.001373871198447227 0.01570100936402223 -0.001590212850507322 0.002918563247542794 0.003755170926000434 
0.007062344081884164 0.01236798260760084 0.01665568942952588 0.002542343404072192 0.001034685137900958 0.00154386202077249 -0.01599703125003453 -0.0004296528851510826 -0.00166030812861419 -0.003509516865193633 
-0.00817938584238199 -0.001523128027008594 -0.006302935049425604 0.003594279848506688 0.002884995320739032 8.903206799938246e-05 0.02134195491182636 0.0005380188808559491 0.01095179004620374 0.004789262484143747 
0.007251534779529613 0.0008366572413074551 0.005615271401360158 -0.001201114948384278 0.004363383713735181 0.005702766395028566 -0.01689074141704574 0.001404398766571438 0.004095264746624008 -0.001590476107568061 
0.01310957105238112 0.00594401980598677 0.002624682093906431 -0.001700681258039735 -0.005242103966211113 0.002961729071364862 -0.007161125654712329 0.005461018345069631 -0.01420913262768524 -0.004915380989044726 
0.001817123428254197 -0.007804802192730661 0.01074158994261333 -0.00539666953119537 -0.00352089935558434 0.006126279574112891 -0.03043885162934257 -6.853499145599068e-05 0.007877896027806532 -0.003532213509466577 
0.01151138768807875 0.0158266897621578 -0.0009686103150894917 0.001503486081313105 -0.001972107249433819 0.006517907766474628 -0.006358461512399334 0.007733904279851081 -0.005969662507454376 -0.002958383474717358 
0.004775622136398694 -0.03051903432852087 0.01864619431615224 -0.01333649514617774 -0.01391371506385708 0.003741288695060156 -0.04989469534386196 -0.004638463792219107 -0.001903823192798369 -0.007274092165704724 
0 0 0 0 0 0 0 0 0 0 
0.001817123428254197 -0.007804802192730661 0.01074158994261333 -0.00539666953119537 -0.00352089935558434 0.006126279574112891 -0.03043885162934257 -6.853499145599068e-05 0.007877896027806532 -0.003532213509466577 
-0.01151138768807875 -0.0158266897621578 0.0009686103150894917 -0.001503486081313105 0.001972107249433819 -0.006517907766474628 0.006358461512399334 -0.007733904279851081 0.005969662507454376 0.002958383474717358 
0.007251534779529613 0.0008366572413074551 0.005615271401360158 -0.001201114948384278 0.004363383713735181 0.005702766395028566 -0.01689074141704574 0.001404398766571438 0.004095264746624008 -0.001590476107568061 
-0.01310957105238112 -0.00594401980598677 -0.002624682093906431 0.001700681258039735 0.005242103966211113 -0.002961729071364862 0.007161125654712329 -0.005461018345069631 0.01420913262768524 0.004915380989044726 
0.003661580160707962 0.003299922958695937 2.495753835914555e-06 0.001720993215913278 0.00619212481603185 0.007879008462501792 -0.009211157538303956 0.00852314012633361 -0.00372305412663145 -0.006144500596722797 
0.001214079049207733 0.001676551443263204 -0.001969830956450057 -0.00468168840512309 -0.01758824373863851 0.005577077666026229 -0.01232736056284502 0.004701433460905948 -0.00656681895632309 -0.01014127864473718 
-0.002664712606048691 -0.003474362159238563 0.00293443005229402 -0.0002295967506495654 0.00349555288401667 0.008435617861489504 -0.01317350289078264 0.01056456400747257 -0.003717571594482959 -0.008981572246777923 
0.002769091984662897 0.01342890162175799 -0.00656727192750044 5.497588613903832e-05 -0.009549966544187428 0.008264276353140232 -0.006409917568336308 0.009775170060808981 -0.000946499212015169 -0.008740344451930946 
-0.004171947768567312 -0.02682316004289441 0.0081594607058361 -0.007633924667601574 -0.007511334530009587 0.007554055552796139 -0.02928492816015018 0.007394327836620665 -0.01535440711943965 -0.01462213360025555 
0 0 0 0 0 0 0 0 0 0 
-0.002664712606048691 -0.003474362159238563 0.00293443005229402 -0.0002295967506495654 0.00349555288401667 0.008435617861489504 -0.01317350289078264 0.01056456400747257 -0.003717571594482959 -0.008981572246777923 
-0.002769091984662897 -0.01342890162175799 0.00656727192750044 -5.497588613903832e-05 0.009549966544187428 -0.008264276353140232 0.006409917568336308 -0.009775170060808981 0.000946499212015169 0.008740344451930946 
0.003661580160707962 0.003299922958695937 2.495753835914555e-06 0.001720993215913278 0.00619212481603185 0.007879008462501792 -0.009211157538303956 0.00852314012633361 -0.00372305412663145 -0.006144500596722797 
-0.001214079049207733 -0.001676551443263204 0.001969830956450057 0.00468168840512309 0.01758824373863851 -0.005577077666026229 0.01232736056284502 -0.004701433460905948 0.00656681895632309 0.01014127864473718 
0.002786220618756159 0.02122771121362244 0.008818859395247262 0.001334273416620574 -0.005919890016324744 -0.009048657403470771 -0.002575912005246668 0.004427631593152336 -0.004333172984883111 0.01604023204937359 
-0.005305405772235495 0.003247107538451568 0.01272232234791242 -0.004329253165253361 0.004226576037249679 0.001693545460482899 -0.008510624258822709 0.0006360374319188723 -0.009045276513005584 -0.004320104525684456 
0.01256439519714371 0.02051503135069427 0.003581355694420737 -0.0006088381608728107 -0.0164737896344691 -0.0123042149795948 -0.007958269213376862 0.008479220823432571 -0.01387954427592113 0.02102681918150984 
-0.004313030285530577 0.01765303318958631 0.01082658065300847 0.0004486251247494879 0.006428823204613311 -0.00120725386916517 -0.003192808849773265 0.004819062867497742 -0.00208039486369506 0.006248378992648147 
0.01949165247419449 0.007227088255869728 0.006115023918633073 -0.007960050203003471 -0.03239506707757861 -0.01494316020983728 -0.02119922758101763 0.00598971906551152 -0.03186553638105007 0.01528051862002446 
0 0 0 0 0 0 0 0 0 0 
0.01256439519714371 0.02051503135069427 0.003581355694420737 -0.0006088381608728107 -0.0164737896344691 -0.0123042149795948 -0.007958269213376862 0.008479220823432571 -0.01387954427592113 0.02102681918150984 
0.004313030285530577 -0.01765303318958631 -0.01082658065300847 -0.0004486251247494879 -0.006428823204613311 0.00120725386916517 0.003192808849773265 -0.004819062867497742 0.00208039486369506 -0.006248378992648147 
0.002786220618756159 0.02122771121362244 0.008818859395247262 0.001334273416620574 -0.005919890016324744 -0.009048657403470771 -0.002575912005246668 0.004427631593152336 -0.004333172984883111 0.01604023204937359 
0.005305405772235495 -0.003247107538451568 -0.01272232234791242 0.004329253165253361 -0.004226576037249679 -0.001693545460482899 0.008510624258822709 -0.0006360374319188723 0.009045276513005584 0.004320104525684456 
0.002522521081275561 0.004326740592706751 0.01582638528645877 -0.003656985987269875 -0.01080523262146894 -0.006995056090275859 -0.01156874297435254 0.002801067204849184 0.002804592511039991 0.01589540083088537 
0.007248690498077777 0.002541222270846587 0.004551525783291244 -0.002057883394503674 0.003402204949819654 0.002292333926139264 0.007385925248211981 0.009055524325601673 -0.006738672619783155 -0.004151822966841273 
-0.001953497533153875 0.001688216743295989 0.02062401039970439 -0.009800331978341622 -0.02740188872738444 -0.009977458699374138 -0.02886737863867374 -0.000205315707051666 0.002699861644573419 0.0163805973656213 
0.006970645753964194 0.009523002693131289 0.007065532261863871 0.0002373687900542296 0.003293448965271167 0.0008490413666290034 0.005960500322520864 0.01110296666731302 -0.0005395004815130258 0.006415731567659244 
-0.0009794670700144772 -0.01220632622099403 0.02713896497136046 -0.0189767126406753 -0.04580718421243648 -0.01292660006156898 -0.0444409256885125 -0.004675508445259202 -0.007834855681653921 0.007998414515842146 
0 0 0 0 0 0 0 0 0 0 
-0.001953497533153875 0.001688216743295989 0.02062401039970439 -0.009800331978341622 -0.02740188872738444 -0.009977458699374138 -0.02886737863867374 -0.000205315707051666 0.002699861644573419 0.0163805973656213 
-0.006970645753964194 -0.009523002693131289 -0.007065532261863871 -0.0002373687900542296 -0.003293448965271167 -0.0008490413666290034 -0.005960500322520864 -0.01110296666731302 0.0005395004815130258 -0.006415731567659244 
0.002522521081275561 0.004326740592706751 0.01582638528645877 -0.003656985987269875 -0.01080523262146894 -0.006995056090275859 -0.01156874297435254 0.002801067204849184 0.002804592511039991 0.01589540083088537 
-0.007248690498077777 -0.002541222270846587 -0.004551525783291244 0.002057883394503674 -0.003402204949819654 -0.002292333926139264 -0.007385925248211981 -0.009055524325601673 0.006738672619783155 0.004151822966841273 
-0.01284331383911015 0.01125745037430127 0.00568606358972536 0.002193249440065108 -0.0004705102590145419 -0.002751379648457193 -0.003685598425865294 0.01085963338462204 0.005370377160904321 0.008828463292567593 
-0.004685682078624732 -0.006083530217137485 0.01067861604085801 -0.004861248714405916 -0.008104618053868572 0.00328988196357909 -0.004477361227036751 0.00673401455103172 0.0003130476570255399 -0.01107955363287055 
-0.01691893707820766 0.01439668571364178 0.002398435767870994 -0.0008746639720988156 -0.01493989248395179 -0.004266558255112414 -0.008365495746237092 0.01280847011543363 0.006246553752486591 0.006225224929205097 
-0.008987959873217932 0.007911173573773654 0.007296264352542639 -3.187887569754069e-05 -0.0008215215392847285 0.0028353568814757 0.0008659331468423544 0.01245003223034513 0.007232993157320999 -0.001184261597796728 
-0.01814719916676521 -0.0003772300738069121 0.005431818487060317 -0.009097725799132437 -0.03517922552798559 -0.005450861952626717 -0.02075868873321541 0.01019318965144574 -0.003290765611606492 -0.005852838849607779 
0 0 0 0 0 0 0 0 0 0 
-0.01691893707820766 0.01439668571364178 0.002398435767870994 -0.0008746639720988156 -0.01493989248395179 -0.004266558255112414 -0.008365495746237092 0.01280847011543363 0.006246553752486591 0.006225224929205097 
0.008987959873217932 -0.007911173573773654 -0.007296264352542639 3.187887569754069e-05 0.0008215215392847285 -0.0028353568814757 -0.0008659331468423544 -0.01245003223034513 -0.007232993157320999 0.001184261597796728 
-0.01284331383911015 0.01125745037430127 0.00568606358972536 0.002193249440065108 -0.0004705102590145419 -0.002751379648457193 -0.003685598425865294 0.01085963338462204 0.005370377160904321 0.008828463292567593 
0.004685682078624732 0.006083530217137485 -0.01067861604085801 0.004861248714405916 0.008104618053868572 -0.00328988196357909 0.004477361227036751 -0.00673401455103172 -0.0003130476570255399 0.01107955363287055 
-0.005019751023784811 0.02134951098981325 0.00162621746534754 0.002381306670794715 0.008249373669046151 -0.01865180396698395 -0.000642531635559761 0.001624855878328795 -0.008097031807919325 0.01385597714644871 
-0.006633420965666926 0.004298127210471958 0.01522485835015848 -0.002632908793958058 -0.003989481777001327 -0.000226506975801558 -0.01282881444332491 0.001245967443163767 -0.006053118881814551 0.0001960440066837341 
-0.001158139300096491 0.02719099475520786 -0.01227069593163623 0.0001891887075021237 0.01157290638153514 -0.02453187460609964 -0.001495954530286699 -0.0003996825498897448 -0.01927941724553332 0.02396787932974785 
-0.007546456422119054 0.01821728080021157 0.01346326428738007 0.002364534940868781 0.003929084393298621 -0.006396885184154067 -0.003162497372778394 0.00528047446250091 0.00069688881689835 0.00843453213142273 
0.001907883089451185 0.01664906568619221 -0.01671850008750337 -0.007430231343128043 0.003231163287228442 -0.02951682907230567 -0.01739325116746816 -0.007459029539429766 -0.04041854175424112 0.02245418460703765 
0 0 0 0 0 0 0 0 0 0 
-0.001158139300096491 0.02719099475520786 -0.01227069593163623 0.0001891887075021237 0.01157290638153514 -0.02453187460609964 -0.001495954530286699 -0.0003996825498897448 -0.01927941724553332 0.02396787932974785 
0.007546456422119054 -0.01821728080021157 -0.01346326428738007 -0.002364534940868781 -0.003929084393298621 0.006396885184154067 0.003162497372778394 -0.00528047446250091 -0.00069688881689835 -0.00843453213142273 
-0.005019751023784811 0.02134951098981325 0.00162621746534754 0.002381306670794715 0.008249373669046151 -0.01865180396698395 -0.000642531635559761 0.001624855878328795 -0.008097031807919325 0.01385597714644871 
0.006633420965666926 -0.004298127210471958 -0.01522485835015848 0.002632908793958058 0.003989481777001327 0.000226506975801558 0.01282881444332491 -0.001245967443163767 0.006053118881814551 -0.0001960440066837341 
0.003290722968433454 0.005028680973052474 0.006288558550419045 -0.0006525850036768954 -0.001089685588128233 -0.02034770695744145 -0.001945870152703418 -0.000481641125670736 0.002377422839043939 0.02116303740560234 
0.004761296894111059 -0.00305941734372565 0.01290491991753523 -0.002127517930555059 -0.003538642487365876 -0.001282281156272869 0.005082165401867253 0.008367775968518839 -0.005319998231090172 0.0005692639830969689 
-0.002783273830052545 0.005327342713589783 0.002405503787924457 -0.005757155015678773 -0.007297683857761514 -0.02683581278694157 -0.01275841479129404 -0.00894998639189952 0.0007226977391833726 0.0278881924342567 
0.003782358437779677 0.007087551896692644 0.01131900757607623 0.001834825171091882 -0.001609753853653346 -0.006679757307043414 0.01333580422695185 0.01143470522664519 0.003869914800600559 0.01023475517078586 
-0.002484558479227651 -0.01024381536229052 0.005795142696417675 -0.01493711705504833 -0.01698568427965083 -0.03279998174542189 -0.03320970636537389 -0.02045105117093576 -0.01435518029668163 0.02577404454396078 
0 0 0 0 0 0 0 0 0 0 
-0.002783273830052545 0.005327342713589783 0.002405503787924457 -0.005757155015678773 -0.007297683857761514 -0.02683581278694157 -0.01275841479129404 -0.00894998639189952 0.0007226977391833726 0.0278881924342567 
-0.003782358437779677 -0.007087551896692644 -0.01131900757607623 -0.001834825171091882 0.001609753853653346 0.006679757307043414 -0.01333580422695185 -0.01143470522664519 -0.003869914800600559 -0.01023475517078586 
0.003290722968433454 0.005028680973052474 0.006288558550419045 -0.0006525850036768954 -0.001089685588128233 -0.02034770695744145 -0.001945870152703418 -0.000481641125670736 0.002377422839043939 0.02116303740560234 
-0.004761296894111059 0.00305941734372565 -0.01290491991753523 0.002127517930555059 0.003538642487365876 0.001282281156272869 -0.005082165401867253 -0.008367775968518839 0.005319998231090172 -0.0005692639830969689 
-0.02532985831868286 0.009758240258598953 0.008010540872207856 0.005431116779263109 0.002467626183327687 -0.01459482634803475 0.007073513204672146 0.006167501551136116 0.003058978665846022 0.02255441589966904 
-0.01626714555596111 -0.007382490041901108 0.02781295210488096 -0.004586532279472872 -0.01532166341018668 -0.002773291552416874 -0.007561271344278349 0.004164345561007496 0.004412674811504922 -0.00107361272914546 
-0.03124474998731603 0.01307461060412664 -0.001380438116673277 0.003938965077781498 -0.004461492008720229 -0.01666230259661956 0.006351162161646886 0.005484525980644437 0.0009440980137421031 0.02699106984145841 
-0.0214667255675359 0.006591249110171451 0.02277761430909546 0.001720515335933607 -0.00739151894247811 -0.006143336345136811 0.00660468953814635 0.008846198056042077 0.01182431494754582 0.01025092614695304 
-0.03673193168092156 -0.002449810125762786 0.001365123273277142 -0.003742942268947947 -0.02085766053467067 -0.02035265873300555 -0.01063354965015917 0.0001616791131309294 -0.01197647415110885 0.02176933840056962 
0 0 0 0 0 0 0 0 0 0 
-0.03124474998731603 0.01307461060412664 -0.001380438116673277 0.003938965077781498 -0.004461492008720229 -0.01666230259661956 0.006351162161646886 0.005484525980644437 0.0009440980137421031 0.02699106984145841 
0.0214667255675359 -0.006591249110171451 -0.02277761430909546 -0.001720515335933607 0.00739151894247811 0.006143336345136811 -0.00660468953814635 -0.008846198056042077 -0.01182431494754582 -0.01025092614695304 
-0.02532985831868286 0.009758240258598953 0.008010540872207856 0.005431116779263109 0.002467626183327687 -0.01459482634803475 0.007073513204672146 0.006167501551136116 0.003058978665846022 0.02255441589966904 
0.01626714555596111 0.007382490041901108 -0.02781295210488096 0.004586532279472872 0.01532166341018668 0.002773291552416874 0.007561271344278349 -0.004164345561007496 -0.004412674811504922 0.00107361272914546 
-0.00969673826585633 0.02300732090676879 0.007693872135461612 0.001977315982583073 0.01502382478183884 -0.008324580133327517 -0.01364333557817105 0.008518500707027005 7.388508658745962e-05 0.002245254816435428 
-0.005452702694457302 0.01157574195593342 0.01739670093629505 -0.001910813177291001 -0.009122169004270226 -0.00233933172658842 -0.01296977345488683 0.005540623028855516 -0.004564431639521027 -0.0009029865595028447 
-0.008663092954966319 0.02428103201008634 -0.002103504747691864 -0.001089399489023762 0.02468170818087825 -0.01324285451751845 -0.02208298599127118 0.007704386256558638 -0.01140260873249878 0.009151847949243317 
-0.009310376067082148 0.024912505640866 0.01700604163291965 0.002947641742334834 0.003212058557902729 -0.004188072102166865 -0.007403421059220681 0.01106203541890952 0.004622934823027944 0.004218440569530153 
-0.007172237642954031 0.01259782255976401 -0.00344548049441864 -0.009002816500875921 0.01888532600327444 -0.01826865923253551 -0.04265577359746935 0.002568443860145403 -0.0321644262108116 0.005617081815854606 
0 0 0 0 0 0 0 0 0 0 
-0.008663092954966319 0.02428103201008634 -0.002103504747691864 -0.001089399489023762 0.02468170818087825 -0.01324285451751845 -0.02208298599127118 0.007704386256558638 -0.01140260873249878 0.009151847949243317 
0.009310376067082148 -0.024912505640866 -0.01700604163291965 -0.002947641742334834 -0.003212058557902729 0.004188072102166865 0.007403421059220681 -0.01106203541890952 -0.004622934823027944 -0.004218440569530153 
-0.00969673826585633 0.02300732090676879 0.007693872135461612 0.001977315982583073 0.01502382478183884 -0.008324580133327517 -0.01364333557817105 0.008518500707027005 7.388508658745962e-05 0.002245254816435428 
0.005452702694457302 -0.01157574195593342 -0.01739670093629505 0.001910813177291001 0.009122169004270226 0.00233933172658842 0.01296977345488683 -0.005540623028855516 0.004564431639521027 0.0009029865595028447 
0.004293700309913695 0.004471531474501556 0.01553558400729819 -0.0006358876611595349 0.008225948947205417 -0.01524520821677311 -0.01355861066461214 0.006337321873525932 0.007149028978175201 0.01111502772942497 
0.007319891583495654 0.003259702648079171 0.01530377371665069 -0.001710685657824763 -0.005998901930465492 -0.002297266826237846 0.00201155297731134 0.01302767506791499 -0.004449012839798761 0.0006472340947036785 
0.001173270448409745 -0.001098493523400447 0.01560443543987632 -0.005774057282624046 0.01167030023759552 -0.02280590506210422 -0.03178888186896364 -0.0007697023571309302 0.002130720494762918 0.01539028573013318 
0.004675860126503145 0.01241546295977906 0.01606811294936485 0.002217368097847106 0.0009725435410601569 -0.00634745428719369 0.007066724986423704 0.0176732208968214 0.006916413017355278 0.007867977065733779 
0.003784900784835464 -0.01904467664791465 0.02132724351827586 -0.01482167774436405 0.005936265555315245 -0.02949969635383932 -0.05609032434756301 -0.01010588853662 -0.01480774812502748 0.01160251952209464 
0 0 0 0 0 0 0 0 0 0 
0.001173270448409745 -0.001098493523400447 0.01560443543987632 -0.005774057282624046 0.01167030023759552 -0.02280590506210422 -0.03178888186896364 -0.0007697023571309302 0.002130720494762918 0.01539028573013318 
-0.004675860126503145 -0.01241546295977906 -0.01606811294936485 -0.002217368097847106 -0.0009725435410601569 0.00634745428719369 -0.007066724986423704 -0.0176732208968214 -0.006916413017355278 -0.007867977065733779 
0.004293700309913695 0.004471531474501556 0.01553558400729819 -0.0006358876611595349 0.008225948947205417 -0.01524520821677311 -0.01355861066461214 0.006337321873525932 0.007149028978175201 0.01111502772942497 
-0.007319891583495654 -0.003259702648079171 -0.01530377371665069 0.001710685657824763 0.005998901930465492 0.002297266826237846 -0.00201155297731134 -0.01302767506791499 0.004449012839798761 -0.0006472340947036785 
-0.02809286938839733 0.01179541667140774 0.01306633998116623 0.00654553608309812 0.00980727845794176 -0.01042423202912915 0.0001251767065047936 0.01454011214842283 0.001445649759571279 0.01761218269471718 
-0.01705096386017896 0.0007547173080768153 0.02776283262835597 -0.003585108751395366 -0.01113228231210482 -0.0082361939374748 -0.008647440042783273 0.007656690422462688 0.003106597561661449 0.002496298523217314 
-0.0348835198399113 0.0100603927004549 0.007359872151658437 0.004925141750721443 0.008706606971401076 -0.01226866796078878 -0.006330330395363476 0.01527314499259764 -0.004290502659214962 0.02148547841378527 
-0.02333427203032565 0.01330083970485405 0.02442250162811865 0.003241360546550805 -0.000178908420485548 -0.008881278184810212 0.003691637488072313 0.01431680898499743 0.010894746523428 0.0121474482741858 
-0.0411788623114916 -0.006348493730237865 0.01210522833182261 -0.002526339794911485 -0.003656101260284472 -0.0173256731255132 -0.02634058168480658 0.01177087271617311 -0.01972787019479832 0.01676033107606244 
0 0 0 0 0 0 0 0 0 0 
-0.0348835198399113 0.0100603927004549 0.007359872151658437 0.004925141750721443 0.008706606971401076 -0.01226866796078878 -0.006330330395363476 0.01527314499259764 -0.004290502659214962 0.02148547841378527 
0.02333427203032565 -0.01330083970485405 -0.02442250162811865 -0.003241360546550805 0.000178908420485548 0.008881278184810212 -0.003691637488072313 -0.01431680898499743 -0.010894746523428 -0.0121474482741858 
-0.02809286938839733 0.01179541667140774 0.01306633998116623 0.00654553608309812 0.00980727845794176 -0.01042423202912915 0.0001251767065047936 0.01454011214842283 0.001445649759571279 0.01761218269471718 
0.01705096386017896 -0.0007547173080768153 -0.02776283262835597 0.003585108751395366 0.01113228231210482 0.0082361939374748 0.008647440042783273 -0.007656690422462688 -0.003106597561661449 -0.002496298523217314 
0.0001440267273921323 0.0303508167620101 0.009909957274485265 0.002642688343310674 0.00690150954423083 -0.01074724924611856 -0.009144341870675492 0.006879893956934841 0.0003916383739177048 0.005011571806128616 
0.00132442908155695 0.005153102788635501 0.01194083932132249 -0.002382038882336712 0.003623749131031135 -0.006123939167927138 -0.02037587775509269 0.003698359738982283 -0.01060129481427998 0.003890089497446398 
-0.0039667652984311 0.03420048975043979 0.006350706687118027 0.0002020645504835172 0.001894669195550412 -0.01025409296070478 -0.01207232515527679 0.008859288309972875 -0.007387374684082708 0.005933493227209338 
0.001140558255024026 0.02253656620656577 0.0123528251837754 0.003050899552041537 0.01123496625560222 -0.00798851724566106 -0.01101207541808885 0.008658115380403172 0.0002927102076032828 0.008947688977098757 
-0.004477334391852471 0.02234216997939899 0.007666285116737024 -0.007485566406653012 -0.01058861810078449 -0.01298821700336565 -0.03165144312199865 0.005278798985560904 -0.02745870599551977 0.000235760685628803 
0 0 0 0 0 0 0 0 0 0 
-0.0039667652984311 0.03420048975043979 0.006350706687118027 0.0002020645504835172 0.001894669195550412 -0.01025409296070478 -0.01207232515527679 0.008859288309972875 -0.007387374684082708 0.005933493227209338 
-0.001140558255024026 -0.02253656620656577 -0.0123528251837754 -0.003050899552041537 -0.01123496625560222 0.00798851724566106 0.01101207541808885 -0.008658115380403172 -0.0002927102076032828 -0.008947688977098757 
0.0001440267273921323 0.0303508167620101 0.009909957274485265 0.002642688343310674 0.00690150954423083 -0.01074724924611856 -0.009144341870675492 0.006879893956934841 0.0003916383739177048 0.005011571806128616 
-0.00132442908155695 -0.005153102788635501 -0.01194083932132249 0.002382038882336712 -0.003623749131031135 0.006123939167927138 0.02037587775509269 -0.003698359738982283 0.01060129481427998 -0.003890089497446398 
0.01456632243607778 0.0065528583417882 0.01146932342006721 -0.004091562889167391 0.005339090490021204 -0.01821598584017779 -0.006451051348389359 0.004318993622240601 0.006596601795342954 0.009444335757491215 
0.01222154076278553 -0.002611841838199689 0.009621530089659261 -0.0009274184155061044 0.005505049809356275 -0.003551849847983599 -0.008671087203808443 0.0101463023998662 -0.0101463497823857 0.004773799742205643 
0.008522746403547702 0.002822790415371813 0.01384554118674038 -0.01040311001143406 -0.006205097008315009 -0.02296525343757946 -0.008443489865283415 0.0005929666752420313 0.007136170512025704 0.007845874403744832 
0.01402891684022702 0.008707473324271724 0.01151701259178835 0.001775233105762113 0.01201771936559941 -0.008072137235127848 -0.002634736842677488 0.01302450073163865 0.001586892006686479 0.01035107897732089 
0.00984568845443784 -0.01562227021560004 0.01807770111795043 -0.01996411305581005 -0.0208667550903565 -0.02831334021104544 -0.0241100168769333 -0.00490033434007219 -0.007681596253387236 0.0008933657814878911 
0 0 0 0 0 0 0 0 0 0 
0.008522746403547702 0.002822790415371813 0.01384554118674038 -0.01040311001143406 -0.006205097008315009 -0.02296525343757946 -0.008443489865283415 0.0005929666752420313 0.007136170512025704 0.007845874403744832 
-0.01402891684022702 -0.008707473324271724 -0.01151701259178835 -0.001775233105762113 -0.01201771936559941 0.008072137235127848 0.002634736842677488 -0.01302450073163865 -0.001586892006686479 -0.01035107897732089 
0.01456632243607778 0.0065528583417882 0.01146932342006721 -0.004091562889167391 0.005339090490021204 -0.01821598584017779 -0.006451051348389359 0.004318993622240601 0.006596601795342954 0.009444335757491215 
-0.01222154076278553 0.002611841838199689 -0.009621530089659261 0.0009274184155061044 -0.005505049809356275 0.003551849847983599 0.008671087203808443 -0.0101463023998662 0.0101463497823857 -0.004773799742205643 
-0.006688982443529631 0.003045566209634676 0.004804690094607679 0.001902023567143505 0.0133227700581838 -0.01052444853487599 0.01089256661137178 0.01408925015623873 0.002067847767167692 0.01526283192087119 
-0.0118508652850418 -0.001323573645817657 0.01641041412541959 -0.003183258934952121 -0.003316486484467781 -0.00337524688705323 -0.01576730791718652 0.00676484325744376 -0.004698582560843652 0.002201775167626644 
-0.007915601491527971 -0.004562607376934024 0.0002690192551937356 -0.001911079771640759 0.0001456521391217733 -0.0116694710887264 0.01966118207303759 0.01474717981909926 0.001880938003637272 0.01695831607435108 
-0.01051848787071756 0.00847891641767398 0.01363742601649835 0.002097385963864742 0.009039424016935374 -0.005417367356887374 -0.001960233470469698 0.01367966497894147 0.005172516854591501 0.01062361382114211 
-0.009847204161923535 -0.02489651849754793 0.001930596154985801 -0.01054747771355093 -0.01804543088555134 -0.0148942419332908 0.008405715969320861 0.01096072911370039 -0.01234288579973209 0.01107034341422891 
0 0 0 0 0 0 0 0 0 0 
-0.007915601491527971 -0.004562607376934024 0.0002690192551937356 -0.001911079771640759 0.0001456521391217733 -0.0116694710887264 0.01966118207303759 0.01474717981909926 0.001880938003637272 0.01695831607435108 
0.01051848787071756 -0.00847891641767398 -0.01363742601649835 -0.002097385963864742 -0.009039424016935374 0.005417367356887374 0.001960233470469698 -0.01367966497894147 -0.005172516854591501 -0.01062361382114211 
-0.006688982443529631 0.003045566209634676 0.004804690094607679 0.001902023567143505 0.0133227700581838 -0.01052444853487599 0.01089256661137178 0.01408925015623873 0.002067847767167692 0.01526283192087119 
0.0118508652850418 0.001323573645817657 -0.01641041412541959 0.003183258934952121 0.003316486484467781 0.00337524688705323 0.01576730791718652 -0.00676484325744376 0.004698582560843652 -0.002201775167626644 
0.002923509610450519 0.01326902930065357 0.01622140028115576 -0.001367662281538583 0.001276871031543093 -0.003100832218632333 -0.01098662186576866 0.001421027653478811 0.002778889925786864 0.006452628547742321 
-0.002140572939183194 -0.007184695863760316 0.01853676542070136 0.002179219284459816 0.001139115497817095 -0.008856974288461564 -0.01887282958733627 -0.001045999756530543 -0.01141557875645013 0.003839529462880952 
0.002226640963556353 0.01113702274212208 0.006177920731840669 -0.005216202399114358 -0.006885285725320929 0.002789733236015993 -0.008880536982075622 -0.0004491779847572294 0.001309050795461292 0.01165756012515787 
-0.001245211395241648 0.01221488941448103 0.01888109131541282 0.005137945577939893 0.006565444825476947 -0.008314898329804194 -0.01373172841290478 0.002719459497500789 -0.001227019163136422 0.004779845823762578 
0.003155280777181184 -0.0140669820029901 0.005706535423998146 -0.01256496171557394 -0.02013929371073132 0.004058187976544878 -0.02066483424081855 -0.006633102764045076 -0.01366231636752971 0.0158305481257558 
0 0 0 0 0 0 0 0 0 0 
0.002226640963556353 0.01113702274212208 0.006177920731840669 -0.005216202399114358 -0.006885285725320929 0.002789733236015993 -0.008880536982075622 -0.0004491779847572294 0.001309050795461292 0.01165756012515787 
0.001245211395241648 -0.01221488941448103 -0.01888109131541282 -0.005137945577939893 -0.006565444825476947 0.008314898329804194 0.01373172841290478 -0.002719459497500789 0.001227019163136422 -0.004779845823762578 
0.002923509610450519 0.01326902930065357 0.01622140028115576 -0.001367662281538583 0.001276871031543093 -0.003100832218632333 -0.01098662186576866 0.001421027653478811 0.002778889925786864 0.006452628547742321 
0.002140572939183194 0.007184695863760316 -0.01853676542070136 -0.002179219284459816 -0.001139115497817095 0.008856974288461564 0.01887282958733627 0.001045999756530543 0.01141557875645013 -0.003839529462880952 
0.01036219949524085 0.0008770593667085889 0.01053184369125218 -0.007584108588822288 -0.001787105767616342 -0.007273283200066256 -0.0004215393232564166 0.003350018838333166 0.01325239913988014 0.007075323392871027 
0.005092790240373512 -0.004433889255656825 0.01431937001974543 0.002177715284636933 0.002302468398683465 -0.005702104008707833 -0.009448200895686765 0.005094148210200311 -0.01147065161148177 0.00236865796253965 
0.00721692532547875 -0.008572745327393804 0.007728367876132491 -0.01418618494014023 -0.01533657750909763 -0.006088372021453177 -0.00166527807461536 -0.002444424615115559 0.02112450623728133 0.01096917017433953 
0.006142193657197188 0.01002237873722775 0.01203338070477565 0.003075349476488452 0.002655948986472144 -0.007181206889748969 -9.654508038279981e-05 0.01026942084215946 0.002055288288749449 0.002353347215192145 
0.008724325478800282 -0.03747306827698606 0.01210807849982866 -0.02314983005600538 -0.02663221632411472 -0.00682011115758841 -0.01472026830982991 -0.0127101856216704 0.01144631168227397 0.0151991156023769 
0 0 0 0 0 0 0 0 0 0 
0.00721692532547875 -0.008572745327393804 0.007728367876132491 -0.01418618494014023 -0.01533657750909763 -0.006088372021453177 -0.00166527807461536 -0.002444424615115559 0.02112450623728133 0.01096917017433953 
-0.006142193657197188 -0.01002237873722775 -0.01203338070477565 -0.003075349476488452 -0.002655948986472144 0.007181206889748969 9.654508038279981e-05 -0.01026942084215946 -0.002055288288749449 -0.002353347215192145 
0.01036219949524085 0.0008770593667085889 0.01053184369125218 -0.007584108588822288 -0.001787105767616342 -0.007273283200066256 -0.0004215393232564166 0.003350018838333166 0.01325239913988014 0.007075323392871027 
-0.005092790240373512 0.004433889255656825 -0.01431937001974543 -0.002177715284636933 -0.002302468398683465 0.005702104008707833 0.009448200895686765 -0.005094148210200311 0.01147065161148177 -0.00236865796253965 
-0.0004626601582652513 -0.0006437984147939993 -0.008532591905782727 -0.002815084559451785 0.006896675757528017 -0.0005750356588851832 0.02578853660562916 0.0102414291252296 0.002452852268602775 0.009388640806974401 
-0.009879676952844099 0.0045726790852938 0.00856586561278192 0.0002556324069785076 -0.006166354574478781 -0.00472904435051649 -0.01720064784024689 0.003318735645347898 -0.004015176906550355 -0.003357854641439616 
-0.007915157494305448 -0.01398374467911443 -0.01868730577712958 -0.008043860916376549 -0.00750162780485628 0.003567299153445394 0.0365230210075853 0.01156844335731432 0.004905192455527523 0.01462737654670473 
-0.009122875570479052 0.01535649519381775 0.001743241837120392 0.003149033738044495 0.001865006467487167 -0.004434115106716395 0.002991979302096907 0.0095331441939459 0.004803831811908019 0.0002599808414706635 
-0.01186978852258133 -0.04282389151965339 -0.02149269537928047 -0.01663511889136049 -0.0243700222630483 0.004836560893032736 0.02826337020305101 0.007906320898348187 -0.006296112210440162 0.01655513570763101 
0 0 0 0 0 0 0 0 0 0 
-0.007915157494305448 -0.01398374467911443 -0.01868730577712958 -0.008043860916376549 -0.00750162780485628 0.003567299153445394 0.0365230210075853 0.01156844335731432 0.004905192455527523 0.01462737654670473 
0.009122875570479052 -0.01535649519381775 -0.001743241837120392 -0.003149033738044495 -0.001865006467487167 0.004434115106716395 -0.002991979302096907 -0.0095331441939459 -0.004803831811908019 -0.0002599808414706635 
-0.0004626601582652513 -0.0006437984147939993 -0.008532591905782727 -0.002815084559451785 0.006896675757528017 -0.0005750356588851832 0.02578853660562916 0.0102414291252296 0.002452852268602775 0.009388640806974401 
0.009879676952844099 -0.0045726790852938 -0.00856586561278192 -0.0002556324069785076 0.006166354574478781 0.00472904435051649 0.01720064784024689 -0.003318735645347898 0.004015176906550355 0.003357854641439616 
0.01021419662684007 0.0007107010107496642 0.003340431609207218 -0.004849558380621642 0.002377380585983614 0.003792009835486411 -0.007272827584456402 -0.00226313220794556 -0.01053733912413126 0.003973935011465098 
0.008874436149790065 0.003745078032275028 0.001674466875361441 -0.002189139170721101 -0.001663955975438246 -0.007443144823067257 -0.02055942663768462 -0.004765319434752609 -0.01525492810786747 0.001817960098650632 
0.01122834577106896 0.004963926956911073 -0.01135739787404182 -0.00646468486282931 0.001710138865621558 0.01294296937610663 0.002514370037459628 -0.001597432489019297 -0.009760016027116137 0.005577536020992034 
0.01177600139400808 0.009360669853631841 0.001565817892789933 -0.001089310412818715 -0.001701477567971037 -0.006788438570229437 -0.02136672112543126 -0.003226108319770138 -0.0126123298466177 0.001540911318053246 
0.01446108328240338 -0.007170088074820859 -0.01728185600665215 -0.01230500504973842 -0.001045412166431587 0.01649127922864264 0.0002233697172451287 -0.005413165627822259 -0.01947469215929355 0.009616558046206675 
0 0 0 0 0 0 0 0 0 0 
0.01122834577106896 0.004963926956911073 -0.01135739787404182 -0.00646468486282931 0.001710138865621558 0.01294296937610663 0.002514370037459628 -0.001597432489019297 -0.009760016027116137 0.005577536020992034 
-0.01177600139400808 -0.009360669853631841 -0.001565817892789933 0.001089310412818715 0.001701477567971037 0.006788438570229437 0.02136672112543126 0.003226108319770138 0.0126123298466177 -0.001540911318053246 
0.01021419662684007 0.0007107010107496642 0.003340431609207218 -0.004849558380621642 0.002377380585983614 0.003792009835486411 -0.007272827584456402 -0.00226313220794556 -0.01053733912413126 0.003973935011465098 
-0.008874436149790065 -0.003745078032275028 -0.001674466875361441 0.002189139170721101 0.001663955975438246 0.007443144823067257 0.02055942663768462 0.004765319434752609 0.01525492810786747 -0.001817960098650632 
0.006347013016328368 -0.0009961099681803978 0.008209635098058391 -0.0108269594239079 -0.003019690619047243 0.00156005070444823 -0.0006438991280464521 0.002508421711361405 -0.006646858695939661 -4.17420301774577e-05 
0.0107467046653416 0.01003048060379689 0.002754051812877661 -0.003176586152513556 -0.005338117644716769 -0.005227056240179858 -0.01188353896363348 -0.0001467212461374652 -0.02101293924977661 0.001654194547877054 
0.0009968136736510141 0.001781056486779271 0.00198869650264411 -0.01431272031656109 -0.007719524840830785 0.006960340996155055 0.008156928960289954 0.002143871162488281 0.003038354840449497 -0.0001223504875610957 
0.0124010364147787 0.01299906416542441 0.002515076738181117 -0.00369692154598139 -0.008904283306993936 -0.00503014958766983 -0.01157454724415765 0.003760261466198051 -0.01641529907817778 -0.002360336349742647 
0.0004986252129760023 -0.009047772554004352 0.00243731241890916 -0.02145119706739531 -0.009785135743788762 0.008764142248586954 0.007226193906705351 -0.004141068991817222 -0.002540815747302211 0.003946066048887523 
0 0 0 0 0 0 0 0 0 0 
0.0009968136736510141 0.001781056486779271 0.00198869650264411 -0.01431272031656109 -0.007719524840830785 0.006960340996155055 0.008156928960289954 0.002143871162488281 0.003038354840449497 -0.0001223504875610957 
-0.0124010364147787 -0.01299906416542441 -0.002515076738181117 0.00369692154598139 0.008904283306993936 0.00503014958766983 0.01157454724415765 -0.003760261466198051 0.01641529907817778 0.002360336349742647 
0.006347013016328368 -0.0009961099681803978 0.008209635098058391 -0.0108269594239079 -0.003019690619047243 0.00156005070444823 -0.0006438991280464521 0.002508421711361405 -0.006646858695939661 -4.17420301774577e-05 
-0.0107467046653416 -0.01003048060379689 -0.002754051812877661 0.003176586152513556 0.005338117644716769 0.005227056240179858 0.01188353896363348 0.0001467212461374652 0.02101293924977661 -0.001654194547877054 
0.004787510477296746 0.006839385850801053 -0.01463016551569492 -0.00814276783861965 -0.0006693644026445157 0.003457095141359482 0.01190821920027974 0.007302470490750033 -0.01537573307568067 -0.000826605563746965 
0.004001598749441042 0.01000560343586199 -0.01061693221862147 -0.005572986196592817 -0.01311525651644291 -0.003986206189368608 -0.02866627941899608 0.001294491721982882 -0.003306532184529453 -0.003439802761426988 
0.0008542032470316023 0.0107666043792287 -0.02846320447439466 -0.01118253101698486 -0.008127071386193497 0.01001227233083877 0.03365545003359408 0.01133023040794636 -0.01857970551903293 -0.0007934127980217666 
0.007167560182567607 0.01568186634434032 -0.01352503565297261 -0.004383794574748825 -0.0128309576621349 -0.003763304162233729 -0.01793340650856083 0.004643819752727148 -0.005775787935720349 -0.005528016337036788 
-0.0008793367841778657 0.0005122210977726074 -0.03667992907486506 -0.01868515753261027 -0.01518252464689334 0.01292770472211449 0.03236692979993346 0.01091864282501477 -0.02756090173296079 0.0006069591321493419 
0 0 0 0 0 0 0 0 0 0 
0.0008542032470316023 0.0107666043792287 -0.02846320447439466 -0.01118253101698486 -0.008127071386193497 0.01001227233083877 0.03365545003359408 0.01133023040794636 -0.01857970551903293 -0.0007934127980217666 
-0.007167560182567607 -0.01568186634434032 0.01352503565297261 0.004383794574748825 0.0128309576621349 0.003763304162233729 0.01793340650856083 -0.004643819752727148 0.005775787935720349 0.005528016337036788 
0.004787510477296746 0.006839385850801053 -0.01463016551569492 -0.00814276783861965 -0.0006693644026445157 0.003457095141359482 0.01190821920027974 0.007302470490750033 -0.01537573307568067 -0.000826605563746965 
-0.004001598749441042 -0.01000560343586199 0.01061693221862147 0.005572986196592817 0.01311525651644291 0.003986206189368608 0.02866627941899608 -0.001294491721982882 0.003306532184529453 0.003439802761426988 
0.01474936416268378 -0.00202857829281015 0.0073486084296836 0.005717751913476152 0.004855428179006077 0.008638755508095571 -0.01224974738355495 0.003143837293432556 -0.003288418722231288 -0.008809936357851786 
0.007132669855843817 0.006804363375105547 -0.004407932786471792 -0.005316014374644525 0.001624815508797053 -0.0001988226642435482 -0.02085223947053485 -0.003502470328035843 -0.01509345487953444 -0.02510890758861777 
0.02189117913561135 0.000180568467247081 0.007026654919607958 0.006700653544912697 0.003155203735163578 0.01642107954263981 -0.009129575573956194 0.001106226363885647 0.005107159081694873 -0.00662873884238989 
0.009641781146539232 0.01546553363748498 -0.00452607094213179 0.0009434410639020336 0.0001929668453561667 0.003765782692233604 -0.01767438729151741 0.00188507376421591 -0.009009711134296532 -0.02019769472390563 
0.03083159381282953 -0.01745882489946417 0.01160830039561057 0.0009581983512031573 0.002910735935938275 0.01871261238751123 -0.0217792639080564 -0.006645077637293707 -0.002433236150824116 -0.01357862910592383 
0 0 0 0 0 0 0 0 0 0 
0.02189117913561135 0.000180568467247081 0.007026654919607958 0.006700653544912697 0.003155203735163578 0.01642107954263981 -0.009129575573956194 0.001106226363885647 0.005107159081694873 -0.00662873884238989 
-0.009641781146539232 -0.01546553363748498 0.00452607094213179 -0.0009434410639020336 -0.0001929668453561667 -0.003765782692233604 0.01767438729151741 -0.00188507376421591 0.009009711134296532 0.02019769472390563 
0.01474936416268378 -0.00202857829281015 0.0073486084296836 0.005717751913476152 0.004855428179006077 0.008638755508095571 -0.01224974738355495 0.003143837293432556 -0.003288418722231288 -0.008809936357851786 
-0.007132669855843817 -0.006804363375105547 0.004407932786471792 0.005316014374644525 -0.001624815508797053 0.0001988226642435482 0.02085223947053485 0.003502470328035843 0.01509345487953444 0.02510890758861777 
0.007997794883217089 -0.007033763987698722 0.006096690287215769 0.0006188019003868418 -0.0008404096509004148 0.009254468551873273 -0.01010929169219725 0.01230680814755462 -0.002149885347618104 -0.004476394915788709 
0.007642867847173863 0.01167673609593023 -0.008771420953773207 -0.003245138283458384 -0.005710071968199067 0.001433979965687179 -0.002550790702089751 0.003047663376851745 -0.02193309329271832 -0.020741819566456 
0.006205664050530971 -0.007616879139413115 0.01071979710931027 -0.001570094516978081 -0.009595253607501474 0.0156758501350626 -0.01889211201486983 0.01100472392797414 0.01412699482994034 -0.003857136176241399 
0.007118726985665303 0.01770445068968379 -0.008463585644446067 0.0007751530851547836 -0.007140107367024075 0.006832441925750922 -0.003474125247751289 0.011399193103295 -0.01454259378921579 -0.01863414266656751 
0.01015064744333905 -0.02639203289855207 0.01796595781380743 -0.00875400167205515 -0.01322905268053159 0.01681525194590189 -0.03300690528172242 0.002600365254357391 0.009818533302070819 -0.007228338624794439 
0 0 0 0 0 0 0 0 0 0 
0.006205664050530971 -0.007616879139413115 0.01071979710931027 -0.001570094516978081 -0.009595253607501474 0.0156758501350626 -0.01889211201486983 0.01100472392797414 0.01412699482994034 -0.003857136176241399 
-0.007118726985665303 -0.01770445068968379 0.008463585644446067 -0.0007751530851547836 0.007140107367024075 -0.006832441925750922 0.003474125247751289 -0.011399193103295 0.01454259378921579 0.01863414266656751 
0.007997794883217089 -0.007033763987698722 0.006096690287215769 0.0006188019003868418 -0.0008404096509004148 0.009254468551873273 -0.01010929169219725 0.01230680814755462 -0.002149885347618104 -0.004476394915788709 
-0.007642867847173863 -0.01167673609593023 0.008771420953773207 0.003245138283458384 0.005710071968199067 -0.001433979965687179 0.002550790702089751 -0.003047663376851745 0.02193309329271832 0.020741819566456 
0.01428905326624474 0.0008824944429072299 -0.0003204337424726471 0.003157097824276676 -0.01227663876152332 0.007345605888422888 0.0012066960917698 0.0117043084063593 -0.01007335158807956 -0.002935561625757785 
0.001592688732094493 0.003673806269454369 -0.00779975655916788 -0.007278267605313592 -0.01640552642942891 0.00124033607837895 -0.0072604591534353 0.001929583129835838 -0.009587874586749905 -0.0160523547917179 
0.01282133505778024 0.004438265589877428 0.004559845436126825 0.003392498108454971 -0.01882835847583763 0.01375616833029433 -0.002638687537350629 0.01278330288948683 -0.005224640157334415 -0.004791669709224714 
0.006528463352393018 0.01374236016109012 -0.01097753961213792 -0.001379650211601801 -0.01737426137362767 0.005547477202375064 -0.001369236091393564 0.008961852698351445 -0.008026914882328699 -0.01253610299819424 
0.01433342336981126 -0.0139226815521025 0.01136674558445443 -0.003525082043478608 -0.02639036834880829 0.015345954118034 -0.01656027295206955 0.00822976408906508 -0.01338778716275602 -0.01050537638024408 
0 0 0 0 0 0 0 0 0 0 
0.01282133505778024 0.004438265589877428 0.004559845436126825 0.003392498108454971 -0.01882835847583763 0.01375616833029433 -0.002638687537350629 0.01278330288948683 -0.005224640157334415 -0.004791669709224714 
-0.006528463352393018 -0.01374236016109012 0.01097753961213792 0.001379650211601801 0.01737426137362767 -0.005547477202375064 0.001369236091393564 -0.008961852698351445 0.008026914882328699 0.01253610299819424 
0.01428905326624474 0.0008824944429072299 -0.0003204337424726471 0.003157097824276676 -0.01227663876152332 0.007345605888422888 0.0012066960917698 0.0117043084063593 -0.01007335158807956 -0.002935561625757785 
-0.001592688732094493 -0.003673806269454369 0.00779975655916788 0.007278267605313592 0.01640552642942891 -0.00124033607837895 0.0072604591534353 -0.001929583129835838 0.009587874586749905 0.0160523547917179 
0.01659218575582833 0.02751282400311059 -0.002865105043436714 -0.0009910155084324778 -0.01015737477083086 0.0009840732409673505 0.0001458717355570793 0.005858193080253307 -0.003423124303195648 0.007277254443503381 
0.001033840659028032 0.01426274598234294 1.072701788346908e-05 -0.002909091503173403 0.00860233920948575 0.005913116098106171 -0.01510623848457482 0.0008697628074130745 -0.008103194372408157 -0.01273434248911411 
0.02722664855079295 0.02336078368591617 -0.002215838164591856 -0.003750438017730888 -0.02966987970548745 -0.002899742232164816 -0.00157146969219229 0.009469395414138075 -0.01020010494775516 0.009657961851776609 
0.004733135059002334 0.02845825216251687 -0.0008106453157775774 0.0008429801608610928 0.008408730620960857 0.005933308496016083 -0.004931223470457816 0.005295909012848706 -0.0005099075094668426 -0.002590386455680199 
0.0364359515787853 0.01000084952071812 -0.002312284044796802 -0.01169939875997584 -0.04851681768365797 -0.00525806368399505 -0.01724351704422991 0.006462784031373896 -0.02778133055344946 -9.490714812480217e-05 
0 0 0 0 0 0 0 0 0 0 
0.02722664855079295 0.02336078368591617 -0.002215838164591856 -0.003750438017730888 -0.02966987970548745 -0.002899742232164816 -0.00157146969219229 0.009469395414138075 -0.01020010494775516 0.009657961851776609 
